66569 64
35259 -0.32041663 -0.512744 0.89681315 -0.044445515 -0.18794312 0.055853184 -0.12978332 0.07786072 -0.12372559 -0.08424719 -0.12351866 -0.1283009 0.28617212 -0.44274524 0.30855224 0.005175386 0.25190857 -0.43897042 -0.27561364 0.0175569 0.42585176 0.22337683 0.45193547 0.089820296 -0.20951279 0.0067177657 -0.25716522 -0.15422563 -0.02782319 -0.0481528 0.23084758 0.16778359 -0.4720391 0.22437228 0.10144612 -0.2464215 -0.20555799 0.0015436517 -0.40473557 0.12155576 0.027975423 0.02232956 -0.25978196 0.052796427 0.25739828 0.30040774 -0.30427882 -0.16178052 -0.015784718 -0.2442615 0.04720538 0.31005993 -0.06568763 -0.34867164 0.5404741 0.4019387 -0.08531426 0.3789544 -0.029733317 -0.19744463 -0.2774966 -0.41163203 0.057472162 -0.16316094
348919 -0.00080514734 0.108257696 0.382819 -0.2576784 -0.075846784 -0.11038613 0.22697729 -0.102570996 -0.14779843 -0.01629516 -0.033178307 -0.012794393 0.35185122 -0.3142965 0.09542431 0.17914306 0.1162429 -0.27026558 0.30370826 0.036815044 0.26170957 0.16925451 0.29114473 0.16255516 -0.22137676 0.0047134976 -0.1321423 0.18025962 -0.21847332 -0.062409986 0.039723087 0.053419653 -0.4070106 0.16314982 -0.26734087 0.11753115 -0.16173176 -0.15976426 0.051313866 0.573783 -0.350967 0.14064507 0.18728241 0.01979993 0.29359618 0.16647536 -0.23170617 0.2690624 -0.21609668 0.16333707 -0.10547077 0.6278036 0.0016810829 -0.20683567 -0.015189913 0.13487466 0.31487906 0.055326268 0.3354273 0.22474201 -0.06450815 -0.24462187 0.07402835 -0.116492115
200147 -0.15945692 -0.17168602 0.3953291 -0.4135757 -0.07320342 -0.03984039 0.22591725 0.25001502 -0.037408467 0.19469906 0.04196972 0.2089157 -0.011550012 -0.31944808 0.18462075 -0.062294595 0.27412844 -0.57670075 0.16762164 -0.0477949 0.41368845 0.043652672 0.77044773 -0.010457707 -0.060193658 -0.082612365 -0.40384215 -0.20509149 -0.08408839 0.05585378 -0.08564783 -0.22368066 -0.18701419 -0.024109561 -0.0010033584 -0.06649525 -0.23738796 0.32806686 -0.13807385 -0.19961369 -0.30674633 0.022221893 -0.06409788 -0.12451065 -0.19024493 0.3532972 -0.030562663 -0.29411075 -0.15263563 -0.30717915 0.19339463 0.19907606 -0.039290566 -0.16697755 0.524849 0.28796533 -0.20045665 0.446406 0.08358728 0.5124602 -0.25551152 -0.19866528 -0.36781493 0.039601196
171496 -0.29502824 -0.22787322 -0.12844694 0.17562352 -0.22325748 0.38446414 -0.24546243 -0.11881907 0.49115407 0.12119329 0.11086825 0.03712225 0.3728823 -0.41244787 -0.3874317 -0.06862979 -0.12511083 -0.05056757 0.15113793 -0.25746328 -0.20977359 0.071005836 -0.047992144 -0.030459877 -0.10221817 -0.37724343 -0.30278486 -0.1873516 -0.3901634 0.14095974 0.045937862 0.06462299 -0.06579503 0.18048093 -0.18807384 -0.3240181 0.14093207 -0.35167855 0.5261106 0.31785148 -0.4282629 -0.032558545 0.25440574 -0.8458758 0.034498446 0.08693336 -0.11802675 -0.2654893 -0.24811862 -0.36902136 -0.19898055 -0.09752498 -0.043973796 -0.24063043 -0.37818974 0.08488261 0.01941107 0.08251279 -0.019231576 -0.73597234 0.09716244 -0.26497892 0.009716903 0.09157026
348916 0.43983424 -0.43998763 0.56633615 0.10695547 -0.19723791 0.35103947 0.40769956 0.04837137 0.0702373 0.31251267 0.016056404 0.052399643 0.048318904 -0.29754758 0.4911771 -0.18013263 0.63064593 -0.34637547 0.22353537 0.029943388 0.06923952 -0.21937054 0.42073417 0.21857807 0.3912363 0.262469 -0.15455885 0.48804662 -0.39820427 0.3238546 0.3059193 -0.21840593 -0.43547884 0.63363916 -0.6353537 -0.19065848 -0.46016267 -0.106326856 -0.24377954 -0.33496442 -0.034074947 0.04721938 0.3944959 -0.1110177 0.072589085 0.37023073 -0.09009139 -0.37130597 -0.17171562 -0.3725763 0.23508997 0.17697157 -0.18737336 -0.14810954 0.099167585 0.22627753 0.009646755 0.21703379 0.2081195 0.20390487 -0.49411783 -0.5772254 -0.23566097 0.017904725
251164 -0.24473067 -0.07656845 0.06732177 -0.21655297 -0.23912545 0.119031586 0.33947596 0.051686324 -0.16494964 0.46405274 -0.31115174 -0.053662196 0.63359284 -0.17608996 0.056305338 -0.0015255491 -0.008601441 -0.20912991 0.29639238 0.0524673 0.2902509 0.14052542 0.5354353 0.1736223 0.2167779 -0.3736574 -0.28559962 -0.0639456 -0.54249275 0.10806124 -0.13724066 -0.046653472 0.031304475 -0.1220641 0.007481389 0.30458117 0.041907374 -0.43949547 0.16440536 -0.66133815 -0.42785528 0.24150938 -0.24045953 -0.059602723 0.017588452 -0.2018647 0.25785875 -0.2903662 0.2195538 -0.29944524 -0.52629435 0.19665898 -0.19048774 0.20898099 0.109583646 -0.12438573 0.20578597 -0.28811085 0.35070598 0.8552195 0.016524145 -0.62081504 -0.34702927 -0.13252762
234898 -0.29022986 -0.13160223 0.33685625 -0.22634268 -0.34229162 0.12042601 0.12088899 0.08297994 0.010233143 0.37391436 0.075447924 -0.12920791 0.5065569 0.034361552 0.15873362 -0.044536185 0.021815963 -0.1358061 0.20704097 -0.09467572 0.20929956 0.21395382 0.5100268 0.21534683 0.3387713 -0.54174054 -0.3794431 -0.052689116 -0.3547016 0.115654305 -0.039358377 -0.0027568631 -0.058477428 -0.029482203 0.1874526 0.35500672 0.20741615 -0.46321297 -0.01727835 -0.45606518 -0.39045352 0.5895975 -0.0764936 -0.17357092 0.06395162 -0.13450825 0.13067824 -0.28318393 0.2558958 -0.3134465 -0.45319733 0.5028837 -0.2430197 0.22889102 0.066222094 0.002432476 0.22480227 -0.12981492 0.33347064 0.87544423 -0.17420068 -0.7228205 -0.220907 -0.08870458
69135 -0.06530081 0.0011030943 -0.06961428 0.13917719 -0.21349184 0.086921744 0.31511956 -0.1477079 -0.2018837 0.049076762 0.06398065 -0.09972367 0.73126847 -0.3522982 -0.053243812 0.26342732 0.013050146 -0.09679938 0.065646745 0.0771811 0.49155232 0.1022872 0.27995336 0.17104124 0.066070646 -0.29394877 -0.40110332 0.014878059 -0.48833838 0.15633589 -0.1788951 -0.14783168 -0.30832228 0.30832848 -0.06972476 0.21438685 -0.35327604 0.257287 0.41733345 0.027490877 -0.20862232 0.16803831 -0.18507428 -0.025086138 0.2423615 -0.25280565 0.03253627 0.24319786 -0.11063555 0.015247377 -0.16239808 0.1707418 0.3061832 -0.21263461 0.14319402 -0.04783224 0.22648908 -0.28399587 0.08177115 0.6597421 -0.25394586 -0.36589223 -0.06739476 -0.0016566847
276593 -0.111838676 0.12714216 0.26960498 -0.24790537 -0.08884823 0.072565034 0.13656572 -0.07935749 -0.17598976 0.27165085 0.03454126 0.23829278 0.49501216 -0.13951485 -0.016034987 -0.11966895 0.021566322 -0.30443048 0.26706025 0.22930706 0.5583028 0.12180568 0.35176212 0.17321035 -0.1168149 -0.4025189 -0.30889347 -0.11513517 -0.47317496 -0.2971242 0.12516555 -0.048222955 -0.24776094 0.40579897 -0.30029914 -0.17958549 -0.12165006 0.14053813 -0.069011465 0.10500445 -0.4975536 0.2878673 0.09131168 0.2919235 -0.10980417 0.0012893056 0.06317029 0.16096276 -0.1380861 0.15174194 -0.021969534 0.24080116 0.053647205 0.054713923 0.2515514 -0.22505435 0.18306206 -0.029179992 0.078807645 0.5720312 -0.39236936 -0.1780998 0.03415663 -0.08913325
282492 -0.19181383 -0.2756887 -0.068190135 0.03843996 -0.24476895 0.1953136 0.30294248 -0.13135006 -0.14146765 0.43907657 -0.19499527 -0.10637638 0.7173472 0.05477837 0.114457056 0.38170496 0.015067258 -0.050734036 0.34606624 0.19427653 0.18246052 -0.05650949 0.4811972 0.11075338 0.3070246 -0.31318384 -0.34156677 -0.07122307 -0.37144402 0.15137866 -0.23611298 -0.14453977 -0.16025573 0.022652075 -0.16242298 0.36146516 -0.06706621 -0.11468044 -0.018824205 -0.07118618 -0.34923124 0.22756036 0.104612425 -0.07524829 0.036449164 -0.14857642 0.1273897 -0.13036585 0.060152862 -0.08150925 -0.26477072 0.4434009 0.1182793 -0.025334062 -0.025018344 0.014922486 0.148765 -0.26455772 0.0942033 0.73443323 -0.1193009 -0.53901166 -0.3849723 0.0108713
146763 0.1251115 -0.29378298 -0.18503314 0.35252216 -0.25642267 -0.08999716 0.41443548 0.2074277 -0.25384572 0.039413832 -0.04326939 0.43664518 0.05461836 -0.07805142 0.10154472 0.20214283 -0.2663744 -0.35557404 -0.07719807 -0.26944992 -0.790491 0.1319734 -0.009436919 -0.05578718 -0.50909245 0.058346584 -0.4906607 -0.18009453 -0.19418709 0.14135271 -0.1811745 -0.15306795 -0.29631132 0.027460651 -0.0779614 -0.029000804 -0.48315603 0.3870609 -0.25070342 0.43894044 -0.6089808 0.22521639 0.02811439 -0.35587177 0.10867949 -0.12736428 -0.55597836 0.36965954 -0.055676337 -0.60915214 -0.52379113 0.17458518 -0.081585355 -0.57897425 0.5928187 -0.039262097 0.042122237 0.14373358 0.08858452 0.6609324 -0.33412528 -0.15417877 -0.38496357 0.072213806
21770 0.051250957 0.05335827 0.6950465 -0.06296565 -0.21689501 -0.19140702 0.034696735 0.11607628 0.014189 0.3423603 0.38694516 -0.031815555 0.5218031 -0.36529276 0.20504239 0.069161505 0.016923701 0.0033361283 0.42031717 0.012450191 0.35575944 0.07644016 0.47282705 0.26245108 0.09784953 0.08657599 -0.3383915 -0.103155725 -0.19077635 -0.18873191 0.22201063 -0.008285917 -0.37038213 0.10587292 -0.19109991 -0.15878719 -0.2564286 0.24193744 0.007306159 0.3045605 -0.07067696 0.09760098 0.0802091 0.112861715 0.08497545 0.13727088 -0.15082832 0.1407301 -0.20987056 -0.09495866 0.09229311 0.41514984 0.10769709 -0.097338 -0.060814634 0.07721306 0.4234975 0.2298499 -0.21188018 0.18060596 -0.035241317 -0.4489955 -0.036497295 -0.3763826
482823 -0.19776061 -0.1548399 0.33350414 -0.003284907 -0.35551628 0.07648185 0.38131288 0.032979567 0.017844534 -0.2773227 -0.1339048 -0.27576473 0.33244863 -0.041771878 0.14059174 -0.031784162 -0.07242834 -0.36965087 0.286805 -0.23026681 0.048279822 0.05326916 0.25124207 0.41421884 0.07542164 0.10972562 -0.4815799 0.0019512055 -0.10853954 0.18211527 0.32661292 0.26178357 -0.32369828 0.41165268 -0.18296102 -0.19659631 -0.38731736 0.063223995 0.18906648 -0.06603369 -0.29538223 0.14838101 -0.12949057 0.030203572 -0.21995011 -0.1588596 -0.1962368 0.23750718 -0.3156092 0.18947046 -0.48563284 0.29856122 0.28048474 -0.3136731 -0.28061515 -0.07589997 0.46994337 0.1956386 0.29352653 0.32578775 0.017121762 -0.31248385 -0.19057125 -0.20086612
325985 0.27161568 -0.07613715 0.5253465 0.10421881 -0.3228955 0.22838862 0.27579826 0.12158667 -0.18653265 0.0341074 0.11834727 -0.046331592 0.46683222 -0.42127356 0.31946245 -0.2427277 0.2679362 -0.3907582 -0.2841522 0.19985592 0.7383176 -0.014711356 0.4166849 0.45370406 0.09225002 -0.08211708 -0.22065252 0.0790605 -0.04569091 0.10277611 0.24424565 -0.32165837 -0.3592918 0.2725475 -0.19796216 -0.08346203 0.0001003982 -0.045710895 -0.14182986 0.030643892 -0.23358333 0.31178126 0.040361334 -0.07804261 -0.012674396 0.26219046 -0.2893007 -0.09792614 -0.07217681 -0.22278917 0.014823287 0.3358642 -0.40556696 -0.05736059 0.0049997205 0.2963223 0.11894815 -0.07700604 0.28689837 0.3745773 -0.508381 -0.34956014 -0.29661202 -0.3904251
485010 -0.010019042 -0.076905325 0.16965683 0.14150347 -0.26514143 0.18241113 0.14107925 -0.07780338 -0.04553139 0.15306737 0.08650924 -0.108656235 0.28271744 -0.35393405 -0.051992476 0.46957773 0.04613089 -0.18676299 0.18110079 0.04055135 0.058731753 -0.4600567 0.045563206 -0.0127565125 -0.006609 0.2239824 -0.4320324 0.11625058 -0.1393752 0.5099741 0.11943385 -0.6536453 -0.45053187 0.05380551 -0.6447732 -0.1739255 -0.18954371 0.11234706 0.13572507 -0.30781564 -0.33013263 0.37442535 0.1368244 -0.032715317 -0.07838632 -0.24731366 -0.62390757 0.11848677 -0.07284189 0.1656707 -0.25819856 0.2163277 0.41653967 -0.34840715 0.08917485 -0.06859785 0.323129 -0.25483692 0.19450665 0.34505275 -0.3031516 -0.5639789 -0.13307509 -0.2756977
72980 -0.0317694 0.061193496 -0.16824745 -0.21534152 -0.094610915 0.23061664 0.18358147 -0.003117483 -0.020256821 0.100580126 0.13902844 -0.5166422 0.54055727 -0.44433385 0.15351601 0.14227046 0.3385549 -0.1287583 0.35588917 0.29589403 0.30480772 0.001288596 0.37847412 0.031804197 0.1868029 -0.0036585678 -0.28493214 -0.25905597 -0.36191535 0.011102979 0.22886531 -0.032016937 -0.07290476 -0.004923215 -0.14277656 0.068894915 -0.17140453 -0.021304518 0.23202845 0.16723724 -0.44779047 0.32871637 0.21113108 0.2665185 -0.29568 -0.23008095 0.33584687 -0.38021845 -0.16074328 -0.10224904 -0.055109896 0.495423 0.17056157 -0.1312211 0.23417246 -0.24762082 -0.105275825 -0.13021617 0.05759866 0.87916636 -0.26695216 -0.2933776 -0.2121265 -0.15459852
265557 -0.21605289 0.03336951 -0.05463955 0.08304955 -0.044922527 0.57657504 -0.33233818 0.31754467 0.03156553 0.11783707 0.21666624 0.013298348 0.5831919 -0.18633486 -0.064828485 0.14030229 -0.33290386 -0.3844559 0.077028304 -0.21709186 0.1635411 0.21716921 0.15052341 -0.20184533 -0.121112965 -0.28980073 -0.06643037 -0.19028263 -0.22869074 -0.3148379 -0.05190112 -0.4592793 -0.41863516 0.42391402 -0.4028998 -0.08638727 -0.18390596 0.26014212 0.019132307 -0.026479704 -0.5560843 -0.24260841 -0.09230652 -0.20676333 0.28603992 -0.33146405 0.48309925 -0.2540663 -0.010443491 0.047624167 -0.06461343 -0.08847206 -0.21839638 0.016546115 -0.16710211 0.035675246 -0.098534204 0.113047786 -0.15058716 0.07632348 -0.30132234 -0.08001803 -0.3217617 -0.013966116
228272 -0.31280836 -0.033651356 -0.35817963 -0.058874905 0.22191529 0.56852895 -0.08221961 -0.09238608 -0.046062477 0.43786746 0.2796721 -0.35683095 -0.00091407105 -0.39457497 -0.35443667 -0.025318328 -0.29625624 -0.38812974 -0.30149752 -0.20415021 0.10368157 -0.4540132 -0.0704115 0.48749846 -0.02800522 -0.2955184 -0.5880165 0.0015704248 -0.53759974 -0.033568196 0.20488177 -0.103294775 -0.6892466 -0.03712368 -0.10921318 -0.07276786 -0.05555781 -0.5340873 0.1545223 0.27032304 -0.21515645 -0.058863472 0.09582138 -0.14160007 -0.056956027 -0.14740172 0.331931 0.09444787 -0.38188693 -0.24999133 0.050028432 -0.22569402 -0.17530857 -0.42163247 -0.1320336 0.22402976 -0.05324076 0.18075594 -0.063625745 -0.52531666 0.061015815 0.20113553 -0.09723247 0.47460923
233345 0.14103444 -0.025107987 -0.13713355 0.0152514065 0.023968512 -0.012640015 0.023077577 -0.5207726 0.050341547 0.27762944 -0.4614862 0.34039947 -0.07206364 -0.48479313 0.19621646 0.4242533 -0.5527707 0.009440956 -0.04218766 0.057227198 0.31639224 -0.05940411 0.38548258 0.043446217 -0.36896953 0.42766932 -0.12125941 0.5637363 -0.19231915 0.24400502 0.027737746 0.12454007 -0.1389894 -0.05456996 -0.5504106 0.49881476 0.046282582 -0.115261704 0.10168102 0.29934692 -0.5425487 0.27794063 -0.38838327 0.160009 0.21074675 0.11530845 0.034578934 -0.0761592 -0.36237866 0.35106212 -0.101930775 0.12513618 0.32836324 -0.2652607 -0.21167213 0.08644319 0.38129848 -0.26545525 -0.023590393 0.23938686 -0.063721724 -0.46965194 -0.04390457 0.089568056
238508 -0.43116397 -0.120918624 0.019324722 -0.083379805 0.008545861 0.250669 0.031118033 -0.18454415 -0.23571904 0.3197112 0.33526176 -0.024228824 0.11239735 -0.0920799 -0.211852 0.09799274 -0.33919528 -0.33687916 0.099350736 -0.17703882 0.19693904 0.027569486 -0.27535897 -0.1532246 -0.26242897 0.1618351 -0.15560237 -0.16080515 -0.5460167 -0.3342079 0.07830054 -0.12353984 -0.43862906 -0.14051192 0.11311837 -0.12635562 -0.026939139 -0.2460172 -0.21011294 0.15464793 -0.21975005 0.22627337 0.058150258 -0.15896939 0.004661761 -0.075766265 0.13067265 0.06446316 -0.55434895 -0.223089 0.17387162 0.039294265 -0.05670793 -0.1797463 -0.21825802 0.037923038 0.051683117 0.011412065 0.071556404 -0.09831495 0.17885041 0.10045149 -0.001726302 0.14771852
187039 -0.122025184 -0.16073616 -0.105848566 0.20172656 -0.116923645 0.007631731 0.30729735 -0.14470972 -0.07836539 0.17465116 -0.35644454 0.10622051 0.42695993 -0.18751568 0.07024292 0.2779122 -0.117813736 -0.07988867 0.06630938 0.13612725 0.41519526 0.09486722 0.20661883 0.11003404 0.050135974 0.023777522 -0.4839148 0.16067697 -0.41464058 0.00010994727 -0.09308087 -0.06806546 -0.45523393 0.5240605 -0.1727631 0.40124616 -0.49632508 0.026499309 0.29596412 -0.15508497 -0.56754285 0.09550526 -0.27129388 -0.05755723 0.0893572 -0.24561143 -0.090733245 0.36649102 -0.25124633 -0.1008685 -0.3482337 0.2520499 0.31000963 -0.17959785 0.15718846 -0.10387999 0.07031927 -0.469464 -0.06106268 0.536364 -0.30728474 -0.38285995 -0.096554175 0.027582817
361062 -0.037874967 -0.13320522 -0.11083511 -0.10078799 -0.10175645 0.09425744 0.49072957 -0.06288719 -0.26134807 0.15727988 -0.2431263 -0.12932152 0.32144028 -0.44766074 0.15250494 0.3554812 -0.17033836 -0.008827762 0.35519105 0.12290545 0.09157795 0.03424229 0.22049034 0.06459918 -0.11542561 0.07467684 -0.5716979 0.18365708 -0.41941532 0.14425747 0.25719914 -0.15173829 -0.2845048 0.23401944 -0.24982934 0.30754992 -0.22541063 0.025676962 0.22428557 0.11749384 -0.33666208 -0.058832165 -0.02502841 0.275965 0.4177187 -0.23226564 -0.0038714688 0.21029016 0.12262622 0.1605119 -0.20799534 0.47903356 0.6138809 0.092809424 -0.111349456 -0.113208435 0.21634392 -0.388976 0.33405405 0.25462615 -0.32054383 -0.40618238 0.03708418 0.21182443
311486 0.2946411 0.26440948 0.35082182 0.09677681 0.014086429 -0.0725168 0.27748945 -0.15482791 -0.24065912 0.10041966 0.24819343 -0.1518943 0.34802687 -0.25825667 0.37369838 -0.4015926 -0.006926276 -0.34971923 0.02999758 0.0661394 0.32598317 0.034101103 0.31625843 -0.11770645 0.023592984 -0.14946777 -0.22460818 -0.20109 -0.29219368 -0.527181 0.14853232 0.12528063 -0.009569122 0.17648926 -0.2545024 -0.21592407 -0.27978593 -0.3374937 -0.11103891 0.15318051 -0.22265293 0.29226398 -0.08117787 0.012449823 -0.014222684 0.048458662 0.015166697 0.07826025 -0.41926217 -0.15969217 -0.13531138 0.06067918 0.23068516 -0.13573708 -0.076214306 0.1481535 0.34285042 0.10701015 0.29902837 0.24824132 -0.39030257 -0.21822158 -0.07571775 -0.2011738
109173 -0.192946 -0.12520017 -0.007246816 -0.30889785 -0.34830272 -0.087333016 0.19272138 -0.108955696 0.2325444 0.04042161 0.1379038 -0.022049569 0.37873527 -0.22412515 0.13058792 0.33974552 -0.00907426 -0.41016632 -0.03759655 0.2410188 0.073480494 0.108155124 0.13380364 0.08792013 0.069243565 0.18673277 -0.118857116 -0.19970106 -0.49447042 -0.17370552 -0.18814817 -0.27990383 -0.23754407 0.13639894 -0.09088382 0.15707678 -0.47706643 -0.0035368847 -0.041365188 0.09282307 -0.5354857 -0.05003594 -0.5384705 0.2769459 -0.50597715 0.2394246 -0.08551249 -0.095732674 -0.19949824 0.114081025 -0.28488916 0.24660598 0.11240199 -0.25169185 0.36826023 -0.086538516 0.25966904 0.025047248 0.05758231 0.41582006 0.020140551 -0.35626164 -0.14850384 -0.14042485
169557 -0.4198554 -0.57436043 -0.18110582 -0.05379888 -0.13758284 -0.19423579 0.1061705 0.2699047 0.041299053 0.34519333 0.10806294 0.036856603 0.12712382 -0.24298441 -0.3355583 0.2678404 -0.5089862 0.010082985 -0.026907733 -0.058385067 0.0026849054 0.18828873 0.12692006 -0.0931497 0.24231431 -0.44086173 -0.25658536 0.00063885 -0.20748356 -0.08828981 0.1486119 -0.29288107 -0.29742885 0.17292735 -0.50661093 -0.23584183 0.17370148 0.27831727 0.11526803 0.17926502 -0.55432343 -0.09145018 -0.20543526 -0.14779401 0.17505983 0.13627142 0.16105056 -0.085429706 -0.3460675 -0.34531274 0.17598033 -0.039578628 -0.3615001 -0.076056 -0.3112422 0.26718813 0.14837824 0.30215147 0.009367072 -0.16347587 -0.1366481 -0.08671249 0.054604355 0.013370915
71605 -0.17591344 -0.05218418 0.17029779 -0.06283705 0.047466367 -0.0016253198 0.18263645 -0.05516536 -0.09737918 0.0568973 0.084642604 -0.1470467 0.6695313 -0.3694274 0.24499401 0.20435953 0.07691811 -0.21310857 0.35786295 0.25101864 0.58708847 0.15856193 0.3432705 0.25051212 0.11250835 -0.33898064 -0.13633688 -0.0029529368 -0.39579037 0.05466804 -0.03912078 -0.21086934 -0.23518813 0.38580474 0.021405201 0.09205969 -0.4285663 0.15397596 0.30700397 0.15616825 -0.36464387 0.03807313 -0.17035902 0.13981292 0.34228987 -0.145069 -0.10867718 0.034902774 -0.1574965 -0.16025174 -0.23151124 0.266396 0.346054 -0.12713277 0.1050814 0.25742427 0.15847988 -0.42943755 0.021617262 0.43313572 -0.2556115 -0.4954033 0.13601376 -0.024124458
89891 0.08632017 -0.05614897 0.584505 -0.11403431 -0.14819995 -0.13011962 0.07171706 -0.12017761 -0.17116186 -0.11051393 0.16422907 -0.16107938 0.32821858 -0.6096017 0.24007626 0.13164376 0.54058564 0.23638561 0.42582297 0.031805858 0.2545174 0.23286499 0.5577598 -0.03628726 -0.07368059 -0.22455254 -0.016281696 0.13146509 -0.22443701 -0.032572515 0.11517511 0.2133845 -0.4713783 0.2170425 -0.2712345 -0.061075766 0.057560507 0.16413628 -0.035308152 0.6261766 -0.26047134 -0.24824248 0.08509378 -0.11340556 0.36366406 -0.051080648 -0.06123161 -0.13363183 -0.0024360768 -0.24690458 0.05580665 0.3576714 -0.010533275 0.022281887 -0.084587455 0.48816043 0.20787546 -0.07780101 0.037150525 0.015499839 -0.11222646 -0.3235228 -0.06361983 0.117333844
55138 -0.34322837 -0.17358677 0.3291059 -0.053470764 0.17978783 0.31644836 0.061758388 -0.5503204 0.34514803 0.12706341 0.24466974 -0.2057963 0.39410198 -0.51718247 0.23331735 0.19708753 0.33261687 0.14920187 0.31531507 -0.023586106 0.14954144 -0.07716471 0.26131916 0.07530342 -0.3971151 -0.23047385 -0.12709936 0.28318298 -0.34218466 -0.04891051 -0.31963962 -0.018659238 -0.14555845 0.22053073 -0.1803594 0.060825206 0.109318934 0.34326985 -0.00027500498 0.19533552 -0.309042 0.22563362 0.33111086 0.044925164 0.54152644 0.16596523 0.08587329 0.3063849 -0.10106883 0.17036015 -0.12787119 0.20268022 0.18816921 -0.3864335 0.15968262 -0.036138088 0.6323611 -0.19715673 0.10112461 0.037560012 0.3379855 -0.57924354 0.108628206 0.002849089
36841 0.06692082 -0.18073466 0.3259208 -0.38915783 -0.031435255 0.19533676 -0.15008089 -0.10779536 -0.42420527 -0.17239125 0.64443964 -0.24472167 0.47822317 -0.44328913 -0.47020802 0.2118686 -0.2639801 -0.057893097 0.14860652 -0.02661945 -0.3073684 0.045038823 0.61652833 0.24738452 -0.07347725 0.6115224 -0.18105869 0.05935892 0.04379668 0.10440572 0.638616 -0.5075774 -0.24594843 0.3914104 -0.15400575 -0.08467233 0.050907496 0.08844775 -0.15076388 0.15687728 -0.15406245 0.41319984 0.1373722 -0.031383734 -0.13876453 -0.05768705 -0.12888502 0.17450356 0.0075436733 -0.07760144 0.15969396 0.34528738 0.5056514 -0.100286044 0.15974547 0.2359932 0.07583929 -0.35549462 0.065871604 0.176947 -0.26352757 -0.72498393 0.01140663 -0.28083953
155121 -0.2770206 -0.21595097 -0.2949883 -0.17839319 -0.54788375 -0.044496387 0.14603703 -0.10691423 0.023988452 -0.026234906 0.14340585 -0.25413442 0.2756774 -0.21008046 0.15942052 0.4169391 0.06264452 -0.34618095 0.23347202 0.28096655 0.5532075 0.21285802 0.11224966 0.07297512 0.14168856 0.13784838 -0.23491733 -0.092625305 -0.61579454 0.07877382 0.1173963 -0.20411372 0.019520974 0.15512879 -0.1627777 -0.08359768 -0.33540338 -0.17266719 0.21825911 0.13754097 -0.19911605 -0.172246 -0.22661953 0.28632087 -0.10908393 -0.11553755 0.13791615 0.017826485 -0.099408135 -0.0053564855 -0.12924527 0.13927992 0.6143403 -0.33736858 0.36193383 -0.2098774 0.45242783 0.21400324 0.21179517 0.23502171 -0.056351922 -0.39388266 -0.0068145343 -0.24040316
1395 0.18091646 0.31927553 0.457698 -0.06624302 -0.54573065 0.097603306 0.19805287 -0.20005882 0.055342212 0.4279829 0.27734378 -0.017478049 0.23693055 -0.50088304 -0.022542046 0.0061522857 -0.017371899 0.44042733 0.27567548 0.40945622 0.007940962 0.5866907 0.14413211 -0.0887968 0.44662684 0.43615443 -0.58329827 -0.13070123 -0.69387275 -0.28112575 0.3490199 0.3439583 -0.21739908 -0.36400914 -0.14834648 -0.26062816 -0.23848483 0.18823463 0.020592751 0.25313026 0.13115315 0.28035125 -0.027250065 0.24690998 0.0062669865 -0.10158068 0.43237406 0.24373548 -0.16129763 -0.17765628 0.11160441 -0.03463139 0.37087888 -0.28184652 -0.31889284 -0.20372541 0.49490708 0.14009549 -0.034474783 0.15893967 -0.06290335 -0.37496352 0.123143524 -0.29663882
186477 -0.26829273 -0.056785394 0.25599432 -0.07307252 -0.19727446 0.31425712 -0.4431679 0.074888736 0.308531 0.10988117 0.40602827 0.08072753 -0.15721327 -0.44924974 -0.25375497 0.03422587 -0.17619142 -0.490689 0.107192986 -0.1599737 -0.2706379 0.44665685 0.11883146 0.03182354 -0.4427655 -0.4148108 -0.4298173 -0.41805476 -0.66961044 0.05754769 -0.034476895 0.096303955 -0.2834339 0.17046295 -0.23251946 -0.42937192 -0.17332114 -0.1582417 0.4145942 0.24158375 -0.319725 -0.04968954 -0.10659159 -0.3952063 0.2552365 -0.31551346 0.35265675 -0.131926 -0.31180364 -0.15478846 -0.054428704 -0.03210932 -0.18868998 -0.2284584 -0.115090646 0.20289081 -0.012283904 0.1850796 -0.15855187 -0.53087103 -0.23447348 0.25741246 -0.48377088 0.091632
356290 -0.36047208 -0.13916567 0.42452595 0.13933353 -0.38487276 0.11000542 0.17676122 0.2313285 -0.111310594 0.11696744 -0.092434004 -0.3587175 0.31485018 -0.13284406 0.07198757 0.37645182 0.30139852 -0.2328722 0.07260847 0.08060361 0.23299319 -0.012378972 0.37099752 -0.08564405 -0.082491145 -0.084904954 -0.20567544 -0.014980497 -0.10263283 0.21042567 -0.0072040083 -0.49971402 -0.4047785 0.11846225 0.036269847 -0.03107729 0.023467237 0.29842076 -0.012642656 0.2024349 -0.32246867 0.55338365 0.2115833 0.1023966 0.1219155 -0.02039559 -0.22055456 0.045254186 -0.12776005 -0.022665221 -0.34414515 0.4288841 0.13406321 -0.24524064 0.066906646 -0.01163782 0.4081417 -0.10103767 0.24501921 0.26023325 -0.32479018 -0.56630915 -0.1967446 -0.26025325
240886 0.112636246 -0.057366148 0.1735569 0.16442706 -0.1918932 -0.11585124 0.16355442 0.1923728 -0.27847168 0.2101636 0.038272463 -0.3961596 0.60009557 -0.33490303 0.08297434 0.6271072 -0.31464475 -0.2498532 0.0430005 -0.1638913 0.26416543 0.3177944 0.3144068 -0.24446966 0.07886975 -0.2639753 -0.31829295 0.2826249 -0.101334795 -0.028253755 0.0157336 0.007776707 0.11361097 -0.108941056 -0.15789887 0.011115376 -0.11526236 -0.15593578 -0.10326696 -0.036689956 0.1892625 0.4366296 -0.022217771 0.12927568 -0.0089410795 0.27426088 -0.11913746 -0.15117277 -0.05129559 -0.52006537 -0.18363485 -0.074399404 -0.0008255477 -0.29004377 0.08217319 0.08052226 0.4347409 -0.1676129 0.04674775 0.40081957 -0.45430177 -0.6200743 -0.16486166 -0.06915934
287182 -0.2744911 0.055774394 0.14599639 0.13300365 -0.35542998 -0.2636354 0.03791951 -0.050127547 -0.019172275 0.22186719 0.29805723 -0.1025413 0.32700068 -0.20275435 -0.025078652 0.20491225 -0.24174309 -0.13871469 0.099112175 0.0422699 0.3654379 -0.05338817 0.6551393 0.012180978 0.54998535 -0.15245016 -0.54196244 0.36104357 -0.12966058 0.36512828 0.19523625 -0.14186493 -0.33870706 0.17725796 0.048471138 0.10466368 -0.08726325 -0.22235012 0.26680383 0.083052516 -0.10937339 0.024587626 -0.33903268 0.11126355 -0.13385475 -0.19677344 -0.4100786 0.021943698 -0.14352107 0.10163652 0.12483425 0.40511975 0.18674837 -0.2741414 -0.26748538 0.056819778 0.35284466 0.1276255 0.45859864 0.3929483 -0.08009062 -0.29259178 0.05961653 -0.31004485
114348 -0.28623053 -0.27122775 -0.63647777 0.22652082 -0.19094184 0.18358964 0.40339226 0.5377206 -0.16755708 -0.4089225 0.28064424 0.72844297 0.18970306 -0.97618824 -0.02370944 -0.15855943 0.16103528 -0.547243 -0.17167918 0.18311088 -0.18182074 0.11989007 0.80951923 -0.35668373 0.041727427 0.050757565 -0.19223696 0.10948206 0.08117257 0.124194585 0.42778286 -0.034340713 -0.31305867 -0.043852426 0.19901851 -0.032958917 0.13947009 0.20289992 -0.16138162 -0.30103734 -0.49682173 0.09151758 -0.1339528 -0.5973576 0.74466 0.39105827 0.0063630296 -0.25335646 -0.17423679 -0.105990745 -0.09973305 0.17060675 -0.5541099 0.0028319554 0.8004051 -0.6191816 -0.25035387 -0.26522675 -0.1048658 -0.37410524 0.5832897 -0.09837364 -0.14648722 -0.4039913
490383 -0.4346817 0.063879885 -0.0019387712 0.12549806 -0.16711488 0.47145146 0.21933955 0.015463527 0.2081797 0.30471498 -0.41334945 -0.08048464 0.22725262 -0.24776548 -0.011345477 0.6938931 0.12366826 0.042963695 0.5363121 0.24461249 0.007308384 0.000869429 0.31966528 -0.052674603 -0.008364453 0.20117363 -0.30666882 0.061662454 -0.4679447 0.13583851 0.31260228 -0.08342222 -0.2585429 0.0709565 -0.16076776 0.27223426 -0.049716853 -0.13448606 -0.09684525 0.37014964 -0.1554671 0.2975467 -0.16068971 0.14652687 0.18128751 -0.037158605 -0.10222258 0.14418088 -0.038342018 0.13966459 0.013069302 0.5005502 0.31705275 -0.15110175 -0.08989174 -0.09875342 0.28244615 -0.022815872 0.19513835 0.48244432 -0.04168039 -0.26647088 -0.0075654 -0.020322165
246159 -0.13567124 -0.021931468 -0.26271662 0.3873649 -0.27088168 0.098139875 -0.27464807 -0.51002926 0.11709442 0.34917343 -0.37280574 0.37487316 -0.15509187 -0.51371855 0.27177954 0.31189904 -0.35488158 0.29393667 -0.052420195 0.32270697 -0.26350293 0.0737145 0.13007429 -0.12109506 -0.35262024 -0.20732026 -0.32688326 0.6232524 -0.20165917 -0.07440002 -0.4745909 0.08987212 -0.48355192 0.212658 -0.25427926 0.2315632 0.0885949 -0.30849293 -0.08239104 0.44936714 -0.30337438 0.08541651 -0.44814074 0.27532908 -0.06745216 -0.023883196 -0.24397422 0.13151486 -0.12480459 -0.031066766 -0.42092696 -0.10301622 0.28839067 -0.39488512 0.09322621 0.114959806 0.029125284 -0.08018729 0.35647288 0.035747588 -0.25886437 -0.39827505 0.03577572 -0.05872441
180635 0.30955085 -0.4613034 -0.3890798 0.5377057 -0.54098725 0.7272961 0.3828725 0.32945746 -0.2326337 0.04207698 -0.0059048315 0.16121957 0.5529008 -0.7245927 0.34339932 -0.19258603 0.31609878 0.0906729 -0.5074611 0.1868896 0.29546013 0.03547779 0.4108549 0.13012981 -0.17186394 0.408414 -0.21382491 0.20245798 0.36120456 0.73447347 0.31922567 -0.11020437 -0.022447592 -0.27049527 -0.024449728 0.05743626 -0.25585613 0.18815456 -0.43107224 -0.5154603 -0.22582678 -0.005531406 -0.19784771 -0.3827927 -0.06730399 -0.018265082 0.3053435 -0.4083247 0.118181005 0.041214105 -0.09101029 -0.18756261 -0.39443925 0.08914765 0.2607637 -0.45969105 0.14803681 0.47107753 -0.2635116 -0.12175519 0.16653615 -0.09111885 -0.2388188 0.19263825
272806 -0.15761843 -0.15416338 0.3281616 -0.20516728 -0.46135396 0.16337477 0.1437463 0.07484586 0.23788945 -0.013985197 0.30134434 0.20004535 0.48441052 -0.32455486 0.122919284 0.0911196 0.25575316 -0.596947 -0.46361503 0.20518768 0.37839597 0.1944079 0.19440655 0.41483656 -0.018652972 0.2595881 -0.09338997 -0.45363006 -0.01795781 0.0603722 0.46768305 -0.109414466 -0.3894383 0.03561174 -0.09970528 0.12953877 -0.5348718 0.12270444 -0.22194335 0.0012381541 -0.5155061 0.13590176 -0.14720309 0.4828845 -0.041813616 0.5651455 -0.5262409 -0.42965645 -0.35541984 -0.052430727 -0.44947708 0.16507675 -0.113915205 0.085359454 0.25135633 0.37018144 0.020590307 0.13458805 0.0467118 0.1332262 -0.21044922 -0.28262955 -0.26264018 -0.076918095
481703 0.6422182 -0.43702748 0.6081485 0.4054362 -0.22292656 0.47467327 0.33943793 0.1109748 0.15639448 0.3791608 0.13996969 0.3180288 0.22743997 -0.5748218 0.13526319 0.029315162 0.4482331 -0.5055755 0.30813867 0.52839017 0.15983994 -0.14167604 0.5843812 0.1820508 0.21678303 0.2783765 -0.3420465 0.59418124 0.01803149 0.45780084 0.56364805 -0.47358927 -0.15260921 0.5196503 -0.8537656 -0.30012652 -0.5012779 -0.2737293 -0.32563004 -0.84754395 0.006026456 0.11066637 0.1588131 -0.26886982 -0.31540683 0.08494871 -0.21159361 -0.099096715 -0.16087976 0.1152419 0.056298018 0.23841326 -0.50194335 -0.17720427 -0.20193233 0.38984084 -0.0689797 0.049679823 0.40253234 0.14335334 -0.17525479 -0.5775631 -0.45372018 -0.21156938
360663 -0.010736798 -0.3777735 -0.1513514 -0.16440262 -0.108208075 0.24475059 0.36103028 0.007263656 -0.018483585 0.17092454 -0.13568288 -0.40184674 0.7048274 -0.05612213 0.22684087 0.1585609 -0.06900977 -0.15059333 0.14935271 0.3774838 0.41548514 0.0880804 0.5411283 0.38464472 0.044431392 -0.18518749 -0.233958 0.12027971 -0.48324856 0.04649253 -0.008663172 -0.0136988 -0.24922045 0.45375696 -0.1620181 0.07950193 -0.28671902 0.08583557 0.31312728 0.013644897 -0.31159535 0.12165582 -0.11027339 0.1553128 0.23611537 -0.008683333 0.06818515 0.13244377 -0.037372228 -0.10180263 -0.056055784 0.19639802 0.41186467 -0.011441187 -0.20044272 -0.11587426 0.3558554 -0.21519639 0.11028516 0.6886576 -0.25637212 -0.32754457 -0.049514405 0.1951935
134502 0.0984371 0.039976314 0.40564635 -0.31189504 -0.23472863 -0.18004116 0.1454955 -0.19196175 -0.23986854 0.25880632 0.09140315 -0.25290895 0.44201997 -0.25538898 0.02220442 -0.14471233 -0.18088105 -0.0780857 0.46985713 0.04504003 0.40100086 0.36380744 0.49883974 0.23827367 0.018416453 -0.33335924 -0.23814586 -0.3583368 -0.5631456 0.20731962 0.09101984 -0.30547544 0.049020723 0.14477691 -0.42590654 0.1507548 -0.13323964 0.09106505 -0.050414972 -0.31175232 -0.7083345 0.33019805 0.0805955 0.15022615 -0.19848756 -0.11492801 -0.15682918 -0.21478368 0.11114293 -0.073532455 -0.19836009 -0.12986027 0.23208699 -0.27104825 0.250931 -0.096576326 0.02157866 -0.11745169 0.011548969 0.6325943 0.28681022 -0.48209634 -0.23601398 -0.25557914
326268 -0.42538506 -0.3529402 -0.2876811 -0.042055737 -0.0753312 -0.10313827 0.26040247 -0.028525168 -0.37949106 0.3532199 -0.055477586 0.039762378 -0.09994013 -0.22772865 0.061621 0.54033124 0.23920998 -0.21611075 0.35376456 -0.28428078 0.25862193 0.28262576 0.37316728 0.28466448 -0.10066488 0.2193296 -0.5206246 -0.045293428 -0.09051588 -0.07071819 -0.17746206 -0.07180053 -0.44380802 0.062388673 -0.37578815 -0.20204072 -0.11844086 0.07572324 0.21032274 -0.035576183 -0.13194984 0.011974914 0.14441083 -0.11387554 0.22898895 -0.33611447 0.28152436 -0.25334865 0.07234233 0.044915225 -0.2032771 0.35693985 0.19351083 -0.18567611 0.27419147 0.0741275 0.18493272 0.037192106 0.5635502 0.081016615 -0.34845865 -0.3457697 -0.23137525 0.08174912
333142 -0.044127908 -0.13455337 0.36562487 -0.063964136 -0.339987 -0.019400759 0.16764316 -0.13193779 -0.3286714 0.35200566 -0.2578392 0.12490437 0.8276969 -0.20285207 -0.03642712 -0.19200179 -0.14037012 -0.10152201 0.37091607 0.18339998 0.106156886 0.23099616 0.20265956 0.3798708 0.124409705 -0.29985684 -0.37029552 -0.17217728 -0.19571437 -0.19506878 0.1336733 -0.16329561 -0.04161736 0.4535651 -0.2957784 -0.19137098 -0.30705908 -0.14558631 0.0385006 0.07003134 -0.25321212 0.2801678 0.16355845 0.21040818 -0.25197908 -0.28150144 0.42224002 0.21990274 -0.032776214 -0.07549084 -0.44377357 0.18282081 0.495617 -0.27052182 -0.33019125 -0.46630946 0.28218102 0.22116329 -0.17913729 0.44382522 0.013906473 -0.39801663 0.043810647 -0.37217793
90877 -0.022570984 0.15087456 0.062377404 0.094241835 -0.52691317 0.10294673 0.13124081 0.15754713 0.19983934 0.46551493 0.06311234 0.08617376 0.17986505 -0.19561054 0.18262058 0.30946928 0.027956553 0.05934977 0.2216533 0.29896033 0.22130278 0.36774126 0.554095 -0.102240294 0.22316009 0.3547675 -0.38677374 -0.44353718 -0.6197027 -0.3665674 0.5623475 0.00040151237 -0.31160894 -0.007714148 -0.14344294 -0.0721799 -0.48638725 -0.20999034 -0.16610429 -0.03162122 0.049939 0.25747964 -0.23749635 0.079521455 -0.37293956 -0.49692023 0.35935354 0.018855922 -0.10861923 -0.03263634 -0.010192446 0.24280407 0.41595528 -0.18077366 -0.23678455 -0.03570088 0.5395923 0.0051421495 0.1557473 0.40098676 0.22577035 -0.29406467 0.4632585 -0.34079432
154982 -0.3539357 -0.22652155 -0.16249305 0.15216137 -0.30580038 0.76110506 0.4871035 -0.019045949 0.528753 -0.15791674 0.13635573 -0.13799861 0.17023931 -0.30593005 -0.16427477 0.16855915 -0.27406707 -0.39979514 -0.015146393 0.21885833 0.16552767 0.23575047 -0.2937551 -0.22642343 -0.24193914 -0.47128135 -0.4289072 -0.19910851 -0.28935984 -0.37934712 0.1624457 -0.2814347 -0.34848213 -0.030184139 -0.13406138 -0.24230085 0.24214372 -0.22192582 -0.1089613 -0.02883209 -0.915494 -0.24623173 0.00838269 -0.43571547 0.17720202 -0.23170105 0.4835979 -0.056769088 -0.4363872 -0.22625852 0.16128814 -0.56757396 -0.07083419 -0.12872984 0.02791466 0.54854965 0.17458476 0.20925912 -0.055133104 -0.5667247 -0.018218592 0.16095033 -0.29701313 0.37791127
96458 0.037741695 0.072651185 0.1618881 -0.19824141 0.03192131 0.6798992 -0.05224835 0.41862944 0.23524274 -0.1495165 0.133554 0.23922104 0.20682278 -0.41274264 -0.07001965 0.09775687 -0.24435794 -0.6296384 0.2518493 -0.42509207 -0.34590486 0.43357423 -0.115033746 -0.36262164 0.023915347 -0.16853848 -0.73178697 -0.12627088 -0.13319607 0.29229525 -0.32840988 0.19090252 -0.28153354 0.16530153 -0.36177376 -0.2314376 0.020141099 0.021695783 0.41075376 0.54023665 -0.37010056 0.32788408 -0.12817517 -0.2996827 0.3353131 0.35566196 0.1487865 -0.06608576 -0.09560912 -0.66555184 0.30205172 -0.0649897 -0.18924186 0.2452636 -0.020727495 -0.23135895 -0.2714864 0.3756916 -0.30101904 -0.5217595 -0.20952308 -0.4215089 -0.49306312 -0.16863622
136806 -0.123443894 0.15790176 0.3704517 0.032842115 -0.6306076 -0.14803901 -0.050343074 0.10414968 -0.49674603 0.523074 -0.03962883 -0.14180575 0.6947024 -0.11291062 0.16030528 -0.36535165 0.07794497 -0.069862284 -0.21639125 -0.053195383 0.40736127 0.27289653 0.43664658 0.15982035 0.053578626 -0.1733496 -0.1797036 -0.19557668 -0.47334424 0.1541563 0.23877026 -0.03607877 0.03901557 -0.060386766 -0.50057703 0.24807853 -0.13110383 -0.18775068 -0.05120753 -0.17732362 -0.60560113 0.49342117 0.11122034 0.18071249 -0.37381658 -0.40442535 -0.08116999 -0.13667667 0.11011696 -0.080131024 -0.14909664 -0.019842425 0.2616334 -0.14182961 -0.2535294 -0.5335274 0.038430035 0.1720457 -0.10254628 0.40277344 -0.32606837 -0.3358027 -0.39610934 -0.4444576
227205 -0.42395866 0.037930075 -0.26325706 -0.09228457 -0.021550972 0.547074 -0.2280927 -0.04495291 0.111424714 0.112120986 0.41826347 0.1630813 0.111836314 -0.6036318 -0.18291017 0.21812102 -0.2093723 -0.4935598 -0.25494835 -0.19431753 -0.2913592 0.13015667 -0.16595986 0.28274503 -0.11524258 -0.46069178 -0.57571954 -0.18527925 -0.58269256 -0.04953332 -0.13539556 -0.13169818 -0.4998511 0.119164936 -0.013354854 -0.054581642 -0.07550107 -0.044084463 0.18081878 -0.117434755 -0.47594437 0.0784082 -0.114173725 -0.48600462 0.2511352 -0.33364034 0.27537608 -0.090359 -0.37373072 -0.34142214 -0.04710183 -0.15720445 -0.31999752 -0.37777057 -0.55503047 0.109367095 -0.24124758 0.46166438 0.063284226 -0.5611192 -0.026585149 0.15786996 -0.34878975 0.41289198
207558 0.08995964 -0.50284326 0.70187837 -0.3678325 -0.05011366 0.34396607 0.28553337 -0.111113995 0.10978904 0.1930226 -0.009013747 -0.15270218 0.028632618 -0.12702568 0.38730073 -0.20928463 0.42050856 -0.22800656 -0.062483866 -0.008004864 -0.0932288 -0.044565223 0.3026786 0.21801436 0.1986299 -0.081188925 0.049184225 0.26155078 -0.51079684 -0.20108707 0.1916348 0.029245451 -0.7929445 0.3205348 -0.103995524 -0.15566146 -0.20004764 0.11347654 -0.20613757 0.11311391 -0.10497243 -0.04173624 0.3886357 -0.23616508 0.26501793 0.56820136 -0.007555302 -0.29881856 0.017525591 -0.27351233 0.59445524 0.2154401 0.24332395 0.024300188 0.108747706 -0.0039893137 0.37349692 0.18218058 0.09824107 0.35918486 -0.36275563 -0.42363194 -0.2555008 0.0028238692
359165 0.006597194 0.123091854 0.44943392 -0.23751067 -0.074287914 0.3371284 0.1542693 0.17608838 0.04881253 0.32841817 0.006677374 -0.31143615 0.5175974 -0.39785776 -0.12845454 0.14847372 0.27529502 -0.3422248 -0.0051769814 0.22289851 0.40328544 0.11915915 0.5125488 0.34860596 0.25011188 -0.23820902 -0.120719746 -0.13287067 -0.41859055 -0.024857752 0.0039310683 0.17934674 -0.14079481 -0.013595338 0.07616915 0.35097772 -0.1103573 -0.012573227 0.15581885 -0.107169785 -0.4230184 0.33326617 -0.025541158 0.039102156 0.043426223 -0.048904736 -0.058040094 -0.20286992 -0.09398144 -0.05296859 -0.041040987 0.20882057 -0.078890204 0.02946692 -0.013164969 0.11691591 0.20701648 -0.36534837 0.23484783 0.6828485 -0.31576833 -0.44547394 -0.33948296 0.024848253
163579 -0.55252033 -0.111964844 0.118061334 0.21827744 -0.39095318 0.17332853 0.25064957 0.08778586 0.057080474 -0.012281457 -0.042577397 -0.24357672 0.44329572 -0.021770125 0.20857999 0.032152865 0.28074676 -0.04289209 0.15493682 -0.0021921694 0.21605755 -0.18571596 0.12901825 0.041620705 -0.06933082 -0.06374474 -0.35748476 0.12145751 -0.46111506 0.23469876 0.16593365 -0.5639299 -0.40192395 -0.013869999 -0.16442764 0.039984163 -0.2160924 0.12438894 0.07036134 0.15827745 -0.4674448 0.53902787 -0.09763264 0.06597673 0.009466333 -0.1729662 -0.35838038 -0.015081507 -0.06992109 0.12530576 -0.35970506 0.30356833 0.059652586 -0.4146299 -0.23106012 -0.18312402 0.2379787 -0.22621162 0.15962693 0.67067397 -0.763483 -0.18467169 -0.28835902 -0.24771644
173483 0.012141256 0.29993412 -0.26415434 0.022802988 -0.3008804 -0.2906557 0.39021325 -0.12907839 -0.38842255 0.11105029 0.22454007 -0.47111085 -0.14259106 -0.2313233 0.28412065 -0.0017925363 0.18243332 -0.13838057 0.021223329 -0.3745516 0.1154407 0.51949203 0.32889342 0.20867698 -0.14061236 0.4569652 -0.5620064 0.275603 -0.41846392 -0.033377625 -0.27898777 -0.23138823 -0.011915253 0.41731474 -0.50768435 -0.27040827 -0.59632516 -0.19195479 -0.24434422 0.121156126 -0.643328 0.40608728 -0.3602184 -0.39269397 0.070272624 0.42553312 0.11453106 -0.6195915 0.07858741 0.16115624 -0.095370784 0.6344241 0.16460833 -0.08876268 -0.13475117 0.71841675 0.12848303 0.12073552 -0.0936582 0.5454309 0.023582945 -0.030790588 -0.50982744 0.034508754
38548 0.03119042 0.3272421 0.2270077 0.14272718 -0.43423975 0.032638155 -0.03287278 -0.48425043 0.17318189 0.5629936 0.14889303 0.08554146 0.34338796 -0.49120387 0.21514839 -0.25087422 0.085781 0.513002 0.10599787 0.5119212 -0.08251238 0.5097483 0.32218346 -0.12022463 0.43646237 0.59999555 -0.69333196 -0.25260642 -0.6651308 -0.43228486 0.45682132 0.2843704 -0.39441293 -0.28170672 -0.25037262 -0.32227814 -0.41379938 0.17193393 -0.100772776 -0.03201634 -0.05573837 0.46220374 0.050346423 0.32882908 -0.055201028 -0.38920373 0.30338696 0.07373093 -0.23500758 -0.13028702 -0.11440977 -0.10825815 0.38875705 -0.39558634 -0.40059525 -0.2461817 0.55997115 -0.10754797 -0.16782175 0.24907897 0.2282876 -0.25217447 0.15882315 -0.5296227
179176 -0.116309226 -0.3182517 -0.01655287 0.09897355 -0.012755195 0.17151707 -0.30964378 0.28331757 0.27280596 -0.25621176 0.58022887 -0.061988775 -0.02906543 -0.53664804 0.3079419 0.33168855 -0.44947922 -0.43822166 -0.12042453 -0.00016372732 0.0643972 0.23692384 0.011157301 -0.4070675 0.34214348 -0.4734251 -0.3449576 -0.31402418 -0.10591886 -0.0034432977 0.21328776 -0.1344467 -0.5597072 -0.3474603 -0.5471146 -0.17463613 -0.07314661 -0.0954142 -0.21699922 0.03445054 -0.52471757 0.059887588 -0.22625147 -0.14065585 0.23941042 -0.027953455 0.20195574 -0.11235132 -0.18211906 -0.2224565 0.29821908 0.15544201 -0.08823013 0.4821266 -0.10995298 -0.20508046 -0.25594088 0.3566345 0.012420615 0.04949148 0.37529793 0.093303345 -0.11912075 -0.11003138
295134 -0.021859925 -0.090071015 0.3641921 -0.037990246 0.15465474 0.06924667 0.103743695 0.074003704 -0.19888052 -0.06422713 -0.15406139 0.047581635 0.35987282 -0.35349432 0.47747314 -0.26404607 -0.32272893 -0.5398953 0.20660214 0.5415606 0.40389308 -0.21724698 0.23530322 0.12275183 0.25881007 -0.086547844 -0.681995 -0.3488615 -0.3144908 0.33934674 0.24318375 -0.050245065 -0.4386751 -0.060498588 -0.505915 0.07317166 0.14134061 0.1534139 -0.26858956 0.050076324 0.30689374 -0.063780956 -0.31158292 0.16906822 0.28282216 0.17217064 -0.727823 -0.8611332 0.06324025 -0.013309705 0.11475548 -0.30347887 0.33936843 -0.47895604 -0.079821974 0.4849445 0.5751749 0.31665823 0.08825962 0.506665 0.21488945 -0.33775514 -0.10282725 -0.20050916
162456 -0.3043391 -0.4644274 -0.61744523 0.005025222 -0.5068414 -0.11807113 -0.436333 0.15207002 0.16729338 0.517363 -0.23534112 0.1833827 0.4195193 -0.53311694 -0.3649666 -0.6530481 -0.49855483 -0.44725287 0.12027321 0.11531198 -0.1498064 0.2183229 0.050509345 -0.07969839 0.1097503 0.059993304 -0.5614719 -0.30488992 -0.4429444 -0.31796277 0.004742841 -0.36854967 -0.026297549 0.32617554 0.24494703 0.012726258 0.29761183 -0.12028264 0.4976524 0.30931744 -0.67087376 0.2189101 0.08269875 -0.74057543 0.606731 0.5053492 -0.14209542 -0.23513389 -0.39069504 -0.3382973 0.45277506 -0.07756893 -0.17952676 -0.26705888 -0.3891995 0.12883607 0.1848165 -0.13964447 -0.06404736 -0.7048641 -0.05998192 -0.1380802 0.15546478 0.30184993
495689 -0.11832204 -0.47133905 -0.75743014 0.006454121 -0.45194834 -0.03857595 -0.43242818 0.5179547 0.22126928 0.108113445 -0.18655811 0.5271426 0.5247552 -0.59868276 -0.29541588 -0.74810827 -0.5630513 -0.40712857 -0.0400677 0.2676563 -0.100827485 0.40769002 0.06546754 -0.36344853 0.25478145 0.1475671 -0.6669786 -0.25420463 -0.4021887 -0.5779069 0.2748706 -0.5505441 -0.13927539 0.46354824 0.048212647 -0.34635118 0.16431624 0.28387138 0.3642007 -0.0056847557 -0.7923987 0.5489189 -0.07772259 -0.49244988 0.8337643 0.21163654 0.05191584 -0.42758834 -0.5100971 -0.39494446 0.30529484 0.21094254 -0.48142982 0.12605077 -0.20627625 0.21318184 -0.1395464 -0.18023929 -0.040680394 -0.579653 0.26620275 -0.32107303 -0.02943972 0.1000658
71704 0.12928371 0.109464854 -0.288853 0.09947258 -0.10931268 0.43110693 0.13348253 -0.35356292 -0.15577076 0.21472757 -0.02871864 -0.11956983 0.17585763 -0.38375005 0.1739633 0.08285574 0.10107051 0.05274316 0.015933786 0.27237785 -0.091025375 -0.08965664 0.19179843 -0.14943852 0.022086926 0.14642316 -0.4192124 -0.32510495 -0.37465644 0.1473293 0.3462242 0.124017805 -0.12331197 -0.3167378 -0.17754836 0.24959657 -0.24057834 -0.31370997 -0.0028066586 0.18579093 -0.4404407 0.054058142 0.108007066 0.27619728 -0.18449597 -0.3037141 0.123940244 -0.3260949 -0.32808325 -0.0908449 0.031270992 0.71121436 0.4217645 -0.3554577 -0.17254944 -0.19378501 0.09675583 -0.025442999 0.46453175 0.48574582 -0.19752012 -0.2949194 -0.0707057 -0.6042616
106202 0.12803929 -0.18977629 -0.32285672 0.3438859 -0.036133528 0.6674237 -0.20795077 -0.03078435 -0.0788196 0.1391092 0.41956764 -0.59751135 0.5618951 -0.32735834 0.45295605 -0.0573378 -0.31750822 -0.9498603 -0.07598616 -0.20848866 -0.12370771 0.032243498 -0.39833808 -0.8129826 0.51563174 -0.4804123 -0.40017456 0.07279883 -0.46456173 -0.4450199 0.4485823 -0.50708425 -0.4946837 -0.38527405 0.0781845 -0.11582127 -0.0392854 0.14037162 -0.20245153 -0.11832437 -0.51541394 0.21339722 -0.16061853 -0.064505845 0.42619127 -0.034991845 0.3968268 -0.04050012 -0.072828196 0.12231179 -0.10655005 0.02765706 -0.29417852 0.1305464 -0.29645136 0.014646546 -0.552571 0.2651266 -0.4390372 -0.074990146 0.14812131 -0.053163182 -0.2232728 0.024424981
390992 0.08674381 -0.42461678 -0.39098075 0.4459616 -0.51673746 0.91012746 -0.29880387 0.24292597 -0.0811043 -0.20877527 0.35947472 -0.5673603 0.32983106 -0.46266174 0.25842825 -0.08869131 -0.28232923 -0.930538 -0.119851016 -0.43123344 -0.26938123 -0.11683023 0.13189095 -0.4602437 0.7616309 -0.89823157 -0.10194906 -0.032238774 -0.0489274 -0.41201192 0.231518 -0.15065563 -0.75988257 -0.0803073 -0.37631023 -0.17543086 -0.07107153 -0.43843335 -0.27012235 -0.0010726866 -0.69787806 0.4027404 -0.5340067 0.25188845 0.67360514 0.07519975 0.31955603 0.07971736 -0.07900198 0.30860367 0.5736572 -0.21867763 -0.33574092 0.18584174 -0.14984189 -0.26399952 -0.61996317 -0.011724243 -0.15949647 -0.09772512 0.27410886 -0.12251392 0.0020648483 -0.20160985
28117 0.054070644 -0.32772887 -0.2759407 0.2690023 -0.56523883 0.7471171 -0.29081076 0.25561258 -0.026206503 -0.29561797 0.5308498 -0.5922487 0.34397188 -0.60442954 0.24166565 -0.0010489521 -0.17317982 -0.83309585 -0.23995316 -0.26493305 -0.105526984 -0.22164138 0.015301556 -0.47927216 0.4246794 -0.7301972 -0.2140679 -0.116246514 0.098244175 -0.07031386 0.1206726 0.082832485 -0.4966887 -0.41439074 -0.2784341 -0.02618694 -0.116417035 -0.09000356 -0.37870216 -0.011339634 -0.83302087 0.3212902 -0.37801522 0.4456207 0.6461814 0.2030767 0.5242119 0.062666535 0.0018766681 5.0588325e-05 0.68900007 0.015838716 -0.05356957 0.17551051 -0.09793177 -0.51177293 -0.5821432 0.02455778 -0.26643103 -0.081777655 0.31169048 -0.17432767 0.022195838 -0.2424345
131961 0.103112645 -0.14764443 0.28716865 -0.23603013 -0.057119947 -0.24502742 0.3676674 -0.19113085 -0.2167162 0.16531366 0.32211632 -0.053954408 -0.06157137 -0.13427721 -0.09833935 0.20982173 -0.47049278 -0.48531067 -0.2224475 0.06801145 -0.30680528 0.10651967 -0.15493882 -0.22972885 -0.4246113 0.05291126 0.001275516 0.1096504 -0.2472073 -0.112105 0.13738094 -0.11570223 -0.12758149 -0.39622217 -0.2864011 -0.17347088 -0.14634444 0.15893988 -0.10077758 0.82374114 -0.31544963 0.33389267 0.3816449 -0.1617503 0.0044996864 0.11947247 0.072496004 0.15313904 -0.38619375 -0.111597136 -0.24049206 0.13808323 -0.048960682 -0.26095527 0.15754215 0.31309828 0.45468026 -0.08626752 0.12500758 0.10706254 -0.04552303 0.054174684 -0.35286212 -0.007689284
345496 0.018238943 0.3627136 0.26929665 -0.12893343 -0.37386823 0.14882708 0.11827426 0.055467036 -0.27830556 -0.1873507 0.27096084 -0.07044422 0.5819736 -0.46887657 0.35689253 0.044021197 0.30085447 -0.15154608 -0.3579402 0.49262056 0.92730546 0.08030284 -0.03407668 0.2854491 -0.10432347 -0.1723178 -0.4038458 0.2917975 -0.41152203 0.36976612 0.022445664 0.13694145 0.07605527 0.2512637 -0.15571505 0.41538715 -0.25686863 -0.24237575 -0.04577261 0.29623502 -0.5485724 0.23699413 -0.3626193 -0.17284347 0.3662691 0.14005642 0.07969792 0.2838793 0.28940102 -0.48251677 -0.22805257 0.024869615 -0.17274895 0.13886218 0.107771784 0.13603316 -0.06738238 -0.44583157 0.13347529 0.4285653 -0.24220338 -0.5364395 0.111158244 -0.31195742
356283 -0.27783486 -0.18214887 0.45411918 -0.12167102 -0.48937842 0.34937233 0.21814892 -0.002547065 -0.18354863 0.4487521 0.27398348 -0.032848552 0.22111684 -0.13495794 0.3718544 -0.22692667 0.20455018 0.08452778 -0.03896034 -0.25679687 0.3845774 -0.22963567 0.3994934 0.59299797 0.0076806657 -0.24777219 -0.64898413 -0.1425726 -0.14245024 0.29956028 0.23841263 -0.100395925 -0.35632637 -0.013164433 -0.01072869 0.14115235 0.39107415 -0.24641223 -0.23302767 -0.19409333 -0.33916605 0.49578264 -0.1991681 -0.036912687 0.37769789 0.3206688 0.19831105 -0.36583877 0.20156251 -0.2676255 0.07565932 0.4873091 -0.12729837 0.06162589 -0.126054 0.32779428 -0.083753034 -0.24044107 -0.056065883 0.92697406 -0.4831384 -0.27243516 -0.1533174 -0.3397844
232444 -0.2165485 0.052895032 -0.16470253 -0.06997581 -0.04112992 0.55210245 -0.2035523 0.010050924 0.4322726 -0.10409672 0.20528562 -0.29546008 -0.08802439 -0.21637122 -0.019117292 0.1653406 -0.5809341 -0.7984183 -0.045748357 -0.11014473 0.2928087 -0.0141880205 -0.066657916 0.048390288 0.08475527 -0.30574334 -0.3389953 -0.029758928 -0.6056966 0.036878902 0.086904004 -0.4104458 -0.5410277 -0.1531732 -0.04938073 -0.27898043 0.35260925 -0.13488041 -0.11131673 -0.060408715 -0.4059897 -0.06655676 -0.0044788937 -0.34574717 -0.0277754 -0.29031375 0.46481344 0.07072004 -0.7853926 -0.3184099 0.17648128 -0.21821512 0.005382577 -0.077559546 -0.21281846 0.22911467 0.2569626 0.22173084 -0.1386668 -0.37293026 -0.14663167 0.14849384 -0.15641071 0.35587415
120832 0.12601244 -0.21056096 0.33061752 -0.15153252 -0.19222985 -0.077464774 0.25550932 -0.06726285 -0.24032035 -0.112571515 0.056050904 -0.40692058 0.2976358 -0.23311847 0.13073857 0.54857093 -0.29218584 -0.38896412 0.18497162 0.17878999 0.44436127 0.31888536 0.35715365 -0.18966733 0.2609898 -0.27357697 -0.2424337 -0.13184913 -0.1818999 -0.23529524 0.069973744 -0.1152624 -0.3024474 -0.05691904 -0.046558272 0.025671417 -0.14739028 -0.22219822 0.0047558425 -0.048595507 0.057444066 0.21675271 0.016200155 -0.021813255 -0.1261847 0.18443032 -0.19359785 -0.25775862 -0.2316679 5.740589e-05 0.019357795 0.26701397 -0.03180489 -0.43553373 0.094498314 0.16451998 0.61829215 -0.16132215 0.018648198 0.39600682 -0.048802163 -0.57491446 -0.07992913 -0.15434757
89602 -0.1633279 0.06459769 -0.06138708 -0.003096066 -0.053366818 0.42555398 -0.380925 -0.07999772 0.6584186 0.31589276 0.00056832045 -0.10118027 0.14616749 -0.2654601 -0.059574008 -0.009437157 -0.107276924 -0.30205595 -0.07441801 -0.022366334 0.10769194 0.33311862 -0.20339027 -0.050308917 0.09730556 -0.38280222 -0.6950307 -0.27503905 -0.5187398 -0.17332745 -0.1589727 -0.44450086 -0.2952759 -0.23512466 -0.22986837 -0.43039316 0.39468163 -0.19995788 0.21268977 0.08702595 -0.8775946 0.057794668 -0.2131267 -0.5676998 0.03869475 -0.026730804 0.21627416 -0.08165181 -0.55223364 -0.3930516 0.2202244 0.105323926 0.20936558 0.03371139 -0.43852505 -0.1902929 -0.10503973 0.34152564 -0.2271609 -0.3263536 -0.07400122 0.14172797 -0.32670555 0.29589927
279558 0.23266448 -0.20213608 0.2903156 -0.055335056 -0.42759708 0.2898281 0.8058979 -0.1775805 -0.21998681 -0.02146636 -0.24279578 -0.39949176 -0.28207204 -0.65357745 -0.037110187 0.590616 -0.44831407 -0.23100388 0.42872941 -0.1701837 0.19189501 -0.07625534 0.25583956 0.24175519 -0.30412292 0.38205922 -0.46787295 0.14036791 -0.4772675 0.0862891 -0.06216131 -0.1373257 -0.017028948 -0.15275261 -0.12966628 -0.3590558 -0.11016999 -0.2643788 0.5648092 -0.30843255 -0.31122848 0.42200595 -0.2919338 0.14820251 -0.37125564 -0.18635243 -0.32076582 0.15118456 -0.2677046 -0.008945477 0.06703124 0.15766118 -0.056120865 -0.32078037 -0.11647099 -0.3190132 0.10288891 -0.062533595 0.43631402 0.381959 0.17399934 -0.41526222 -0.31895152 -0.35200602
294781 0.065180756 0.1401894 0.02269956 -0.20431696 -0.31842008 -0.07493984 0.23294993 -0.29624543 -0.02273418 0.04622616 -0.092016816 -0.6531561 0.2486773 -0.49393764 -0.17301984 0.36700007 0.08938283 -0.272685 0.023738772 0.5187795 0.17005882 0.16713424 0.18444057 0.2955571 0.31846687 -0.3570791 -0.41699576 0.09681559 -0.21478076 0.14315295 -0.023072002 -0.33080485 -0.13131584 0.06478566 0.17163202 0.25517786 -0.40676597 0.16954641 0.24557687 0.13978118 -0.59258085 0.19335341 -0.16803232 0.1504543 0.18767017 -0.17294015 -0.09114279 0.21983108 -0.06945306 0.18029872 -0.36192393 -0.018588584 0.33018005 -0.07955936 0.2693142 -0.102699645 0.13176641 -0.14076352 0.1320649 0.35175544 -0.19310063 -0.6788947 0.1841661 -0.059892554
493203 -0.30869418 -0.23643133 -0.20096141 0.15477194 -0.20184778 0.3294574 -0.2936259 0.036430635 0.06799219 0.049605425 0.2525357 0.07713575 0.037812013 -0.4629047 -0.20009096 0.118630245 -0.6171388 -0.24410392 -0.17327063 -0.056108102 -0.50634414 0.48067242 0.30994356 0.29401112 -0.09661853 -0.48186582 -0.4338933 -0.23999815 -0.1544432 -0.11868945 -0.035538826 -0.23879363 -0.45190445 -0.008760376 -0.48732784 -0.19521976 -0.24621055 0.16094185 0.22371951 0.18222983 -0.44091547 -0.09637951 -0.064393274 -0.13650277 0.34054294 -0.29116046 0.58466464 -0.25511384 0.12420121 -0.53371036 0.657067 -0.31148922 -0.71963495 -0.29807848 -0.5485081 0.13313517 0.09787785 0.20415069 -0.19744202 -0.30851012 -0.4533588 -0.18886334 -0.584906 0.05390371
434673 -0.06328087 0.0723897 0.10892417 -0.21583582 -0.3189964 -0.033229128 0.2576043 -0.13879047 -0.18919508 -0.26818094 0.3198696 -0.18472332 0.4389871 -0.5409629 -0.07267863 0.32771364 -0.008727325 0.38353965 0.023863325 0.077136375 0.226792 0.16364864 0.19522221 0.3826093 0.21320161 -0.25737604 -0.23937766 0.52688026 -0.17286108 0.15606843 0.42795235 -0.04693573 -0.22222757 0.2367917 -0.24009055 0.15692674 -0.32723713 -0.26036236 0.15493895 0.35387644 -0.37133414 -0.10375041 0.27168128 -0.0014719611 -0.1377031 -0.24372661 -0.082200885 0.33424726 -0.34001657 -0.083843805 0.0009006631 0.6017343 0.44377548 -0.035611156 0.13671649 -0.37449467 0.28951788 0.0057381336 0.44534546 0.06458128 -0.06402216 -0.49267522 0.2543834 -0.3064763
342654 -0.30278453 -0.3217251 -0.1804494 -0.21425153 -0.049036466 0.27170518 -0.25852075 -0.4678474 0.41452324 -0.04281657 0.2987777 -0.24751662 0.37009332 -0.23536101 0.5754656 0.34832746 -0.5307263 -0.42386913 0.18832381 0.032447275 -0.07776334 0.45568147 -0.19308797 -0.51415384 -0.015181822 -0.19602583 -0.28120935 -0.18097335 -0.64135903 -0.048036233 0.20079824 -0.39293987 -0.53342015 -0.23101036 -0.35947302 -0.3645266 0.06728582 0.010518378 -0.2806193 -0.22015679 -0.25125858 0.344108 0.100449435 -0.42601386 0.11377655 -0.3469949 0.30005607 -0.053135194 -0.13682877 -0.34299666 0.2567489 0.13134953 -0.27578765 0.6356914 -0.29276288 0.25962257 -0.31080553 0.19271761 0.12890276 -0.27572817 0.26817897 -0.031796865 -0.18666646 0.46965045
345937 0.336024 -0.22130178 0.65437114 0.03271002 -0.27403337 0.1538007 0.11972063 0.085260175 -0.174087 0.19799978 0.091881074 -0.07000597 0.12995654 -0.3405509 -0.107616074 -0.06307657 0.32327357 -0.39733726 0.29578537 -0.052052546 0.072693855 0.15674564 0.2890006 0.19421317 -0.09625281 0.05550522 -0.0952956 0.13926822 0.09909973 0.0641295 0.09553081 -0.1290566 -0.4012863 -0.040112272 -0.53695387 -0.34037447 -0.1989402 -0.13512842 -0.19276118 0.081027776 0.12831007 0.06188482 0.41170388 -0.068955034 0.011187702 0.28057173 -0.31541023 0.101149775 -0.3971179 0.07523577 0.3975641 0.2908832 0.12729415 -0.077879526 -0.04292044 0.44928548 0.086098626 0.063901745 0.19106333 -0.060188644 -0.3504582 -0.8964896 -0.07653547 -0.1727934
227417 -0.5232349 0.2684395 -0.15731023 0.25493017 0.053572726 0.3968051 -0.34620276 -0.01910878 0.17820054 0.28248352 0.22780938 -0.0471267 0.1685311 -0.6075744 -0.2500859 0.08958715 -0.057918865 -0.31680417 -0.0007301022 -0.56447804 -0.050248306 -0.10911459 0.1669387 0.43132555 -0.07706024 -0.11937094 -0.43714374 0.016615901 -0.37291023 0.074511595 0.11428437 -0.031443264 -0.24343213 0.07424966 -0.20476717 -0.30328882 -0.006084754 -0.23083632 0.18411024 0.19796123 -0.21474493 0.17860414 0.17977738 -0.58166414 0.15901145 -0.26032722 0.054498337 -0.23863031 -0.4830572 -0.56723416 0.21045108 -0.31952995 -0.32004797 -0.26528403 -0.52178025 0.05559449 -0.15739861 -0.1822075 0.1774249 -0.80658805 0.1769075 -0.07837973 -0.009525143 0.47263223
417952 -0.19317627 0.08513535 -0.06610525 -0.17707898 -0.17567797 0.46763787 -0.013348608 0.065808065 0.24793443 -0.01690293 0.14680588 0.0033875327 0.02010094 -0.63993776 -0.031701025 -0.19182883 -0.61309004 -0.43607986 -0.15284257 -0.11493785 0.07706818 0.04774906 -0.2527024 -0.105185926 -0.06288939 -0.2945113 -0.19364665 -0.29009065 -0.16318475 -0.14508347 -0.12590386 -0.27035442 -0.56346935 -0.12512241 -0.21132995 -0.056505885 -0.057736646 -0.08252975 -0.07884232 0.15060149 -0.52618355 0.078612044 -0.020330818 -0.27471796 0.28078496 -0.120982006 0.76071554 0.1871474 -0.32983276 -0.29784092 0.47260436 -0.120139375 -0.24878529 -0.24512643 -0.19587635 0.1643922 0.1175032 0.07293376 -0.06926103 -0.3200173 -0.069344364 0.054688297 -0.402657 0.30676222
357302 -0.17339312 0.12349744 0.07443489 -0.032018065 -0.0054253507 -0.032897506 0.23192358 -0.083951615 -0.4725567 -0.051529195 0.07015249 -0.21999405 0.38677403 -0.39004812 0.1650986 0.12657183 -0.3810356 -0.32461753 0.46311876 0.3072444 0.2987569 0.28811234 0.033193313 0.16941515 0.20259504 -0.34527835 -0.46406558 -0.3170769 -0.5272409 0.2353253 0.39239722 -0.09316481 -0.3401407 0.16146815 -0.2624699 0.01932955 0.183714 0.13509203 -0.059420656 0.06898313 0.004093745 -0.12900326 -0.026209926 0.15773572 0.048148543 0.1589883 -0.6156293 -0.59630245 0.01022832 0.20000573 0.011559127 0.00041906687 0.3990111 -0.47314358 0.040936 -0.03184735 0.59917957 0.1085327 0.073357165 0.682182 0.26458898 -0.40918174 -0.21476746 -0.12079249
62578 -0.4258409 -0.31690186 0.027153991 0.24838622 -0.39930153 0.18502483 0.3179692 0.032381292 -0.38086626 0.5848938 -0.271237 -0.22177956 0.56261134 -0.068484284 -0.1419941 0.6248575 0.011213402 0.022755586 0.3085533 0.1696248 -0.041124254 -0.020579094 0.39385754 0.06307885 0.15404914 -0.16872066 -0.70584035 0.103608325 -0.23599531 0.2820695 -0.1768987 -0.45792744 -0.33456492 0.027354866 -0.12426689 0.19348556 0.03597341 0.037870884 0.39510995 0.13385086 -0.21186481 0.010324771 0.18405911 0.23803574 -0.20853014 -0.31290585 0.114216894 0.016120113 0.04999031 -0.10012794 -0.37844446 0.72462916 0.47004884 -0.054530725 -0.08464326 -0.17467195 0.18858108 -0.20957384 0.124876596 0.45072615 0.16839294 -0.5446377 -0.304515 -0.18609278
347434 -0.1153733 -0.14572631 0.10263672 -0.011393381 -0.45914683 0.23920615 0.3144783 -0.12939443 -0.19553207 0.24091716 -0.06059853 -0.27832317 0.38381162 -0.15181816 -0.29895884 0.017934605 -0.016299652 -0.13531105 0.22136939 -0.07818961 0.51349366 0.29729077 0.25018343 0.25101557 0.06871785 -0.4444373 -0.15873541 -0.25705665 -0.27027178 0.052005906 -0.26550278 -0.34379202 -0.19672729 0.061167546 -0.22248247 0.2847255 -0.041353814 -0.030215075 0.16183846 -0.17575075 -0.50359035 0.3117349 -0.028065614 0.12215172 -0.109907 0.006112423 0.08825626 -0.29162824 0.03815625 -0.116226606 -0.33558178 0.086508304 0.16404665 -0.016592678 0.36744457 -0.06560606 0.10478737 -0.14166395 0.36470684 0.7806443 0.103481434 -0.61790997 -0.123954654 -0.09154484
513408 -0.3448126 -0.49798602 0.06535518 -0.16967186 -0.32943818 -0.14228617 0.0612095 0.21196942 0.20462234 0.36979416 -0.12974495 0.23295861 0.5825697 0.008835613 -0.2757358 0.17903201 -0.22706246 -0.20924275 0.15606314 -0.19903928 -0.0784961 0.03697286 0.05900745 -0.16895199 -0.67914855 0.0702007 0.29209673 0.3238099 -0.4114049 -0.19266951 0.08327238 0.2786542 -0.14606632 -0.08050079 -0.15412019 -0.014175458 -0.24303882 0.07215648 -0.20806217 0.7513261 -0.26129022 0.27486357 0.02803906 -0.120065324 0.06504127 -0.0554121 -0.26460987 -0.013992906 -0.35350782 -0.27575445 0.2751126 0.32460007 0.018829823 -0.38587824 0.34813577 0.10669374 0.4101527 0.34808415 0.031182941 0.6871753 0.057516646 -0.2847435 -0.1087121 -0.09007652
347993 -0.25609398 -0.27822426 0.42718372 -0.041136283 -0.32560232 0.33523843 0.12938496 0.05648967 -0.17923118 -0.2476009 0.059235934 -0.0012293329 -0.0833962 0.034456316 -0.17700678 -0.16826637 -0.21915908 -0.21157911 0.3623312 -0.33286488 -0.16161135 0.2228508 -0.040697783 0.12786196 -0.29943922 0.31130797 -0.33341408 0.39484105 -0.19602491 0.58292025 0.6415208 0.32970494 -0.17538297 0.009486253 -0.10798071 0.14829782 -0.30685142 0.061224077 0.17176758 -0.031904344 -0.28551874 0.33295923 -0.36150306 0.18616919 -0.15105757 -0.017476376 0.10499892 0.38674346 -0.35702702 0.065775655 -0.24098969 0.30801737 0.5175654 -0.27055156 -0.6849365 -0.23262158 0.6237626 0.010860988 0.13122633 0.42178646 -0.035547026 -0.44074717 0.12652269 0.14876433
237894 0.3374672 -0.7355205 0.6787569 -0.3820596 -0.22522005 0.23915286 0.4759317 -0.17276305 -0.11589434 0.15764377 -0.098493904 0.15743405 0.02631407 -0.07344004 0.29475492 -0.043249376 0.17083694 -0.3030086 -0.34120524 -0.059373755 -0.21835941 -0.10079062 0.21701106 0.057113517 0.14349905 -0.15133609 0.27409893 0.33156604 -0.5055718 0.029358733 0.39887795 0.06315097 -0.86074 0.27100104 -0.013557143 -0.1424118 0.008328152 0.10408416 -0.12916963 0.21180724 -0.13251366 0.036648396 0.3646108 -0.3874522 0.33213267 0.41178522 0.14703864 -0.52154213 0.0369839 -0.46362075 0.41614372 0.21058162 0.28441146 -0.16656008 0.32830143 -0.25907394 0.27280185 0.40460467 0.06446991 0.27089652 -0.35883382 -0.32645515 -0.290879 -0.31079662
342406 0.4289495 -0.12294706 0.39625812 0.033810955 -0.47300065 0.118801214 0.67466635 -0.036959812 0.0019968448 0.11657333 0.07133056 -0.22975181 -0.13710023 -0.5499203 0.4935977 0.15970944 -0.2926024 -0.41939095 0.30214506 0.048050568 0.44786662 -0.24893409 0.6083152 0.11970692 -0.18348134 -0.06368512 -0.4393041 -0.34118032 -0.2984017 0.079806864 -0.011768151 0.023651281 -0.010161922 0.19057414 -0.15131973 -0.2629442 -0.1263808 0.13379298 0.3271366 -0.27686268 -0.33417866 0.457217 -0.12490504 0.034732163 -0.31375483 0.08645023 -0.37583426 -0.010280554 -0.1956627 -0.12484301 -0.018436033 0.08996481 -0.32147914 -0.2294351 -0.040547755 0.15405366 -0.09641264 -0.25392848 0.2302109 0.30503798 -0.14197642 -0.34371388 -0.3013169 -0.46796966
102001 -0.21553455 0.15318179 0.119022615 -0.13420328 0.0659328 0.26530454 -0.018806009 -0.01329966 -0.1636737 -0.04881555 0.12912503 0.066451125 -0.05535305 -0.43628863 -0.023958372 0.44129604 -0.2839807 -0.45351946 0.20871562 -0.061804216 -0.10418908 0.027524762 -0.116007954 0.085448086 -0.23083001 -0.14465274 -0.2961949 -0.2245817 -0.6575747 -0.10688746 0.03229689 0.30910397 -0.44449422 -0.38097408 -0.22794487 -0.31991056 0.010047282 -0.34716913 0.08239356 0.3341901 -0.23415118 0.15073837 0.2430209 -0.54877335 -0.022352993 -0.08373017 0.3439535 -0.3034951 0.012405378 -0.3997885 -0.18886624 -0.13492587 -0.22934937 0.1818323 -0.5474569 0.19584611 0.28407428 0.08496021 -0.21133271 -0.53999543 -0.20258266 0.11858905 -0.16594093 0.66387004
412855 0.53672284 -0.9778354 0.42195642 -0.05590328 -0.27712157 0.16509604 0.5250669 0.009163223 0.20654015 0.21859181 -0.15205234 0.20285302 0.047234308 -0.54058653 0.44321838 0.0497931 0.5333869 -0.42987987 0.16106522 0.020541644 -0.23378862 -0.31570435 0.25502738 0.12751225 0.4406813 0.4910558 0.14112724 0.5245161 -0.53031325 0.093193024 0.16642328 -0.09499634 -0.84785014 0.68813586 -0.5667634 -0.22071888 -0.2824872 -0.051361717 -0.10412536 -0.31866977 -0.09544692 -0.09069734 0.3203867 -0.30996442 0.03700269 0.22370303 0.066976815 -0.6823842 -0.15358011 -0.30784142 0.7110765 0.105634466 0.0703446 -0.28951174 0.1991894 -0.08409075 0.082885884 0.38742813 0.14693676 0.35786492 -0.43646467 -0.61194426 -0.062259644 0.17549866
90686 -0.012964118 0.11333109 0.062259845 -0.12138117 0.055579938 0.27326238 0.21068193 -0.06764012 -0.030849708 0.11050304 0.10309269 -0.13814217 0.72086585 -0.27597535 0.45361423 -0.2522135 0.30070716 -0.40062392 -0.3638239 0.51211816 0.565025 0.0057478044 0.32944605 0.5404583 0.24406834 -0.18191898 -0.15694292 0.31623638 -0.6787305 0.20685545 -0.18923014 0.025863422 -0.2152367 0.43798888 -0.048139084 0.4300038 0.062295854 -0.24566416 0.029589515 0.04221182 -0.3137425 0.39994234 -0.39487347 -0.113946706 0.18557252 0.15332653 -0.032632355 -0.16322257 0.04868677 -0.34392157 -0.13370678 0.025451526 -0.40398416 0.13530645 0.0931291 0.23192623 0.27376515 -0.3776515 0.019007878 0.9075753 -0.15743859 -0.50806534 -0.34993392 -0.10672244
208013 -0.25802484 0.2365565 0.22940241 -0.15032646 -0.21502322 -0.1145362 0.24601756 -0.18505907 0.047479656 0.058013156 0.24974112 -0.30559248 0.601973 -0.40488553 0.014900342 0.24760643 0.11581257 -0.18535459 0.20461829 0.18689959 0.5634414 0.06942836 0.58545303 0.35513127 0.29083684 -0.47629362 -0.34777576 0.047366984 -0.48628324 0.13394222 -0.006723358 -0.20931609 -0.25239965 0.3450863 0.084857404 0.054814782 -0.33996287 0.24296612 0.34045348 0.038118176 -0.38457423 0.2912514 -0.032597296 0.1301988 -0.031793885 0.013167455 0.07835107 -0.030235317 -0.087535895 0.029428305 -0.08977482 0.15368366 -0.03107894 -0.20410293 0.34440815 -0.17296962 0.013497084 -0.035786223 0.0964218 0.58308405 -0.3406478 -0.3992613 0.06355203 -0.18159789
497915 -0.04787164 -0.10075324 -0.23284708 -0.03552011 -0.45417947 0.104347594 0.3590073 -0.017848145 -0.27124217 0.24976283 -0.16617897 -0.20722486 0.36257753 -0.2194673 -0.100240126 0.25066146 0.23373348 -0.087982774 0.31607038 0.67761916 0.24740845 0.28926748 0.5059396 0.14275154 0.08835431 -0.17249563 -0.42251423 0.0640407 -0.7253278 0.01227454 -0.02109323 -0.20506255 -0.14673445 -0.018782968 -0.26281205 0.27383444 -0.27207613 0.13289405 0.25280383 0.0042201406 -0.35694498 0.05134582 -0.048305105 0.17951459 0.09156049 -0.61032385 0.20700242 -0.17339419 0.158879 0.08357397 -0.30166805 0.31094295 0.5521763 -0.123872794 0.14661016 -0.15157624 -0.024580346 -0.44796643 0.6123489 0.43167233 0.09228747 -0.5299033 0.09466604 0.058844596
226126 -0.28712636 -0.23779264 -0.1583492 -0.19278857 -0.12682208 -0.040557284 0.14556481 -0.22226278 -0.13147119 0.31027567 -0.36889318 0.5308484 0.1907755 0.18586345 0.3585892 0.17472622 -0.040551506 -0.38769522 0.022093732 0.17699072 -0.12878896 -0.2596426 0.59445745 -0.37357864 -0.16304529 -0.23723947 -0.005247419 0.2878989 -0.4265166 -0.16409875 0.16088459 0.26595816 -0.43555215 0.29389268 -0.42608228 -0.12679017 0.056599047 -0.25302646 -0.14862964 0.38623565 -0.22584736 -0.24416587 -0.25017914 -0.078839235 -0.06533447 -0.0039981618 -0.25319058 0.41933146 -0.14213435 -0.044543337 0.01694211 0.10298739 -0.14855148 -0.29600608 0.2385687 0.33246732 0.48099354 -0.07100869 -0.2292863 0.55785036 -0.026047666 -0.18169634 -0.2899559 0.16224791
237408 -0.19517374 -0.24533604 -0.7609416 0.047475096 -0.44618016 0.014746088 -0.08017075 0.30569184 0.5501284 0.6581495 -0.24186166 0.014892971 0.6644611 -0.4126523 -0.5973808 -0.8893604 -0.41540217 -0.38517243 0.07517765 0.18277077 0.084866524 0.2469332 -0.21698639 -0.32652438 0.06833989 0.059297327 -0.8695766 -0.03779502 -0.50984687 -0.4770888 0.34417203 -0.40837845 0.11129873 -0.008199755 -0.027590362 -0.45605475 0.39523965 -0.072335094 0.36316293 -0.1423378 -0.82823396 0.3488419 -0.13504553 -0.50496864 0.56427646 0.2900048 -0.06336425 -0.19696867 -0.7177431 -0.48425585 0.19445693 -0.27543038 -0.0097200805 -0.09883295 -0.23385702 0.41060334 -0.19919026 -0.068644956 -0.16365346 -0.38514647 0.20109211 -0.027619876 0.08960515 0.34744626
345487 -0.20909964 -0.10892289 0.1995102 -0.15277553 -0.24347539 0.12966342 0.2178355 0.029467916 0.0051496034 0.5641747 0.08387875 -0.51530737 0.53735083 -0.104235195 0.0365245 0.25581267 -0.021344623 0.029125258 0.2643397 0.02562237 0.34395713 0.1181282 0.61258316 0.15855676 0.39677706 -0.45740542 -0.4526776 -0.00642225 -0.21749558 0.10283505 0.05338326 -0.055497866 -0.03530643 -0.094625965 0.07469129 0.30191392 -0.013076258 -0.13577297 0.24567704 -0.045498807 -0.21438958 0.403885 0.042635456 0.1123981 -0.08707345 -0.029186048 0.27978638 -0.239389 0.0069539584 -0.17654993 -0.55665404 0.39093852 -0.15106197 -0.12852052 -0.05018172 0.12955743 0.18573862 -0.019438526 0.08606236 0.86933255 0.00058515096 -0.59640354 -0.29687363 -0.16477656
361212 -0.24785344 0.15593879 -0.27228853 0.33949026 -0.5911839 0.51504415 0.49403858 -0.2105906 -0.087916456 0.2137497 -0.18837656 -0.04799812 0.08295083 -0.3087085 -0.465525 0.12919252 -0.109289296 0.09097525 0.11369267 0.30132398 0.2016004 0.094717994 0.480158 -0.17556892 -0.053204544 0.14170812 -0.45703828 -0.22430085 -0.4591731 -0.048743103 0.43776307 -0.05119387 -0.45022947 -0.107586615 0.033536453 -0.09615579 -0.34603682 -0.10610661 -0.227066 0.080300376 -0.105730765 -0.13936633 -0.0847613 0.40990883 -0.324181 -0.40948242 0.1300776 -0.039276462 -0.051445246 -0.24569878 -0.071749985 0.3332848 0.4366105 -0.13267928 -0.14312428 -0.14118278 0.6428038 0.06249609 0.41462684 0.19264318 0.120418824 -0.408872 0.12004908 -0.70209867
348350 0.40228447 -0.1860301 0.41625208 0.20605199 -0.27108422 0.35417992 0.27060872 0.09037624 0.12963182 0.27886048 0.30212566 -0.011403311 0.47712302 -0.16766101 0.102289766 0.01300812 0.48013112 -0.44820556 0.13889618 0.416025 0.3703225 -0.2120086 0.52215207 0.25651628 0.2621504 0.051350996 -0.31797448 0.30526084 -0.34258145 0.33045334 0.1583428 -0.20921952 -0.13214648 0.28190386 -0.7595649 -0.16199137 -0.30691665 -0.28929168 0.049528565 -0.53665495 -0.24418412 0.32249054 0.19727689 -0.08449433 -0.33841842 0.08378836 -0.3229959 -0.0053068046 0.14537057 -0.0056534912 0.087640375 0.17774554 -0.37714982 -0.053958114 0.0060305824 0.23532997 0.03428201 0.15840071 0.34110108 0.43428877 -0.35159975 -0.5766661 -0.31219423 -0.32160503
157578 0.76891077 -0.5708115 0.6142055 0.42768413 -0.23435603 0.58691734 0.26128542 0.17418174 0.16114137 0.3099377 0.17373812 0.29460704 0.17940946 -0.5474696 0.077619724 -0.033944577 0.4971643 -0.5550795 0.42577282 0.5229051 0.20868842 -0.319403 0.3931731 0.2373991 0.26040515 0.15282403 -0.33554745 0.6774833 -0.11927328 0.5716884 0.5432722 -0.58438945 -0.2588269 0.5029001 -0.9301438 -0.33567068 -0.55019057 -0.21740618 -0.25759104 -0.8529127 -0.02774722 0.112395376 0.1852308 -0.30080658 -0.32785732 0.13900092 -0.2864891 -0.102702014 -0.03799479 0.015685884 0.08784968 0.12636724 -0.45481765 -0.12604292 -0.093770005 0.31963572 -0.16322982 0.044659175 0.3998367 0.18287246 -0.23238426 -0.6551142 -0.5271369 -0.20286012
182130 0.091123 -0.35119167 0.11312782 0.7200154 -0.19651912 0.04892184 -0.26463372 -0.5608593 -0.020982698 0.41589832 -0.2487801 0.35926852 0.36423635 -0.5165849 0.05902651 0.060165245 0.033719506 0.090520434 0.16011441 0.23689139 0.16475411 0.09186105 0.28541377 -0.022426523 -0.06268843 0.23653524 -0.40977326 0.1485045 -0.27299142 0.07593295 -0.20713796 -0.07031479 -0.5762009 0.24894045 -0.010072744 0.10799879 -0.4225283 -0.27030212 -0.04443065 0.52394366 0.009880171 -0.1168692 -0.29603487 0.32365838 0.020373816 0.0044750054 0.15001422 0.022569675 -0.22606316 -0.14054562 -0.026446175 0.24800672 0.386308 -0.12116893 -0.3349252 -0.049569275 0.39888355 -0.34176365 0.45191246 0.23550577 0.1604316 -0.10552932 0.042300355 -0.21687858
386139 0.041460864 0.08877836 0.43299976 -0.13488743 0.040554907 0.28434062 -0.07337151 0.19468617 -0.47164097 0.44026235 0.017323237 -0.16264969 0.44323725 -0.29215163 0.23929144 -0.26734635 0.21143895 -0.43030566 -0.19921106 0.28634736 0.58003634 0.13285105 0.3042329 0.5441494 0.2961975 -0.25173903 -0.211431 0.07601862 -0.48166126 0.2820153 -0.0954326 -0.09902462 -0.15419035 0.089685604 -0.113592245 0.24060127 0.29213613 -0.3166287 -0.34322032 -0.052596483 -0.34043294 0.45945653 -0.33957428 -0.115867235 0.09633091 0.17776892 -0.14591055 0.039193865 0.122651935 -0.22708195 -0.06513996 -0.08524186 -0.493589 0.12727608 0.3024278 -0.046662346 0.31528652 -0.3159019 -0.040725958 0.68337697 -0.09009282 -0.69387186 -0.24772207 -0.3861472
33357 -0.28341237 -0.21682125 -0.42222852 0.42112944 0.2852794 0.20331267 0.19992436 0.2667526 -0.032087572 0.49468166 0.18599457 0.5360581 -0.026944682 0.14995787 0.5740471 -0.10006861 -0.2453676 -0.17479241 -0.09609874 0.414698 -0.2857934 0.19178168 0.6107749 -0.18310235 -0.48831502 -0.16535446 0.224491 0.17768826 -0.3642189 -0.3157538 0.32664013 -0.10807256 -0.7406364 -0.29082036 -0.13428926 -0.42924678 0.026733978 -0.50044197 0.49568322 0.59366703 -0.13323465 -0.0661566 0.005010563 -0.50768435 -0.06127943 0.12771744 0.106382705 0.00302587 0.16422062 0.26707512 -0.49073446 -0.70296353 0.21954408 -0.75319093 -0.18676807 0.24607927 -0.6374745 -0.30850026 0.06555567 -0.053582903 -0.0075103887 -0.38428605 -0.2167503 0.06985149
414067 0.023755388 -0.46037984 0.13717628 0.16776179 -0.113639265 0.086965874 0.23662215 0.22352329 -0.028943986 -0.0390514 0.02844459 -0.520283 0.5159672 -0.22362423 -0.054834146 0.023204243 0.042791616 -0.44614503 0.113859035 -0.10943055 0.7966314 0.35934716 0.4656557 0.47837052 0.17586237 0.05228835 -0.88973373 -0.08864994 -0.24302903 -0.22714126 0.47237504 -0.0020201255 -0.47781265 0.2588803 0.26146004 0.053584278 -0.20404965 -0.107308984 0.30986288 0.09344174 -0.17770983 0.22774406 0.061711505 0.26426193 -0.36535904 -0.19956978 -0.11280128 0.24297126 0.3351543 0.6158006 0.1885101 -0.088979706 0.55678934 -0.22759596 0.38149816 0.32415712 0.24009264 0.014654592 0.34622273 0.35067105 -0.17557359 -0.2856272 -0.10464317 -0.37566653
104033 -0.059745695 0.06948658 -0.11543244 0.24603227 0.16033448 0.84789014 -0.7132426 0.13626197 0.01298342 0.067534745 0.44672978 -0.16689035 0.5880938 0.023926957 0.47026122 -0.06245523 -0.5008326 -0.53210837 -0.07313535 0.058274202 0.25297385 0.4580114 0.1606248 -0.5793357 -0.048485775 -0.19086911 -0.19275817 -0.14401779 -0.29589605 -0.32781774 0.018640127 -0.521005 -0.88083285 0.024585953 -0.3073548 -0.12202856 0.060100473 -0.01729007 0.049615324 0.36328638 -0.5559374 -0.393101 0.09262845 -0.44568428 0.1038059 -0.22567269 0.6415816 -0.6931885 -0.44943532 0.2510198 -0.16488917 -0.41257155 -0.36954463 0.3176565 -0.45867202 -0.29366228 -0.4760469 0.30524966 -0.046862952 -0.28163847 0.24091303 -0.42133957 -0.32969934 -0.15403475
320314 -0.27007496 -0.2523417 -0.02520133 0.07921472 -0.27595168 0.19805536 0.33854383 -0.04702686 -0.15150368 0.3922202 -0.2696049 -0.07803784 0.17074707 -0.27895674 0.013987277 0.555008 -0.20182939 -0.05821841 0.086585745 -0.16459472 -0.029894644 0.019405391 0.26786622 0.179096 -0.05593102 0.13601391 -0.47584996 0.18631037 -0.6302083 0.26529709 -0.14962023 -0.4624537 -0.13328397 -0.002680845 -0.071417004 0.009832917 -0.006199503 0.022045074 0.31906202 0.0073418645 -0.32101116 -0.16157468 -0.24684255 0.19449146 -0.16714478 -0.24767013 -0.04820096 0.12062465 -0.1539089 -0.018252319 -0.3778681 0.42656705 0.24461207 -0.14249215 -0.24485987 -0.21571343 0.2886127 -0.34268048 0.09381293 0.4098449 0.06704952 -0.264592 -0.15056342 -0.2538108
339044 -0.033767443 0.0025013154 -0.23865904 0.023404742 -0.40799746 -0.14890079 -0.067059875 -0.25791946 -0.058372006 0.47322643 0.12190639 -0.094071224 -0.111007236 -0.2926024 -0.08386344 0.16458581 0.10268724 -0.031684622 0.01813635 0.029720062 -0.08023805 0.2851415 0.22205423 -0.12048218 -0.33936998 0.20709676 -0.21074753 0.5735231 -0.4768508 0.029151874 0.18108855 0.32907498 0.02557865 -0.3226586 -0.28660637 -0.017656362 -0.2075502 -0.4805955 -0.37053216 0.2705198 -0.17009015 0.26246348 0.09024897 0.27304468 -0.115149826 -0.19373463 -0.3079608 -0.1836332 -0.1752221 -0.3076163 0.12974875 -0.3919317 0.39677304 -0.05058154 -0.13420713 -0.00055368815 0.3620851 0.5612761 -0.0418233 0.07774926 0.06392299 -0.18880473 0.3711185 -0.29250172
727312 0.61802703 -0.29013196 0.599142 0.42244995 -0.3589399 0.45996663 0.41067633 0.060050007 0.111497514 0.28677914 0.042695355 0.060512908 0.008992169 -0.51044697 0.1804885 0.09461945 0.24650078 -0.69781464 0.47006863 0.44629517 0.423615 -0.25950268 0.57807446 0.23599115 0.25869694 0.26582915 -0.39428544 0.4801905 -0.12194371 0.4333674 0.39988166 -0.38843003 -0.17758043 0.51271003 -0.81674325 -0.3144039 -0.4901346 -0.21875428 -0.012819394 -0.87805146 -0.21507926 0.26555586 0.20767656 -0.07959212 -0.49384442 0.06387498 -0.43902183 -0.025885554 -0.008329272 -0.13718252 0.1431922 0.20091587 -0.5718748 -0.18764733 -0.15434606 0.31145337 -0.02287773 0.19690435 0.28895408 0.1747878 -0.31566387 -0.6387695 -0.34930387 -0.25743988
345357 -0.08328363 0.13258475 0.21039112 -0.0069847945 -0.19134435 -0.03558001 0.3965682 -0.050108053 -0.3599679 0.1445803 0.49041617 -0.33225033 0.20973909 -0.062111814 -0.066110566 0.060272753 -0.106783345 -0.44103685 0.13739203 0.015295959 0.28971702 0.40648454 0.3660776 0.26363316 -0.21753798 -0.033103433 -0.020288253 -0.0070095435 -0.35786483 0.1571834 0.061956134 -0.42803767 -0.010038115 0.08193559 0.1109741 -0.07000139 -0.3933614 0.053756785 0.17744236 0.20672882 -0.35296553 0.18741071 -0.037749734 0.3975118 -0.025604744 0.10837223 -0.2241344 0.10512851 -0.33549955 -0.02859723 0.24578337 0.11156234 0.25870004 -0.08683218 0.21248873 -0.04995292 0.5213358 0.18883613 0.19379443 0.11125945 0.25237897 -0.66281736 -0.12275766 -0.15663359
356218 -0.005395901 -0.5204289 -0.118155725 0.06736838 -0.15594997 0.3869399 0.31622344 -0.27263975 0.026951445 0.07803404 -0.5811408 -0.3364616 0.4846718 -0.20670629 0.22645034 0.2511769 -0.026893452 -0.071420476 0.050012026 0.65082145 0.33028233 0.31988186 0.4675895 0.35077247 0.06444687 -0.3268162 -0.24025415 -0.09172867 -0.5513911 0.07742306 -0.27820513 -0.14258279 -0.13112812 0.5521511 0.058713194 0.28571072 -0.17989714 -0.18829004 0.27572998 -0.005895254 -0.34115988 0.11171604 0.0050167614 -0.046667658 -0.122475736 -0.29094848 0.15509714 0.03654707 -0.05410865 -0.0846159 -0.1357109 0.41935816 0.2374101 -0.09059875 -0.00788948 -0.25466523 0.115756996 -0.40654063 0.12622799 0.6047329 -0.07824783 -0.63353276 -0.2078763 0.29462108
39981 -0.32694194 -0.10045826 0.14100416 0.05543635 -0.2846731 0.096906185 0.1699509 0.09072145 -0.14881071 0.3700199 -0.22028463 -0.06268671 0.62449914 0.03768029 0.11854676 0.34877282 0.011732021 -0.24940106 0.055679437 0.033978194 0.3758976 -0.005692114 0.4808773 0.2098038 0.19821014 -0.27319014 -0.34239355 -0.01853721 -0.3753735 0.25388867 -0.2284487 -0.33592695 -0.13842313 0.3038336 -0.23865844 0.17637582 -0.10954234 -0.005647883 -0.030225584 -0.01184101 -0.4259774 0.28391296 0.05545114 0.088876605 0.04008141 -0.0666881 0.05791759 -0.0224244 0.11956415 -0.30255437 -0.38306078 0.41766402 -0.08446264 0.033880044 -0.0027512389 0.036123578 0.073359445 -0.28683874 0.012856555 0.6537074 -0.18405826 -0.63487935 -0.38389927 -0.090899035
134730 0.10795802 0.08696589 0.21046875 0.23366372 -0.3861439 0.13279413 0.3641998 -0.08194994 -0.42488313 0.04640958 -0.056104705 -0.30250412 -0.09954733 -0.37726894 -0.33957857 0.20922767 0.0132638 -0.035867188 0.25043532 -0.3020487 0.32646763 0.16639014 0.3766609 -0.20256418 0.17560363 -0.25629258 -0.3350762 0.13399132 -0.663299 0.09371905 -0.11967561 -0.28960636 -0.077486895 0.10799631 -0.06203071 0.37483975 0.00247488 0.065836705 -0.15825331 0.17627129 -0.005458421 0.3322555 -0.10643413 0.17329116 -0.22713469 -0.088159725 0.4143162 0.321477 -0.31216612 -0.08013144 -0.02489952 -0.11502602 0.3392236 -0.072350204 0.47134772 -0.012101381 0.33597693 0.006969017 0.5724416 0.21719795 0.51949334 -0.5953456 -0.14014089 0.1279623
228983 -0.06868546 -0.3150778 0.2517538 -0.06282965 -0.22235608 0.26940373 0.22517766 0.14088827 -0.39269918 -0.022252345 0.15037294 0.05462058 0.5568767 -0.4153374 0.61505127 -0.08002615 0.23707108 -0.38294405 -0.21523987 0.11093085 0.41673267 0.12789264 0.16394334 0.018887738 0.2522816 0.1847226 -0.3671722 -0.087494835 -0.028033746 -0.07494527 0.08338702 0.29807582 -0.05946773 -0.06669687 -0.05279141 0.047163595 0.07182871 -0.5352983 -0.5484844 -0.18106823 0.18275206 0.4636052 -0.4835148 -0.05660758 0.049013212 0.3595964 -0.08723847 -0.43074417 -0.3135226 -0.24068713 -0.003458051 0.13783057 -0.15802985 -0.21521153 0.3829553 0.3205771 -0.1912168 0.0036791614 0.050938617 0.2091317 -0.3530608 -0.47252634 -0.35542098 -0.08960291
31658 -0.2505499 0.26535186 0.26862207 -0.16638541 -0.38820836 -0.40996772 0.14931588 0.09138963 -0.3451509 -0.048014086 0.32183442 -0.29898474 0.3915925 -0.5537543 -0.17614935 0.397352 -0.20874245 0.14316757 0.040417384 -0.40222326 -0.10827573 0.121839575 0.22690713 0.29242074 0.34954843 -0.10396254 -0.36768976 0.13077345 -0.12112231 -0.062407877 0.13985321 -0.26510447 -0.33609304 0.053761713 0.010540842 -0.06165244 -0.3258751 -0.16050793 0.025500705 0.14653 -0.47620857 -0.08647445 0.2275975 0.0408092 -0.046019018 -0.22858891 -0.24681279 0.06826147 -0.1982846 0.34803393 0.046205357 0.1463611 0.001556938 0.00027123265 0.2567003 -0.08751461 0.15358736 0.18806578 0.645267 0.044065543 0.032976948 -0.7338836 0.13706167 -0.413106
276700 -0.102608934 -0.026179908 0.033537306 -0.06458873 -0.26283926 0.49492118 0.108502306 -0.0071221273 -0.088642135 0.025725953 0.08256452 -0.11645151 0.5298158 -0.25989679 0.31304997 -0.083066314 0.3302165 -0.25495782 -0.568893 0.57409924 0.6565304 0.055821363 0.32377943 0.6292054 0.09950336 -0.06255394 -0.17698546 0.076279536 -0.6191162 0.17554922 -0.09559058 0.04066269 -0.046443623 0.32153636 -0.051462065 0.47586402 0.1248118 -0.3045678 -0.3657436 0.1350582 -0.29649553 0.41211823 -0.560876 -0.28104725 0.3263511 0.054964725 0.092285275 0.029742636 0.17891769 -0.2948095 -0.07566902 -0.12506585 -0.36701772 0.36694553 0.29942426 -0.007565379 0.15313886 -0.39215702 -0.13258551 0.56459886 -0.1723779 -0.72244656 -0.3920677 -0.23894106
131040 -0.26755276 -0.3431083 0.13219014 -0.057954643 -0.2136348 0.33918723 -0.2199235 -0.3830228 -0.019048573 0.62514263 -0.49317113 0.36403993 0.053241868 -0.40527907 -0.2939784 0.12299225 -0.04831343 -0.30743378 0.07106822 -0.21099347 -0.3863799 -0.11183892 -0.06973586 0.027726725 -0.27551985 0.41766468 -0.13303863 0.52123535 -0.33538228 -0.039370812 0.06855408 0.08848683 -0.15615882 0.15426144 0.013223738 0.16696288 -0.34174958 -0.091628216 -0.32253343 0.47637945 -0.35767946 -0.004575111 -0.2309495 0.11196723 0.09775071 -0.2898336 0.07524077 0.39892817 -0.1778944 0.2054357 -0.3557024 0.0017714952 0.12529556 -0.33784616 0.036672372 0.008659426 -0.050443258 -0.09260415 0.061629526 0.21710828 -0.18974972 -0.41189018 -0.059014663 -0.17838962
692916 -0.08375935 -0.13691987 -0.08003 -0.06794392 -0.22063889 0.2514898 0.3777621 0.14774172 -0.48878956 0.40773153 -0.14947899 -0.20485328 0.67018104 -0.09597264 0.11081652 0.50147843 -0.29972157 -0.32275382 0.24170184 -0.118661486 -0.08910623 0.13183743 0.22650017 0.061687358 0.0010995917 -0.056108613 -0.38251212 -0.074232794 -0.4293666 0.08600421 -0.2747944 -0.101897985 0.11499459 0.018633304 -0.2823759 0.08756512 -0.29013705 -0.079957806 0.30726236 0.12211518 -0.24181773 0.043337986 0.020316144 0.23588327 -0.24237685 -0.5290559 0.15815726 -0.28881878 -0.2688666 -0.20450129 -0.31470248 0.44862977 0.2354183 -0.01342699 0.07677849 -0.047133014 0.4759048 -0.473602 0.08045849 0.50824296 0.084808506 -0.23801932 -0.43057486 0.004625081
175492 -0.28362888 0.57083255 0.21574615 -0.12363791 0.124309026 0.29259014 0.41767886 -0.27615625 -0.52523017 0.11794942 -0.311717 -0.23801228 0.09700424 -0.8993905 0.49022576 -0.22432454 -0.41168222 -0.0676162 0.094820894 -0.100469716 0.13606946 0.31374356 -0.37290782 -0.16086666 0.048072156 -0.18142468 -0.5503871 -0.28909576 -0.30707482 -0.24047886 0.35264587 -0.38160795 -0.37650505 0.5467206 -0.5343 -0.11044602 -0.31930715 0.046424992 -0.10765582 0.19530393 -0.1683826 -0.23647232 0.075409405 -0.023439616 -0.26590657 0.13008887 -0.79704195 -0.43838182 -0.051836897 0.41139838 0.026557319 -0.17815161 -0.12146632 -0.46494675 0.3252032 -0.0651526 0.6073825 0.094986625 -0.08353556 0.64416176 -0.006207694 -0.7182422 -0.040237725 -0.2351784
609075 -0.13921537 -0.0064094113 0.33501914 0.33562133 -0.24628562 0.7183114 -0.41526043 -0.18600251 0.11222575 -0.25123432 0.39170015 -0.036856722 0.09635328 -0.30239812 0.5863356 -0.67038375 0.0368797 0.18877046 0.044151638 -0.0042805555 -0.3267199 -0.20709467 -0.1296609 0.23493396 -0.093596414 -0.5257532 0.07394572 -0.28143296 -0.28454164 0.13174655 0.23836772 -0.01949907 -0.34955454 -0.26935345 -0.6466345 -0.0049542296 -0.06360444 -0.20314264 0.84634453 0.66242945 -0.28315142 0.1816651 0.28325197 -0.8932011 -0.24656022 0.15856811 -0.14348087 0.15569566 0.16677031 -0.17640503 -0.111649595 -0.12404332 0.37303132 -0.1506016 0.37816256 -0.059499796 0.19258481 -0.56523716 -0.06737165 -0.51060885 0.4249077 -0.09070153 0.07884818 0.42265308
328265 0.11397418 0.14390588 0.43318364 -0.21017878 -0.06431046 -0.15466763 0.24005014 -0.02415756 -0.22776371 0.32118613 0.04701417 -0.2400373 0.32442388 -0.19358882 0.35153228 0.19404247 0.32442454 -0.44225058 0.16887707 0.12224352 0.42308432 0.0794797 0.35897058 0.20769887 0.2988528 -0.19631182 -0.45435885 0.15466659 -0.37393633 -0.108452074 -0.09824237 -0.11357367 -0.14836372 0.14186636 -0.1155337 0.45336178 0.13424411 -0.40665615 -0.033897784 -0.052023306 -0.461234 0.6101541 -0.107403114 -0.13564958 0.22049072 0.21548133 0.3075515 -0.16275734 0.2600332 -0.13554956 -0.20922905 0.52395064 -0.4423742 -0.08895018 -0.0137424255 0.23171808 0.53452826 -0.3266889 0.025418399 0.733717 0.046483025 -0.5257515 -0.36974663 0.058518797
42807 -0.6044912 0.18497975 -0.35906553 -0.07015909 -0.22407568 0.41211438 0.07727742 -0.39248455 0.11660132 0.31463712 -0.016878705 -0.15462863 0.26947406 -0.1106272 0.07138195 0.123510286 -0.45047385 -0.7746116 -0.111786686 -0.07593523 0.1040277 0.060316034 -0.20419402 0.086806156 0.1762278 -0.21873975 -0.28856617 0.27182615 -0.4790983 0.382289 0.10511907 -0.45912588 -1.0547253 -0.09329816 -0.09256981 -0.003425513 0.406354 -0.06324976 -0.083324745 -0.39945832 -0.42077544 0.09772281 0.017723793 -0.024431061 0.12663974 -0.31183004 0.56950474 0.25214148 -0.7895457 -0.2842824 0.14651191 -0.090653315 -0.029462047 -0.12977767 -0.21248144 0.45368376 -0.4905135 0.049202207 0.026709888 -0.4510064 0.14232418 0.233113 -0.26863015 0.5198862
231786 -0.32390195 -0.091113135 0.35652775 0.040403534 -0.22334787 0.051091213 0.09912395 0.06275096 -0.1410064 -0.06892238 0.14771421 -0.40518612 0.31157392 -0.13186066 0.17217918 -0.26793954 0.10419015 -0.08448122 -0.16352531 -0.017090583 0.37206188 0.062982984 0.3657723 0.23121159 0.16987881 -0.30225694 -0.41953626 0.020135485 -0.47799447 0.32113484 0.2330356 -0.39750284 -0.42022955 -0.06996131 -0.10211726 0.13995174 -0.15339991 0.32180217 0.03264134 0.07755425 -0.38829762 0.710018 -0.112266935 -0.01874458 -0.08065583 -0.013555735 -0.40687075 -0.24685763 -0.08801499 -0.17599235 -0.10262105 0.35937506 -0.07519108 -0.08217959 -0.12459148 -0.116487645 0.28986755 -0.24567482 0.20459181 0.6697338 -0.98096424 -0.25305602 -0.32203618 -0.19051774
90010 -0.25178084 -0.4643023 -0.40335354 0.034687378 -0.23817547 -0.020980954 0.48600796 -0.05148338 -0.3202347 0.32737434 -0.08900937 0.12279403 0.425929 -0.12630823 -0.09633615 0.25146455 -0.20787294 -0.0015051609 0.061813056 -0.012737475 -0.076522954 -0.103871174 0.2245286 -0.21121678 -0.10931544 -0.14188969 -0.15170276 0.16887568 -0.072126865 0.13874231 0.2756032 -0.015717633 -0.58076537 0.41929802 0.02932142 0.018767837 -0.21555446 -0.04424338 0.0030968625 0.20371395 -0.21662766 -0.2186985 -0.18073359 -0.0038842612 0.1822129 -0.12691258 0.057575837 0.14275154 -0.1725634 -0.10090078 -0.32262298 0.30526617 0.16781722 -0.27140623 0.24105158 0.036171447 0.3017112 0.085967034 0.14442734 0.5373897 -0.4237271 -0.44810644 -0.02848356 -0.12098403
216139 -0.40892988 -0.23965332 0.13151564 -0.30245408 -0.5165904 0.4415475 0.06282644 -0.15222138 0.3404334 0.110964894 0.13895527 -0.10234507 0.58521825 -0.3817018 0.11086349 0.13062106 0.4043522 -0.5271356 -0.7232429 0.79171836 0.07019875 0.15375032 0.07273903 0.43625143 0.19564788 0.51669705 -0.23139957 -0.21719328 -0.44678995 -0.11423693 0.19466594 -0.008622674 -0.19110051 -0.07102034 0.08769967 0.5905607 -0.20237952 -0.32198843 -0.15191726 -0.19791575 -0.51383 -0.20991904 -0.77611214 0.29661834 -0.49887726 0.47469145 -0.3697321 -0.30447447 -0.09083663 0.0002978402 -0.4151437 0.17897946 -0.11135533 0.32299125 0.30396616 0.07009816 0.19813295 -0.025459303 -0.14490908 0.08109572 -0.038256392 -0.4474858 -0.5133726 -0.20266046
477402 -0.29159072 -0.39856234 -0.034870952 0.33497113 -0.237246 0.35354298 -0.076263286 -0.10901403 -0.0064476654 -0.016270114 -0.54421735 0.01535404 0.09787469 -0.0052184816 0.07965441 0.1690516 -0.2570328 0.1663562 -0.0061533847 -0.16023687 -0.32534248 -0.16305916 -0.08623538 -0.09175352 -0.23464222 0.16566545 -0.5760471 0.4681603 -0.3964014 0.45282975 0.21225438 -0.062064495 -0.50464493 0.28465056 -0.17327693 0.1369835 -0.38291362 0.055061616 0.016755108 0.16979569 -0.5224044 0.25766388 -0.5339587 0.022787606 -0.262801 -0.19067985 -0.17027807 0.49652153 -0.44321346 0.22710338 -0.7167228 0.2222799 0.26237157 -0.15381898 -0.35051057 -0.06830069 0.41660845 -0.3661041 0.06479282 0.50600046 -0.3441361 -0.29961818 0.05943608 -0.07982666
398281 -0.30813432 -0.054064035 -0.123352 0.12827207 -0.4171938 0.0398545 0.07591432 -0.33761996 -0.3946267 0.08296533 0.108338065 -0.031149829 0.57914215 -0.03134926 0.21316312 0.25992334 -0.12567905 0.12357422 0.44225708 0.55455184 -0.004524783 0.36165532 0.34498423 0.061055355 0.07897562 0.25723222 -0.23449534 0.06753576 -0.71936184 -0.18429334 0.22121687 -0.22286648 -0.30925104 0.3667085 -0.08523719 -0.33398739 -0.27278528 -0.24475947 -0.21675245 -0.005832596 -0.11574567 0.1323984 -0.15734981 0.4320642 -0.17619465 -0.40773422 0.06317813 -0.02713214 -0.14440812 -0.20896886 -0.35969558 -0.035277393 0.5306976 -0.3558743 -0.24682496 0.04551897 0.4315361 -0.054380387 -0.092432104 0.293892 0.31914535 -0.010159361 -0.25856408 -0.49411848
279882 -0.12131359 -0.25974166 -0.024473434 0.15857135 -0.52465427 -0.013910827 -0.29911718 -0.66449 -0.62185574 0.06607433 0.00047249484 0.42729157 0.41644084 -0.5956847 0.006160936 -0.44539106 0.010824333 0.2567734 0.17249505 0.3354304 0.106417425 0.17249209 -0.05804337 0.07068546 -0.12692496 0.29985893 -0.16750877 0.75016814 -0.2872578 -0.17074409 0.14341454 -0.08758575 -0.25115752 0.12201809 -0.12952743 -0.44345272 0.015568967 -0.38953215 -0.16364467 0.0045915823 -0.16751114 0.5461046 0.10927933 0.7199944 0.03900896 -0.2654909 0.18000287 0.33465973 -0.22364369 -0.40239716 -0.6098061 -0.26663497 0.68565786 -0.23141374 -0.42696357 0.11595278 0.4332312 0.5441189 -0.084683046 0.09731815 0.23682153 -0.009174437 -0.29815057 -0.66976845
232337 -0.44331327 -0.09421367 0.1744759 -0.041754402 -0.20419443 0.14961281 0.12437715 -0.11792832 0.099021755 0.43505576 0.14121123 -0.08111496 0.5509881 -0.1578633 0.29941693 -0.061908543 0.10535307 -0.106244236 0.26589364 0.117918804 0.45908856 -0.23792416 0.48543587 0.45027772 0.5442898 -0.36338606 -0.29965782 0.013814812 -0.30870247 0.085258976 0.05937381 -0.09118733 -0.19700205 0.21453014 0.009499675 0.3106566 0.3927811 -0.36076874 0.055309635 -0.03789281 -0.32134816 0.42591053 0.05129487 0.045846254 0.24726763 0.049312968 0.26350585 -0.13475892 0.17030059 -0.11129594 -0.27191302 0.5836416 -0.24606806 0.04325176 0.07958718 0.061582953 0.09807847 -0.29292482 -0.044157516 0.9864649 -0.21463327 -0.64012784 -0.42114902 0.066428125
347055 0.28634828 -0.4913332 0.52255166 -0.04240651 -0.6142252 0.10072077 0.5875387 -0.07751171 0.22193983 -0.19727905 0.13211088 -0.3777382 0.17136846 -0.5847942 0.5844664 0.107238956 -0.30606848 -0.43004316 0.34403455 -0.10476063 0.27508643 0.05343997 0.5662682 0.38882235 -0.10655576 0.27138644 -0.46646464 -0.20522797 -0.04206068 -0.047544908 0.15006314 0.04431034 -0.25310892 0.4484586 -0.037364848 -0.23488453 0.054933313 0.033005726 0.34939867 -0.18226524 -0.27365884 0.16942234 0.04736637 0.18966737 -0.37866148 -0.35435015 -0.5414723 0.11503296 0.07332599 -0.16399767 -0.13811338 0.09785374 -0.20251992 -0.42638367 -0.35956538 -0.051141772 0.079176 -0.0985827 0.2884778 0.16505274 -0.2536554 -0.38588676 -0.1505942 -0.26408944
66906 -0.33766514 -0.2084291 -0.093175165 0.40330195 -0.09494802 0.31400913 -0.254067 -0.41397154 0.0420693 0.18601494 -0.5146205 0.35930642 0.035097234 -0.18469566 0.18276861 0.109477244 -0.3764234 0.094498746 -0.0199791 0.17711341 0.011122289 -0.15595044 0.23720932 -0.2956457 -0.3669068 -0.1450751 -0.40022904 0.53995943 -0.34126285 0.18001048 -0.553035 0.08089636 -0.48033464 0.39674923 -0.14368144 0.4632546 -0.24457869 -0.16310565 -0.21232913 0.51857835 -0.39285892 0.07793517 -0.3248877 0.42669785 0.03064253 0.13440832 -0.13161986 0.20645289 -0.29534304 -0.050487276 -0.27095282 -0.060918413 0.30615458 -0.3680763 0.063811466 0.054079138 -0.0016123323 -0.06244597 0.434714 0.2082025 -0.2569478 -0.1779365 -0.18046261 0.21114126
187219 -0.24989285 -0.31779176 -0.31663972 -0.059805278 -0.4511596 0.06880211 0.10892804 -0.10743521 -0.016627243 0.43740395 -0.33304802 -0.01533721 0.3061839 -0.19543865 -0.11047979 0.36312473 -0.020679675 -0.017576825 0.09383619 -0.031816155 0.028333552 -0.097402826 0.37682167 0.03881083 0.1755697 -0.06802763 -0.13834451 -0.076888315 -0.48546514 0.18825881 -0.12515515 -0.1802967 -0.36908802 0.27780968 -0.17061156 0.034043234 -0.13110107 0.034141216 0.15477972 0.1395338 -0.2866765 -0.018111957 -0.13768598 0.14232646 -0.12915955 -0.29140753 0.09030555 -0.09789734 -0.06716255 -0.32071492 -0.49384007 0.21107559 0.33801246 -0.13016334 0.10617101 -0.35145396 0.07300987 -0.17970856 0.34678724 0.66996264 0.00020474356 -0.4845286 -0.24092434 -0.12446945
196836 -0.1589915 -0.23710014 -0.013734532 -0.14258696 -0.2640692 0.046699822 -0.22582197 -0.08426632 0.03570119 0.016964851 0.16341308 -0.04486844 0.16970867 -0.6365727 -0.06972846 -0.05480112 -0.65160364 -0.21911779 -0.23574324 0.038331144 -0.44782847 0.0609935 0.23602755 0.4098072 -0.19387947 -0.42653847 -0.46931323 -0.26816532 -0.28333208 0.3841084 -0.16267696 0.15993863 -0.5594475 -0.07727707 -0.3622339 0.022058971 -0.0026299052 0.19584931 0.32499024 0.47060928 -0.44697884 -0.022691231 0.19697556 -0.23006156 0.08802664 -0.36600876 0.34871262 -0.21363236 0.28009358 -0.40558362 0.3394959 -0.2761322 -0.6124098 -0.5726272 -0.44980493 0.20741023 -0.07785797 0.11534142 -0.26211867 -0.5573589 -0.26895455 0.12844585 -0.3924718 0.23620403
228080 -0.303711 -0.13575733 -0.03052474 0.32189402 -0.3666548 0.2714154 -0.083249845 -0.3141061 0.0713788 0.34423998 0.31704944 0.09221298 0.19708842 -0.2822075 -0.15213242 0.13474561 -0.31875378 -0.05062544 -0.04531241 -0.20266102 -0.15843213 -0.18978167 0.07582742 0.29674524 -0.09368922 -0.36603677 0.006336102 -0.1352872 -0.11819944 -0.2577053 0.16650784 0.12287168 -0.14826182 -0.1815752 -0.46740818 -0.15308517 0.13748354 -0.22672023 0.79559654 0.25121376 -0.13615534 0.12246479 0.12926537 -0.731184 -0.06814243 0.027062882 0.36875087 -0.115455724 0.14857763 -0.40561348 -0.0074869567 -0.24912457 0.177136 -0.5895218 -0.19089723 0.12904155 0.097421594 -0.052542068 0.010924978 -0.83358574 -0.020378688 -0.4040408 -0.099159025 0.42950657
329690 -0.08603465 -0.08351242 -0.13605407 0.24838899 0.23184803 0.21462996 -0.36978653 0.42198923 0.088290304 0.101831496 0.41739786 0.24368198 0.32466388 -0.18869211 0.4114081 -0.12821375 -0.4325422 -0.3618399 0.06109402 -0.08531925 0.17023134 0.3296185 0.22018462 -0.4830817 0.17414875 -0.27364752 -0.3839317 0.005057202 -0.4556649 -0.014450311 0.04096088 -0.39287156 -0.52011967 -0.083833635 -0.4074753 -0.4623732 0.084207974 0.039386835 0.18707952 -0.0018523347 -0.47328982 -0.17690621 -0.14894213 -0.42436844 0.32215843 -0.037825864 0.65800536 -0.43807638 -0.3821479 0.18997434 -0.15092422 -0.14443475 -0.093915515 0.3673609 -0.41789597 -0.44845077 -0.39856964 0.10596467 -0.090375066 -0.3556478 0.13798232 -0.45060948 -0.27795902 0.10932821
1209053 -0.6258705 0.27804035 0.30578402 0.31077692 -0.39896575 0.49300936 -0.70906585 -0.46997178 -0.21409827 0.20661075 -0.91239905 0.5965112 0.07366149 -0.6823928 1.015481 -0.45181373 -0.12963194 -0.6241763 -0.3518011 -0.47188592 -0.33973542 -0.28591856 0.62257737 0.20766819 0.62270343 0.016708117 -0.07858913 1.0516587 0.45494062 -0.8457884 0.8934967 -0.37303585 0.12528783 -0.14614156 -0.4050299 -0.2840142 0.14957835 0.10812986 0.85266364 -0.13087022 -0.088124365 0.62712175 0.5157395 -0.07960568 -0.28004292 -0.3866364 -0.20723137 0.27305442 -0.26176488 0.28465188 -0.70283616 -0.51701427 0.17647286 0.0746936 0.60554373 0.12072453 0.049715 -0.030454721 -0.4880007 0.09092683 -0.10752127 -0.57537794 0.58883876 -0.13379188
154308 -0.28177553 -0.2185281 -0.06789305 0.28692505 0.11492899 0.40077424 -0.013894558 0.24685091 0.11111074 0.09536695 0.17605865 -0.019009348 0.34612182 -0.36793655 0.35729548 -0.01792062 -0.39963606 -0.434664 0.02002227 -0.3541293 0.1979914 0.32818195 -0.35953897 -0.62724924 -0.115492225 -0.26995656 -0.4082928 -0.31516057 -0.17608677 -0.27467236 0.31019396 -0.44062623 -0.4029775 0.0070831273 -0.29988798 -0.23853038 0.15921167 0.30306637 0.01160068 0.12429461 -0.6178143 0.4097353 -0.1844705 -0.21782963 0.30231005 -0.040495675 0.61333185 -0.21506922 -0.1606802 0.08785729 -0.14933765 -0.14402495 -0.0209953 0.5466693 -0.20318888 -0.21572267 -0.37929368 0.36473823 -0.11985258 0.021029925 -0.4285952 -0.19427408 -0.45727608 0.129817
257118 0.014892404 0.06397075 0.028644228 0.575907 0.052552328 0.66537946 -0.39440355 0.09514103 0.46485665 -0.066968784 0.1428777 -0.11205146 0.23150998 -0.44478825 0.4793086 0.18793862 -0.87950295 -0.4254296 -0.40554225 0.025085548 0.26818714 0.21285309 0.03389179 -0.4156828 0.08063504 -0.6211355 -0.06497049 -0.32862693 -0.42148224 0.029152531 0.058546476 -0.33124506 -0.524552 -0.0085143745 -0.34748176 -0.22639474 0.12784684 0.10851661 -0.29935187 0.16604035 -0.42324317 0.29594502 0.20883033 -0.5908962 0.28030497 -0.16328372 0.45052484 -0.057812773 -0.49413246 0.21075538 0.24871752 -0.16810784 0.12006049 0.5388411 -0.3604839 0.1271571 -0.32233346 0.24488169 -0.02272955 -0.13817799 0.27500805 -0.21024331 -0.83111274 -0.020168092
232714 -0.26873276 -0.03654558 0.09918975 0.4592957 -0.054573465 0.112233885 0.24592729 -0.52745724 -0.13445553 0.10435522 -0.28814915 0.08345681 0.42912287 -0.3207469 -0.009839981 0.26718932 -0.39859715 0.17936295 0.22056992 0.20791113 0.1924071 -0.20693687 0.51862085 -0.07557873 -0.06435393 0.15464008 -0.49523932 0.40956438 -0.4340869 0.13005163 -0.3905054 -0.23587567 -0.34688517 0.3673071 -0.20784159 0.4014383 -0.13383576 -0.023048025 0.12635766 0.36306193 -0.35071504 -0.11517085 -0.098145574 0.46575403 -0.14143808 0.09037614 0.13840921 0.15739305 -0.36732137 -0.0774565 -0.31130406 0.27933925 0.29568872 -0.01756088 0.03854846 -0.09213984 0.25073823 -0.3230914 0.32489362 0.23946182 0.04367994 -0.4433359 -0.26529852 0.13344915
311575 -0.34527713 0.008436441 0.05152334 -0.00022533425 -0.24030977 0.34170744 0.11786967 -0.06875018 -0.26782644 0.29826778 -0.5474621 0.20399657 0.37887448 -0.6538145 0.07210499 0.6418788 -0.3326236 -0.17275988 0.33946335 0.15908627 0.021878323 0.32365993 -0.40240976 -0.003772213 0.07812495 0.08636871 -0.044241093 0.02663978 -0.49129042 0.20850168 0.45622817 -0.029427554 -0.39759076 0.34096122 0.039419547 0.2911213 0.083681725 -0.020294772 -0.19568874 0.07101146 0.09593408 0.015134481 -0.34662277 0.07862379 -0.28468597 0.2133378 -0.101249464 -0.24437208 -0.099743836 0.42078304 0.17864291 0.40827683 0.5113298 -0.3994249 0.094716415 0.03145314 0.34399104 -0.16869618 0.24263458 0.15584332 -0.16389808 -0.36926243 -0.31432003 -0.039896872
