67796 64
5142 -0.24576916 0.069775276 0.035314083 -0.059169997 0.16676877 0.14919207 0.11187614 -0.5441429 0.09656236 -0.14368828 0.16859202 0.19788584 -0.15753102 0.08965886 0.16020077 0.028209116 0.057666987 0.24231753 -0.28490233 -0.124946736 0.15737377 0.00013052745 -0.085239545 -0.121732876 0.116252005 -0.094786644 0.2622052 -0.108261935 0.5587029 0.29993245 0.13906132 0.35606137 0.47666213 0.21862741 -0.17804615 -0.3008101 0.23025489 -0.04701013 0.352319 0.208648 -0.31909204 0.008561105 0.0003812139 -0.10129141 0.19075908 0.12993069 -0.36657646 0.13475478 0.560928 0.29584816 0.066182576 0.08658921 0.01139239 -0.1920245 -0.15851402 -0.22537129 0.17895919 -0.029945934 -0.07403196 -0.291257 0.13348068 -0.24666856 -0.022581642 0.1150669
110965 -0.083190046 0.07639246 0.17943767 -0.26059616 -0.06469082 0.23891008 0.6805209 -0.5750725 0.21213874 0.48170513 -0.4780108 0.2666147 -0.0761844 0.37900785 -0.46209466 -0.15967935 0.43034503 -0.18871838 -0.09000579 0.41104686 -0.018124938 -0.12944347 0.0020028558 -0.39851448 0.287457 0.011667135 0.530462 0.20003957 0.2975593 -0.09896988 -0.021605553 0.36222786 -0.36883202 0.26098025 -0.17748676 -0.041888382 -0.16432205 -0.17967181 0.46122217 -0.29041743 -0.27484155 0.16897406 0.20811898 -0.117937796 0.50830287 0.11840065 -0.02485298 0.38213265 -0.20391835 0.42385975 -0.045806542 0.2592683 -0.14532483 -0.055556715 0.40122077 -0.13579063 0.09551564 -0.09715189 -0.3018046 -0.14640789 0.20305185 0.16033863 0.19205274 0.31481203
1888 -0.043425 -0.21288323 -0.3093019 -0.036339298 -0.16230066 0.080907114 -0.09534468 -0.32793003 0.22185184 0.08217218 0.16452597 -0.06499976 -0.038253553 0.029589744 -0.047922075 -0.1708872 0.20807365 -0.027658744 0.19924977 -0.4302169 -0.079344034 0.057453133 -0.09278574 0.0998024 0.020457832 -0.25945047 -0.1411561 0.12865901 0.13741507 0.2328443 -0.3400557 0.3654544 0.3800122 0.121224396 0.21412885 -0.035042223 0.31221616 0.19703253 0.24712524 0.47602943 -0.11196205 -0.3148738 -0.07595656 0.039015558 -0.2305078 0.0812303 -0.20102477 0.14972846 0.35563162 0.45258638 -0.051767025 0.016848583 0.054474328 -0.20960638 -0.39187095 -0.06462439 0.07608795 0.3772681 -0.11996836 -0.4063886 -0.19456181 -0.21258031 -0.12341812 -0.004498039
4830 0.06604762 -0.061590403 -0.35769668 0.014780659 0.01873491 0.009172458 -0.009842183 -0.23929036 0.23662092 0.0438694 0.27501512 0.1660721 0.052381463 -0.021980114 -0.31013554 -0.33781365 0.34014043 0.008044874 -0.004328565 -0.34129804 -0.009029785 0.04289866 0.017708343 0.23203073 0.04687417 -0.39082912 -0.261639 0.0028159772 0.061740432 0.34421265 -0.10444043 0.14023921 0.3212004 0.056716215 0.18545806 0.034272276 0.4060702 0.12905987 0.1003406 0.2586474 0.07957476 -0.5059218 -0.15435016 0.014768162 -0.11066229 -0.03254526 -0.23330933 0.16581109 0.21195544 0.44506976 0.21806438 0.010566475 0.17895624 -0.34959084 -0.44750488 -0.03276777 0.14216882 0.3150686 -0.07366662 -0.297139 -0.1588314 -0.078131706 -0.089197055 0.1079917
77432 0.17223383 -0.123594865 -0.47839504 -0.26840943 0.25251225 0.35263467 0.04839261 0.20183036 0.21746196 -0.06454408 -0.17740928 0.21860565 0.02876519 0.037286937 -0.5217586 -0.41402435 0.39637825 0.15152904 -0.00058867736 0.04644339 0.113936394 0.52335864 -0.42241192 -0.2167878 -0.022471227 -0.20273699 0.12909079 0.17568788 0.36113787 -0.058597673 0.12121187 0.024412416 0.2243332 -0.13665588 0.3130609 -0.01965428 0.05277629 0.22449242 0.2949006 0.29876477 -0.5298392 -0.12821993 0.35968712 -0.1514729 -0.15197939 -0.064291745 0.10627777 0.5474971 -0.19773713 -0.07392089 -0.029941829 -0.0022588964 0.1313543 0.14526573 0.037363883 -0.3780734 0.6088939 -0.056529477 0.15647699 0.18462007 0.075416826 0.03405883 0.2608363 0.25318602
176130 -0.3734812 -0.35258415 -0.41443083 0.56125045 -0.14865738 -0.46621308 -0.012262533 0.57457143 -0.8665937 1.2727944 0.16389634 1.0076746 0.26474005 0.37422845 0.11987553 -0.18733728 0.69794035 -0.20187964 0.837947 -0.7709724 0.063185304 1.1537933 -0.55197567 0.4382615 -0.22837867 0.15644175 0.46330234 0.5254535 1.7849358 -0.08829746 0.23503488 1.7695174 -0.13126923 0.3653099 0.22991294 0.6306389 -0.3783352 0.48722595 -0.51921934 0.2184979 -0.16758993 0.10054591 -0.17785472 -0.378086 1.4950325 0.5842389 -0.2115229 0.45054314 -0.24948472 0.25361186 2.0112584 1.4590664 1.124321 0.13133085 -0.06291615 -0.8539952 0.13554516 -0.69902784 -0.12589799 1.129972 -0.9524427 -0.37120625 0.648762 -0.69474226
7966 0.16037598 0.041174076 -0.041759104 0.14111455 0.08398382 -0.028064406 0.12150935 -0.024967384 0.059618086 0.083078645 -0.018669717 0.23903961 -0.07766009 0.13568938 -0.15080296 -0.12603648 -0.12872945 -0.1583736 -0.12697682 0.26814574 0.25718963 0.41720533 -0.541763 -0.49075153 0.17765039 -0.41440254 0.3950466 0.3275646 0.35208523 -0.25490367 0.016047012 0.27328014 0.21551728 0.013796155 0.2926909 -0.049172163 0.19173375 0.11505953 0.2976585 0.14477898 -0.5328415 0.20399022 0.22711173 0.043495655 -0.04827231 0.43712646 0.014986674 0.4829011 -0.5709774 -0.27259463 -0.01998931 -0.09916578 0.46932888 -0.26500678 -0.014100167 -0.39028808 0.7949183 -0.13282661 -0.050485477 0.3264423 0.31184483 0.043036032 0.011829764 0.28843474
4800 0.003627092 0.0904108 -0.10459746 0.39683497 0.11177491 -0.47739267 0.22405736 -0.099902436 0.4241569 0.028071472 0.4096268 0.32725197 -0.04476412 0.17647085 -0.30295438 -0.25660142 0.050182626 -0.37388933 -0.10988928 -0.26494926 -0.10178206 -0.10002483 0.031834975 0.19713119 -0.13248537 -0.3505392 -0.21570924 0.09239947 0.03136256 0.14371274 0.38333914 0.17032318 0.3375359 0.40814117 0.1387947 0.02342071 0.28709581 -0.28805357 -0.033955947 0.22456565 -0.09305958 -0.16822551 0.19307831 -0.42545423 -0.314771 0.0041110027 -0.28876784 -0.20386459 0.044990897 0.5179874 0.11276525 0.16098313 0.18302245 -0.063535415 -0.4717126 -0.38802037 0.12585331 -0.046915635 -0.10972048 -0.15550451 0.12154594 -0.2068534 -0.4374204 -0.257994
3532 0.26418358 0.1771335 -0.1953013 0.38548186 -0.032661732 -0.07951599 -0.0012318884 -0.40148783 0.14688626 0.4614943 0.20500877 -0.17856172 -0.18681633 -0.120205425 -0.31691012 0.081038244 0.12569566 0.32486278 -0.07633686 -0.38394544 -0.21831289 -0.08328554 -0.14364728 0.109501466 0.01301398 -0.4103293 0.22460194 -0.09973585 -0.2875721 0.33538085 0.5220072 0.4373238 0.19972567 0.5736299 0.45056522 -0.07473911 0.20948714 0.3587835 0.11972183 0.23638992 -0.22023985 -0.25457716 0.17119712 0.06003154 -0.28535932 0.029523097 0.022997513 -0.100749634 0.16501004 0.6533509 -0.16622186 -0.29457423 0.05997807 0.10299221 -0.5628621 -0.11750353 0.36730152 0.045106955 -0.15169539 -0.18364291 0.19162504 -0.4734955 -0.6601986 -0.39807552
2796 -0.07435304 0.2313156 -0.24854058 0.14305398 -0.3000598 0.29292184 0.6622851 -0.32787415 0.23230341 -0.09366623 0.069505 0.19217786 -0.39476305 -0.4092618 0.08096031 -0.16668683 0.22089417 0.040414963 -0.010029462 -1.0716156 0.21913452 0.12391541 0.110488735 -0.1345789 0.33586466 -0.13914092 -0.24493648 0.25494757 0.35436118 0.19434752 0.2690447 0.5260807 -0.025822602 -0.03821034 0.15679869 -0.14910117 0.47280458 0.24343401 -0.0187153 0.5104131 0.17138478 0.17828116 -0.013863859 -0.31571648 0.12081467 0.67370105 -0.00022105609 0.45750898 0.34527037 0.26911867 -0.22824965 0.5795995 0.031014716 0.2119982 -0.12396197 0.20955624 0.3125393 -0.17589138 0.54371333 -0.012549627 0.1771837 0.17613176 -0.18269393 0.59862393
14784 -0.17266726 0.14932214 -0.34041533 0.16917703 -0.48725206 0.13029811 0.11311606 -0.46520266 0.58771884 0.07260995 0.23446307 0.051044896 -0.14120337 0.025356734 0.014195417 -0.06514582 0.10065376 0.21883662 0.35505193 -0.3497508 -0.120686546 0.3416417 -0.12268389 -0.009227018 0.012871427 -0.04351066 -0.09453176 0.38794369 -0.17099737 0.15416805 -0.11205952 0.21148974 0.18343112 0.27778888 0.54596114 0.1228256 0.16036597 0.23190443 0.012895533 0.12681176 -0.106745295 -0.5721093 -0.13621332 -0.04136607 -0.5045142 0.047048353 -0.3212532 0.22771895 0.28381214 0.26589143 -0.045605164 -0.011440777 -0.4912216 -0.4013548 -0.35728198 -0.06954112 0.23220752 0.4212399 -0.54149497 -0.45247313 -0.3364388 -0.06728737 -0.08114386 -0.2399242
17711 0.21398194 0.30148703 0.034451365 0.13006958 0.013730687 0.17839271 0.19156052 -0.4209456 0.40456998 0.29940513 0.29609862 0.49187815 -0.10770773 0.21220577 -0.20294452 0.022842195 0.22648273 -0.33999735 -0.17394473 0.12864265 0.017755968 0.032558948 0.11521352 0.5156919 0.2702321 -0.38732034 -0.010667581 -0.08086865 -0.0141583225 0.61785364 0.41532093 -0.0104759885 0.4344227 0.12407613 -0.08795182 0.00520942 0.0971911 -0.42962286 -0.0370956 0.63909626 -0.14746347 -0.15575081 0.044577252 -0.20675434 -0.25394338 -0.10822768 -0.14980885 -0.221015 -0.2148778 0.13990995 0.03377176 0.15669142 0.064033814 -0.40129963 -0.39236584 -0.22466518 0.028998539 0.14262073 0.016940938 0.005490517 0.020247465 -0.17786933 -0.43543348 -0.12736769
3070 0.3455583 0.18881585 0.17790085 0.44123924 -0.27738684 -0.19342738 0.3774927 -0.27279684 0.23383804 0.11782911 0.31199056 -0.27172956 0.088133186 0.08803791 -0.5398976 -0.51440513 -0.124707274 0.51426953 -0.18739797 0.0684096 -0.31030807 0.17939116 -0.04346467 0.27673388 -0.021417147 -0.25804344 0.053074382 -0.03863698 -0.14006568 -0.041372396 0.37428308 0.0967908 0.26280025 1.0344057 0.40685138 0.1369353 0.044583302 0.07814986 0.12540808 0.205348 0.03394632 -0.3975744 0.074702755 0.22526352 -0.0121561745 0.10902711 -0.10981661 -0.38600832 0.23150352 0.41827792 0.15275082 -0.28772008 0.48990235 0.020312479 -0.33363795 -0.11777393 0.47120303 -0.017389653 -0.16271192 -0.21296015 0.01619735 -0.011618403 -0.4889066 -0.4305602
23129 -0.23314546 0.12631853 0.26944235 0.11647642 -0.17363392 0.4375021 0.31374487 -0.40592995 0.40484083 0.08659016 0.25804818 0.05964718 -0.3326657 0.069457896 -0.24978852 -0.01142521 0.17004079 0.6169291 -0.4908103 -0.1457279 0.23613521 0.2099587 0.072611205 -0.035593145 0.49441272 0.047665827 0.10605443 -0.021793788 0.6687262 0.40355822 0.15759155 0.026857676 0.095900804 -0.01107879 -0.5834721 0.57969403 0.27601635 0.15826526 0.17440377 0.056960247 -0.7084737 0.109591015 -0.03203101 -0.3350003 0.12130133 -0.2809594 -0.24003911 -0.027740618 0.2715261 0.25986403 -0.1641648 0.3405426 0.164454 -0.17021026 0.049475063 -0.70000625 -0.10810688 0.08535123 -0.12692277 -0.0014323037 0.21072185 -0.17724793 -0.058938768 0.19287519
12781 0.29301694 -0.31468928 -0.40566176 -0.18730277 0.24249464 0.22972907 -0.20119363 0.014843406 0.2472148 -0.021533411 0.16892664 0.18745267 -0.18984927 -0.22138384 -0.26529914 0.12859476 0.24589258 -0.147449 0.1395421 0.33796588 -0.0211502 0.6150466 -0.24492812 -0.35319072 0.39715737 -0.11302782 -0.025133492 0.3023054 0.053783182 -0.51929307 0.057171438 0.14064653 0.28890136 0.20203541 0.0733877 0.0007592202 0.1427911 0.014468948 0.41530234 0.28566983 -0.46372345 -0.0025367523 0.33513743 -0.023318656 0.27245477 0.25649202 -0.05732803 0.47894186 -0.5318356 0.27207237 0.52584267 0.30579883 0.05971425 -0.22572829 -0.19632223 -0.5206318 0.67317027 -0.1008687 0.5327043 0.24548782 0.105714686 0.2836605 0.08809412 -0.06774371
18910 -0.21391204 0.014672719 -0.08744263 0.32141995 0.18811974 -0.062119365 0.10216065 -0.1172625 0.40203992 0.12711243 -0.12055705 0.6173321 -0.07884912 -0.0076197814 -0.38894486 -0.022948077 0.13694014 -0.13132674 -0.19333014 0.06299257 0.034395162 0.04861948 -0.084747516 0.5928705 0.06371735 -0.34576702 -0.33159122 0.24299672 0.10000196 0.17134975 -0.09898733 -0.017452369 0.5539284 0.26119846 0.36503297 0.16958831 0.1590734 -0.079957806 0.32117835 -0.049007487 -0.20606677 -0.23142852 0.18415363 -0.045739017 -0.219261 -0.120297864 -0.31804088 -0.23710944 -0.13853891 0.6682739 0.23301592 -0.0728825 0.19980055 0.3274952 -0.62773037 -0.09603494 0.13403718 0.4899917 0.0035049978 -0.11066379 0.24084064 -0.40487993 -0.48242542 -0.18468189
103766 0.39902657 -0.154383 -0.63846153 -0.08366235 0.40024784 0.20490275 -0.18890485 -0.2391118 0.016889608 -0.051303145 0.13267043 0.35775608 0.09113155 0.050324917 -0.09238217 -0.5249075 0.4590138 0.3679716 0.08635694 -0.019024147 0.10007939 0.843271 -0.1274131 -0.15991656 0.01245726 -0.045122415 0.070292026 0.32348228 0.53914845 0.13045828 -0.057977002 0.0036785211 0.20745914 -0.098886535 0.34025544 -0.056200337 -0.31070787 0.38841537 -0.008746745 0.26288852 -0.62210846 -0.068568856 0.32712868 -0.1628389 0.117587894 -0.3653645 -0.20910628 0.55454147 -0.5597506 0.17229438 -0.080984175 0.3435172 0.22738276 0.4007934 0.055529326 -0.18049419 0.49832746 -0.34254304 0.17848276 0.40139982 -0.12345894 -0.1454205 0.021819467 -0.24351965
8077 -0.119699605 0.009052789 -0.27975172 -0.056676727 -0.31288502 -0.32035628 0.13374107 -0.31972668 0.37606674 -0.08139194 0.29230356 0.43602213 -0.0025202755 0.095731005 -0.3341459 -0.16326079 0.04412479 -0.33411998 0.020019706 0.031132666 -0.121232636 0.14806828 -0.257223 0.48892066 -0.09997789 -0.130668 -0.018755637 -0.121846 -0.19578637 0.19225919 0.21487407 0.04746243 0.20529926 0.1937165 0.08608876 -0.039577406 0.3901985 -0.3172929 0.08871274 0.22007562 -0.15176532 -0.29544228 0.031870674 -0.071249604 -0.20898911 -0.4005268 -0.21341528 0.18917425 0.21123412 0.5774348 0.1460229 -0.111895114 0.6027284 -0.28745362 -0.4872564 0.108114906 0.27046406 0.19557396 -0.26389083 -0.18101752 0.075542875 0.085638784 -0.28620425 -0.29212013
11571 -0.06432535 0.2509221 0.13197443 0.1927976 0.032036077 -0.20307283 0.14836991 0.10769229 0.24457009 -0.045997046 -0.13905516 0.53068656 0.043896932 -0.08512724 -0.4787943 0.036392335 0.15581878 -0.31806472 0.14822039 -0.09022643 0.22946367 0.124213845 -0.08207529 0.28676376 -0.068667665 -0.12374167 -0.38807723 -0.16509749 0.14058831 -0.059971426 0.14526774 -0.16410175 0.38924086 0.24984768 0.25203297 -0.18894202 0.13639247 -0.22471419 0.11946725 0.118292995 -0.041201632 -0.56374127 0.16519816 -0.1465031 -0.04955113 -0.18449415 -0.45103216 0.0022738278 0.1835563 0.5476377 -0.12592715 0.38681823 0.26999134 0.03380258 -0.2835999 -0.44857472 0.20108058 0.39006168 0.25843877 -0.07701076 -0.008204586 -0.30128834 -0.69762146 -0.49104866
24555 0.006748542 0.1202456 0.02734502 0.27300158 -0.030534921 -0.07782859 0.16726099 -0.38903293 0.35755232 0.24577838 0.29070556 0.40360847 0.08251162 0.24262416 -0.044606663 -0.2377154 0.34364802 -0.3351796 -0.02852765 -0.10507673 -0.31008855 -0.036512908 0.06554309 0.45057753 0.112479486 -0.29490665 0.005794875 0.058282368 -0.21078193 0.41282117 0.25350353 0.17948455 0.30393347 0.16215385 0.16223314 0.09588562 0.36733636 -0.2341895 0.05211271 0.40717256 -0.17645024 -0.35061747 -0.07374085 -0.27323768 0.062865324 -0.338197 -0.08176734 0.030702941 -0.16718681 0.46884406 0.16991197 -0.114613354 0.3843544 -0.18329401 -0.5678099 -0.16492768 0.13768592 0.3642139 -0.13992444 -0.30990952 0.1535771 -0.12784299 -0.39648247 -0.1861813
125939 -0.05552844 0.16452216 -0.42775777 0.035579003 0.25933933 0.33390293 0.051269583 -0.18839338 -0.093670204 0.13431376 -0.38138133 0.0018014322 -0.121643275 0.18693903 -0.5630241 -0.31574976 0.42258903 0.04770064 0.17236648 0.43231404 0.010049825 0.06866301 -0.33079508 -0.61180973 0.048605762 -0.32565323 0.19118144 0.38123125 0.40850636 -0.11425572 0.08385395 0.29126865 -0.16997097 0.2020982 -0.16406168 0.13818572 0.09981797 -0.05697816 0.31390542 0.21093458 -0.38681448 0.0035862913 0.26505914 0.15181111 -0.34327877 0.2769712 -0.16945852 0.4551265 -0.62618065 -0.028752886 0.11014262 -0.07809859 0.55045563 -0.12817962 0.12235024 -0.3122749 0.30267107 -0.4286089 0.23680128 0.029208455 0.037318677 0.33744586 0.015308192 -0.0377321
44262 0.14841151 0.25725463 -0.25091958 -0.03586884 0.17380194 0.11131727 -0.15495205 -0.1228514 0.2157742 -0.0054956214 -0.2756899 0.09282752 -0.060042847 0.23258227 -0.37727377 -0.45999327 0.23731028 0.10039954 0.20312348 0.058235154 0.045702748 0.45630836 -0.3613175 -0.39514875 0.12980251 -0.21642509 0.18159047 0.066744804 0.54611444 -0.3924773 0.13195318 -0.1217392 0.097829185 -0.2261185 0.02964469 -0.06512701 -0.026140725 0.3095835 0.40112266 0.21804085 -0.55859953 0.08085512 0.28143406 0.028375437 -0.08250585 0.24307504 -0.1844128 0.43530175 -0.45982847 -0.07223151 0.11033397 0.32833892 0.41443363 0.09235131 -0.15151909 -0.22944103 0.52230287 0.038059518 0.2502219 0.32921574 0.11201491 0.17174336 -0.0008810184 0.059845667
82623 0.13845496 -0.00348703 -0.33897188 -0.12617536 0.077754654 0.15883268 -0.17087418 -0.30813083 0.073244974 -0.25857028 -0.1920252 0.42712697 -0.055916574 0.004294654 -0.2303621 -0.27026173 0.3486805 0.2887707 0.20393631 0.32462195 0.020849459 0.41792235 -0.23702984 -0.350336 0.030774396 -0.33485377 0.044710953 0.10832332 0.5104796 -0.20893537 -0.07378729 0.2720765 0.054532062 -0.08643668 0.14586194 -0.16391388 -0.1724195 0.0884478 -0.026287574 0.2804622 -0.58637667 -0.051957794 0.16454862 -0.13442297 -0.2190514 -0.14737071 -0.11848951 0.4204619 -0.79595035 0.025323603 -0.01766031 0.11987793 0.32234794 -0.044436384 0.0878157 0.027048972 0.48391178 -0.41917685 0.004457475 0.1706944 -0.071813256 0.15214483 0.06110449 -0.17862536
1810 0.018758971 -0.071701564 0.5676088 0.19275431 -0.053798012 0.040393803 0.0413191 0.051650062 0.33610687 0.30970958 0.061395105 0.4159206 0.1018964 -0.06963016 -0.38825694 -0.0071261413 0.02342626 -0.24272363 0.062371884 -0.016558656 0.16165097 0.07117624 0.08840285 0.12451174 -0.17022032 -0.3056349 -0.5480702 -0.24865249 0.32673347 0.07464318 0.08880695 0.0227434 0.21039756 0.27171406 0.1981836 -0.03444223 0.12889518 -0.26246724 0.27541316 0.18986954 -0.121339105 -0.2740226 0.30351746 -0.10810263 0.10976231 0.02886004 -0.4057868 -0.083653815 0.123820804 0.34316185 -0.3148227 0.3378114 0.38017726 -0.060015734 -0.47226104 -0.4843169 -0.0053461455 0.05761012 0.017490653 -0.04713795 -0.17646754 -0.13115409 -1.0033871 -0.3941519
74784 0.22194932 -0.41259113 0.17337894 -0.46547893 -0.2769874 0.14145009 0.27428874 -0.4334979 -0.28083003 -0.438885 0.14370012 0.16189443 -0.15027715 -0.12176011 -0.022636387 -0.06275721 0.704017 0.3651758 0.41887876 -0.1136603 -0.103489086 -0.0044157524 -0.42636666 -0.052519847 -0.24943501 -0.26782468 -0.046935704 0.7238917 0.38899967 0.07541752 -0.13633293 0.27203485 0.6325355 0.1510787 0.2911015 0.20757617 0.08935157 0.22058432 -0.62528783 0.03696729 -0.03430195 -0.19664912 0.589648 0.44477367 0.03560668 -0.11842515 0.015710395 0.31662112 -0.55773735 0.52986026 0.10442467 -0.051332947 -0.15481697 -0.3833758 0.025288483 -0.46481937 0.23232542 0.021699797 -0.032382347 0.36686197 -0.5716132 -0.11293849 0.027070245 -0.28493685
9754 -0.0924779 0.07387266 -0.22733748 -0.23152386 -0.445834 0.066207774 0.056203365 -0.3972015 0.19652946 -0.1307767 0.6091117 0.28550008 0.05300229 0.08972381 -0.059134707 -0.30675527 0.37423545 0.0576914 0.2857466 -0.103697404 -0.3554062 -0.29803634 0.038479477 0.23533852 0.1082414 -0.40223077 0.036845572 -0.055621147 -0.029926788 0.28855175 0.08809819 0.25803956 0.042561635 0.25552034 -0.1976532 0.047971975 -0.020247046 -0.15472639 0.38705942 0.27808264 -0.18778618 -0.18150094 0.041872434 -0.31376386 0.061455525 -0.22900328 -0.05492827 -0.31231645 0.026308868 0.26407382 0.058221817 -0.04992272 0.3297011 -0.36904955 -0.625691 -0.07314819 0.15125395 0.2825537 0.06420355 -0.49389705 -0.06365287 0.09110375 -0.30821806 0.19289573
77862 0.12481083 -0.009682946 -0.08459478 -0.36764494 0.1302428 0.28527373 -0.56479925 -0.15525085 -0.050381634 -0.30642703 0.05122543 0.09553026 -0.1741917 -0.24895467 -0.22024128 -0.18429999 0.4406114 -0.09104954 -0.0857548 0.0043335236 0.20319127 0.44594136 -0.34024686 -0.15724382 0.07573817 -0.12741894 -0.07455047 0.2636589 -0.034228757 -0.2743144 0.042939365 0.21813907 0.30770543 0.13290066 -0.017971111 0.0648569 -0.07249023 0.14426434 0.19028714 0.12339135 -0.16336425 0.33572578 0.5663023 -0.031288754 -0.053072732 -0.14271206 -0.0009995257 0.29755542 -0.2681001 -0.047263674 0.021974279 0.3675776 0.4308222 -0.24105653 -0.3755226 -0.2725953 0.50943965 -0.10982662 0.113459736 0.28942102 -0.2905136 0.050207205 0.19992533 -0.44068357
15739 0.45086527 -0.15332128 -0.19202635 0.13439237 0.24367613 0.046868227 0.28301173 -0.6349826 0.5039049 0.11874616 0.16274495 0.36862588 0.12838216 -0.09046073 -0.31401768 -0.2669892 -0.25328088 -0.15506522 -0.0016567687 -0.19364682 -0.022543838 0.08362808 0.005205863 0.08821191 0.32202673 -0.30708495 -0.18137982 0.18960002 0.1660101 0.4169503 0.1493436 -0.0021964833 0.10174767 0.18783869 -0.07686634 0.06942584 0.16705331 0.11642993 0.18012497 0.5926573 0.24809508 -0.05483142 0.34780344 -0.49768957 -0.18723015 -0.15603116 0.010580579 -0.025775509 0.19209479 0.10737495 0.12461672 0.25225967 0.08838372 -0.13650206 -0.31938046 -0.030393295 0.029902525 -0.056925584 0.10031811 -0.49022827 -0.026133219 -0.38034287 -0.1453218 -0.18245195
68634 -0.25801116 0.26434463 0.053330332 0.22732441 -0.54617894 0.6449608 0.57498115 -0.7484217 -0.101838306 0.31872544 -0.038101632 0.36612388 0.020969387 -0.3323706 -0.5150497 -0.050286584 0.13479333 0.4014542 0.072900705 0.4354835 -0.082467176 -0.028966175 0.008442073 0.47418123 0.2569418 0.26592153 0.06126671 -0.16777547 0.31180874 -0.30830854 0.3120435 0.10112861 0.182106 -0.12459728 0.18549788 0.5365178 0.18503584 0.015536521 0.21271479 0.073347755 -0.118945375 0.06675005 0.09463919 -0.71320426 0.28723627 -0.17099476 -0.43102247 0.3505034 0.42072886 0.29709446 -0.24159221 0.14087948 0.10091395 0.19602364 0.5993852 -0.48291412 0.022117155 -0.03135503 0.28699628 0.33316812 0.5155094 -0.19352561 -0.12984754 0.103850536
27237 0.17632586 0.20458801 0.12644838 0.13246845 -0.06901352 0.11078394 -0.06838561 -0.29687598 0.24939862 0.15236923 0.0220617 0.5230482 0.34853756 0.05212189 -0.20460689 0.0048613315 0.26704827 -0.10540196 -0.12334852 -0.085027814 0.20529225 -0.17577878 0.09957004 0.23293099 0.12022738 -0.3663294 -0.08747524 -0.09699038 0.21242183 0.007950773 0.083821155 -0.05502088 0.3483554 0.26431376 -0.024937304 -0.2620915 0.4532315 -0.38439396 -0.063564025 0.41309977 -0.019307308 -0.09922625 0.20710978 -0.29314822 -0.06416886 -0.35996753 -0.14736722 0.34103057 0.09386593 0.5340484 0.06464136 -0.003165948 0.23803616 -0.05484301 -0.3478151 -0.19411664 -0.16762073 0.19446981 0.10257653 -0.14218797 -0.005336221 -0.050836135 -0.32276657 0.03444063
82628 0.2450985 0.035995618 -0.4199372 -0.32594433 0.47041214 0.46410576 -0.2053922 -0.12555255 0.2939848 -0.071094945 0.12170325 -0.14094141 -0.024718167 0.008422586 -0.1531111 -0.34675935 0.29655594 0.2236504 -0.026628837 0.11635186 0.0815321 0.59185326 -0.34797496 -0.2231352 -0.12517191 -0.16808987 -0.019299386 0.2977796 0.44565138 0.0240103 -0.13220762 -0.11772354 0.3694041 0.2107939 -0.041370876 0.15769044 0.10536457 0.20783243 0.03544859 0.23699614 -0.34567094 0.003959511 0.25597122 -0.11542531 0.14589243 -0.028771214 0.2265232 0.33519 -0.6976014 0.20034409 -0.0031719857 0.09021295 0.2142928 -0.12214909 -0.19291013 -0.303505 0.56542236 -0.120925695 0.32258743 0.3856922 -0.07783208 -0.04561151 0.025137024 -0.09511464
16168 0.16022351 -0.07985104 -0.48926473 -0.20121384 0.50889724 0.47287148 -0.39170578 -0.00829452 0.4769176 0.11705401 0.05436282 0.20782916 0.019906681 0.036707535 -0.16645636 -0.18824433 0.3195798 0.18111664 0.18177657 0.17567521 0.11178702 0.34099424 -0.25408947 -0.13459861 0.012894367 -0.20844214 0.24209394 0.29978204 0.45077828 -0.07892708 0.21794479 -0.07863045 0.31063452 0.24492629 0.11998085 0.00693578 -0.048203465 0.16969025 0.25358805 0.37900108 -0.06536054 -0.20434593 0.27357572 -0.23694731 -0.09257636 0.12784421 -0.03961024 0.43051144 -0.3441448 -0.08032037 -0.09209475 -0.103651576 0.42345345 -0.29006162 -0.027279194 -0.31280938 0.23318192 -0.04582793 0.24833176 0.17018524 0.008383477 -0.051018346 0.13900799 -0.06966466
15236 -0.0972657 0.09845331 0.625883 0.16911972 -0.07458501 -0.035218492 0.042391434 0.0048173685 0.37897396 0.31308317 0.44892365 0.18800823 -0.33264515 0.11542364 -0.4087073 0.10408593 0.39855233 0.024461089 0.07308687 -0.18323123 -0.022223376 0.24077871 0.39988416 -0.010549826 -0.1805177 -0.22259611 -0.096375 -0.09393456 0.15971898 -0.17602485 0.07301223 0.27745426 0.07899964 -0.116827376 0.25024232 -0.21782684 0.29900974 0.13152601 0.38052285 0.53684884 0.0689537 -0.50064594 0.27977583 -0.3276905 -0.10336302 -0.0393517 -0.2637097 -0.09294203 0.35387447 0.41158494 -0.39582002 0.04953666 0.17194086 -0.55907047 -0.47497874 -0.11816276 0.14887497 0.1497609 -0.047718536 -0.22748698 -0.61068964 -0.25209633 -0.6517244 -0.15026295
15247 0.17285338 0.09119256 -0.28651112 0.05869785 -0.06819646 0.12241592 -0.24667497 -0.81743175 0.20481642 0.7953667 -0.11416399 -0.0049359933 -0.41262886 0.012831472 -0.36359286 -0.16149914 0.043640256 0.17066912 0.1451696 -0.1451417 0.058395773 0.2558361 0.21233988 0.099035464 -0.082081616 -0.49771488 -0.14049059 -0.25255537 -0.32483417 0.023692314 0.470554 0.63375163 -0.027746348 0.43171838 0.46338925 0.41207865 0.20414527 0.3945554 -0.06623986 0.3812202 -0.15953024 -0.44096038 -0.19907415 0.34494123 -0.22165708 -0.09846021 0.25093627 -0.07893558 0.202874 0.505679 0.004016392 -0.29598486 -0.2606924 -0.22009657 -0.40541783 0.16673486 0.28373492 0.6452997 -0.03265276 -0.0827392 -0.20475717 -0.08587016 -0.68647957 -0.24785435
43205 0.12953283 0.07041885 -0.311211 -0.047179975 -0.15285656 0.21075211 -0.0888045 0.17827411 0.2787346 0.24323562 0.18873176 -0.07311883 -0.27499536 0.115022495 -0.48975745 -0.19183622 0.22737631 -0.013785924 0.13337243 0.026227942 0.20804413 0.7533995 -0.40017232 -0.5626299 0.04558345 -0.32302397 0.08567484 0.08337852 0.47869548 -0.21180244 0.07809926 -0.3199773 0.18267344 0.25831836 0.36959583 -0.16992599 0.33470955 0.21338342 -0.06592819 0.42536893 -0.41818786 0.07358747 0.5426587 -0.19716483 0.068880185 0.1301049 -0.10266292 0.4906928 -0.6285985 -0.04741619 -0.0983215 -0.05771619 0.29006946 -0.2923093 0.12835597 -0.38214973 0.73831165 -0.170743 0.3992698 0.19758278 0.2636098 0.16385333 0.32283834 0.23900433
602580 0.8548571 0.36999613 -0.33832255 -0.45628262 -0.053814553 0.12449799 0.36564144 -0.1888638 0.09755837 0.31835008 -0.20522824 0.91858906 -0.867898 -1.2787993 -1.350169 -0.7266635 -0.24745135 0.4424045 -0.4708891 -0.49478132 -0.12585941 0.017011046 -0.2797114 0.00483287 -0.10507527 0.190156 0.32875594 0.12418712 -0.11578313 0.55669725 -0.6666203 1.1924632 -0.44814494 0.05046361 -0.35881075 -0.66791743 0.6871765 0.14944908 -0.6889012 0.014531781 0.7626886 -0.19583765 -0.3751128 -0.0956848 -0.09097522 0.56579274 -0.30172342 0.33613923 -0.6723158 0.46621463 -0.3455987 0.56196225 0.087797694 0.89160115 0.21496442 -0.72268796 0.7201413 0.2066056 0.15037267 0.19158554 -0.18109344 0.78026175 0.4856812 0.14631315
385462 0.16918097 0.6693883 -0.6169449 -0.1244197 -0.9238938 0.22924006 0.90667605 -0.92517495 -0.008597742 0.11029989 -0.8499869 0.50564766 -0.5125924 -1.1602515 -1.0925636 -0.4408792 -0.49895892 -0.23318788 0.39253348 -0.15309864 -0.4335135 0.17686483 0.9778364 0.330584 -0.014060564 1.4239765 0.75057197 -0.45054308 -0.08868656 -0.012344434 0.18370521 0.40793777 -0.2903697 -0.4146313 0.6494994 -0.23932087 0.34708813 -0.268613 -0.45119408 0.43261737 0.27441853 0.32996744 0.316665 0.59804237 0.5857926 -0.7736528 -0.5920809 0.28818366 0.89143723 0.76013786 -0.091868125 1.0945363 -0.09518073 0.10105391 0.049263522 -0.994337 0.89336 0.23446786 0.42485112 -0.2440835 -1.1266989 0.3118283 0.6740515 0.49066976
42625 0.2899001 0.14493182 -0.17096238 -0.42021492 0.115095764 0.102291025 -0.48231775 -0.42829028 -0.17142439 -0.2856683 0.12491308 0.032409888 -0.1594455 0.088407405 -0.15173069 -0.23520556 0.71282727 0.02926153 0.4274809 0.022054829 -0.07356172 0.28612992 -0.46194637 -0.12681442 -0.05648689 -0.25647318 0.012067037 0.14578424 0.3498614 -0.1996507 -0.30716366 -0.016502364 0.07583898 0.30073196 0.4843487 -0.06609209 0.4057493 0.16440001 0.099011034 0.13779946 -0.14133441 -0.010245458 0.33176547 -0.0034830067 0.15246482 0.3114989 -0.094439074 0.08412186 -0.71062213 0.41636327 -0.16405281 0.059314366 0.19982108 -0.21942943 -0.12073074 -0.29629883 0.56472456 -0.39253008 0.08134169 0.19168988 0.02136584 -0.24697681 0.09154606 0.10928089
150084 0.6291523 -0.6432575 0.28774658 -0.56747097 -0.5055212 0.04175322 0.60206777 -0.4759492 -0.5298755 -0.2983156 0.15204455 0.28360224 -0.43149054 -0.5335963 0.10697309 -0.14781171 0.60442716 0.39812157 0.54789484 0.20456305 0.15143082 0.14840937 -0.47818556 0.2036993 -0.07835401 0.08947436 -0.29423618 0.7548423 0.7493778 0.11413097 0.03293665 0.71471226 0.7447099 0.048316397 0.6655988 -0.20579338 -0.24441585 0.14778699 -0.26911283 -0.0933851 -0.25628072 0.10079017 0.62209433 0.63190067 0.09112884 -0.306565 -0.27621594 0.26798356 -0.41714278 0.7879565 0.08216741 -0.019436779 -0.4057663 -0.23119144 0.19445808 -0.453784 0.6028292 0.006919737 0.13088763 -0.31282812 -0.48683906 0.28387198 0.070331335 -0.14067747
237391 0.3103607 0.12401418 -0.4376345 -0.090747796 0.010393355 0.26356405 -0.2046555 -0.23029537 -0.1430099 -0.15501496 0.053206928 -0.07696354 -0.16407894 -0.18032193 -0.15135615 -0.56633395 0.51916856 0.070903614 0.05242611 -0.34393993 -0.08129878 0.37163135 -0.41542026 -0.26786432 -0.20397313 -0.029946543 0.1479503 -0.030413056 0.21504427 -0.19565165 -0.26057658 -0.15734278 0.2979021 0.07330169 0.029510466 0.20623618 0.33573 -0.070517145 0.031136824 0.082670934 0.06349772 -0.24824409 0.6195741 0.024545847 0.2691225 -0.051029366 0.31268096 0.15501373 -0.53892994 0.024461333 0.19044319 0.1115249 0.40841353 0.016379084 -0.57748705 -0.27369764 0.91491544 -0.34003633 0.2535234 0.34628814 0.03659704 -0.32174876 0.19977093 -0.44432423
19310 -0.043598965 0.04002187 0.13758405 0.26142076 -0.1354333 -0.3979905 0.118209 -0.35108563 0.5018114 0.2514308 0.5021193 0.25902462 0.061762404 0.17787927 0.08187513 -0.17294225 0.2167005 -0.6489776 0.1357655 0.19941384 0.12925597 -0.12263808 0.06563277 0.6180605 -0.12373759 -0.29411387 -0.03832593 -0.12425073 -0.27266657 0.034796894 0.38167903 0.21827593 0.27947646 0.19392133 -0.20187317 0.23077814 0.22133121 -0.6653123 -0.027584447 0.38311902 -0.37954316 -0.6281038 0.06075285 0.13802613 0.10562807 -0.1347433 -0.5066488 0.09160561 0.013112752 0.5373657 -0.1707794 0.22781749 0.5439183 0.13448612 -0.5694734 -0.46956185 0.58133215 0.5452701 -0.09933876 -0.1599697 -0.13380162 0.165927 -0.25973442 -0.08916192
18032 -0.018148975 0.019534493 0.46070004 0.4623142 -0.22725618 -0.11712439 0.10023105 -0.31566814 0.523999 0.24338695 -0.18101934 0.42236835 -0.14091675 0.52004546 -0.36309046 -0.19884388 -0.3855438 0.518689 -0.03841912 -0.36176586 -0.5370137 -0.54323924 -0.14922263 0.097150825 -0.1552912 -0.3880298 0.13435519 -0.29897356 -0.03594935 -0.15763842 0.6773755 0.13494362 0.16726373 0.4426813 0.39450276 -0.24959521 -0.33211842 0.23316526 0.06477124 0.5801785 -0.24634805 -0.04953544 0.0590105 -0.114869155 -0.009410961 -0.042962845 -0.15598278 -0.2327412 0.19079597 0.16340959 0.3001002 0.11095738 0.22607052 0.20904337 -0.8257578 -0.29763016 0.58771306 -0.18491744 -0.23427935 0.13971098 -0.046241622 0.028553959 -0.52699846 -0.45134625
650 0.14601836 0.1744892 -0.41824278 0.16361916 -0.063380316 0.13782899 -0.027102087 -0.5287184 0.38892895 0.46201956 0.17064044 0.09646616 -0.0045656394 0.018205035 0.059893854 0.26649183 -0.17883699 0.33139354 0.04202925 -0.4033575 0.13491553 -0.14416914 -0.027523031 0.0032754347 0.13509057 -0.4729342 0.18158412 -0.04830906 0.0012841574 0.34834424 0.20630048 0.30724558 -0.1111854 0.34721586 0.1460304 -0.10740871 0.32032728 0.25056678 0.31106794 0.22243582 -0.29522222 -0.47976962 0.42265496 -0.16871361 -0.27427462 -0.12752376 0.10078004 -0.056496494 0.20980474 0.5673993 -0.11161506 -0.09666097 -0.056761358 -0.25210276 -0.2910552 -0.209915 -0.09889755 -0.22261673 0.053259388 -0.30253428 -0.022023624 -0.2810503 -0.19512936 -0.08334236
102505 0.2857971 0.09170124 -0.19614336 -0.47011182 -0.14252831 0.09155752 -0.27683023 -0.33314502 0.011154397 -0.4107903 -0.12535332 -0.3662731 0.06393782 -0.04455897 -0.6998721 -0.16989224 0.7215869 0.33706996 -0.111242585 -0.22467534 -0.28086686 0.17273273 -0.41263124 0.0074755615 -0.05498769 -0.15498932 -5.700411e-05 0.18488164 0.024852952 -0.32516325 -0.23830073 0.05371482 0.44686386 0.123850256 0.060461085 0.17350905 0.5794113 -0.1458012 -0.14357977 -0.049189553 -0.28194037 0.014544929 0.8919809 0.16250914 0.18845783 -0.10724653 0.26693702 0.31038722 -0.6276372 0.19615576 0.06028125 0.05973429 0.19389929 -0.4729775 -0.52802783 -0.38395166 0.3174516 0.0015548175 0.24909617 0.49047875 -0.19391863 -0.11876216 0.20191036 -0.23196784
15306 -0.110849716 0.050354052 0.036755033 0.41646364 -0.085616894 0.1069304 0.22787423 -0.7320287 0.2428705 0.081341855 0.050145876 0.22339039 -0.038299926 0.024292666 -0.23215598 -0.44959792 0.26856405 -0.16771097 0.08210222 -0.2308425 -0.50754863 0.5918295 -0.100614 0.37246767 0.082998954 -0.28204924 -0.1270486 0.31161574 -0.37415138 0.39363298 0.22096318 0.37931058 0.21905483 -0.03319395 -0.02914368 0.10947786 0.6554414 -0.020720609 -0.0114146555 0.36893687 0.12971722 -0.20430912 0.03820332 -0.04582371 -0.37342724 -0.64010155 -0.15555793 0.009219402 0.19476096 0.08619809 0.1376937 0.10132305 0.12167954 -0.017553722 -0.7314975 0.1547765 0.18381596 0.36032504 -0.33000335 -0.2161162 0.0973011 -0.36881897 -0.30426195 -0.14335218
19623 -0.1431728 0.072400205 0.23444082 0.23397069 -0.21282025 -0.28960815 -0.035747193 0.037918173 0.48559707 0.24862812 0.10614949 0.20413978 -0.06967782 0.015002983 -0.50169414 -0.1325839 -0.36985874 -0.23953827 0.065371625 0.058274362 0.32853958 0.20576967 -0.013025965 0.5826775 -0.4061243 -0.052851878 -0.14089695 0.058479343 -0.22081648 0.013241041 0.17360424 0.37653276 0.1634428 0.5811168 0.30621308 -0.16627243 0.41513994 -0.32888556 0.14511627 0.2440986 -0.14061554 -0.36193132 0.2827565 -0.3004051 -0.016525803 -0.20505318 -0.22052436 0.006449328 -0.18793458 0.5604075 -0.25681463 0.32744694 0.38509378 0.20166567 -0.59318286 -0.31951284 0.050140355 -0.07731352 -0.041423384 -0.29718357 -0.1778733 -0.41151035 -0.5111568 -0.5854072
764162 -0.50295746 -1.0878084 -0.832037 -0.15362416 -0.8062163 0.09553389 1.163006 -0.9643193 0.46741295 0.070725404 -0.03586561 -0.5530176 -0.4784729 0.5781441 -1.0735345 -0.31909716 0.26786578 -0.63651556 0.0010373797 -0.5988299 0.045281492 0.53188914 0.3063536 0.8318036 0.3469516 0.6207747 0.9648496 -0.27481973 0.011426354 0.3129786 0.22542815 1.2119999 -0.21661718 0.55289155 0.3219926 -0.53185934 0.022582388 0.03201889 -0.1463949 -1.4932067 0.58139545 0.30314735 0.230936 -0.21228124 0.9674801 0.37043753 -0.5796696 0.05942539 1.0443486 0.14084953 -0.18383631 0.76157475 0.6235914 -0.21395575 0.40434188 -0.43439192 0.5331504 -0.13031483 0.9317637 0.26193216 -0.5503525 0.68183905 -0.61869967 -0.6017965
15793 -0.4368791 0.06143061 0.22137748 0.20162275 0.09487471 -0.2938356 -0.09403051 -0.07425249 0.13313183 -0.016475018 0.23515327 0.24253377 -0.01446692 -0.0055150893 -0.49987808 -0.18871896 -0.052904546 -0.27886373 -0.04445524 -0.06131411 0.15505382 0.12391833 0.06937855 0.5317797 -0.22481807 -0.09848174 0.065037616 0.13521996 -0.1829825 0.1555561 0.15056743 0.34731337 0.110122986 0.43984684 0.4514042 -0.085154645 0.316807 -0.25376317 0.24875215 0.41961613 -0.022365913 -0.5076074 0.1325346 -0.10663024 0.015140451 -0.33865327 -0.17867564 -0.010022957 -0.10701327 0.2689296 -0.094979316 0.00069140317 0.4382883 0.1929599 -0.67326415 -0.1577742 0.436857 0.28361547 -0.17525472 -0.03189609 0.030998688 -0.26633915 -0.45327145 -0.41893926
7459 -0.21069382 0.09186353 0.052981175 0.33416858 -0.11588977 -0.1968376 0.5977215 -0.08114383 0.5069711 0.098585844 -0.27384475 0.7093487 -0.36962998 0.13372295 -0.29467613 -0.03302472 -0.16316089 0.09368515 -0.06903929 0.31030625 0.0017666894 0.22612053 0.030646197 0.64125913 0.18880442 -0.18134534 -0.15668754 0.32785967 0.29668346 0.0073522073 0.012478744 -0.10054636 0.46555936 0.3952966 0.4620035 0.15225601 0.17493978 0.0377769 0.27742863 0.04814995 -0.20485152 -0.37636352 0.30404112 0.011455199 -0.10159129 0.27385372 -0.14830615 -0.2531199 -0.18292086 0.21058849 0.09495759 0.13682571 -0.008911296 0.4780876 -0.6869595 0.11275102 0.2569366 0.38045317 -0.10042201 -0.17468306 0.1508151 -0.33335206 -0.5594817 -0.4296237
663009 -0.92930925 -0.0667338 0.8239757 0.06364573 -0.8841985 -0.75671697 0.38254395 -1.7101954 1.2888876 -0.47132277 -1.1215084 -0.30185488 -0.30301827 0.24165663 -1.2540195 -0.09302568 -1.2433912 -0.31536317 -0.08142118 -0.4684263 0.3622815 0.25273013 -0.1869419 0.98717195 -0.034135062 0.23432931 1.0588224 -1.4271057 -0.23755108 0.79521626 -0.301598 1.3881023 0.27106094 -0.17592107 1.0155059 0.03808561 -0.450468 0.10636796 0.24874742 -1.0604087 0.92288774 0.042099483 0.7542496 -0.9742447 0.8541957 0.38311034 -0.041105203 -0.006535213 0.5464982 0.37256163 1.412327 1.2222366 0.77115524 0.14342389 -0.029102664 -0.81589615 0.7096172 0.8758901 0.5494866 0.35702798 -0.2672436 0.8385445 0.60942817 0.045975484
8580 0.3093371 -0.12465573 0.24113984 0.42576644 0.052783966 -0.40197727 0.1336175 -0.16721813 0.34507656 0.4479907 -0.08361088 0.67227346 0.07479913 0.17269549 -0.28774476 0.054961994 0.26820174 -0.3231342 -0.24492253 0.012781197 0.068111256 -0.034628622 -0.22555438 0.31561273 -0.14642675 0.062390782 -0.3363394 -0.09427991 0.061550677 0.5754528 0.1661851 0.11612329 0.43322185 0.066976026 0.172043 0.06444176 0.48386016 -0.1899742 0.10401109 0.5171845 -0.07333626 -0.10830649 0.1374572 -0.042886533 -0.10474566 -0.12771231 0.22862452 -0.09475362 -0.03213429 0.47320306 0.038714807 0.32795805 0.32633892 -0.06673855 -0.3640693 -0.57002676 -0.0015655588 0.4764747 0.04039108 -0.21939908 0.5655226 -0.022799892 -0.38139343 -0.087416366
11534 -0.3020739 0.22859225 -0.05857633 0.36184222 -0.017722784 0.09337442 -0.0797537 -0.3030111 0.055457007 0.12347038 0.11539971 -0.086655065 0.31028044 0.026321223 -0.23343809 0.014243262 0.027346548 -0.051836748 -0.31904197 -0.20326446 0.16073343 -0.17856939 0.03169008 0.091741905 -0.14690335 -0.28258187 -0.07213709 -0.1458905 0.35294393 0.7151909 0.13286565 0.031648282 0.037120353 0.33644626 0.36784658 -0.040422708 -0.14371663 0.11828902 0.51978433 0.4053507 0.08543816 -0.40808508 0.00018540617 -0.052867495 -0.11895049 -0.33809686 0.012311931 -0.25815862 0.03343788 0.37654072 0.22028996 0.37822744 0.42423546 -0.14943656 -0.5009245 -0.04910846 0.35151243 0.23676497 -0.0077852216 0.19899566 -0.09424946 -0.10771299 -0.34529316 -0.35250837
221142 -0.2674484 0.18526107 -0.15966761 0.3140545 -0.2881264 -0.35084954 0.59460527 -0.91318834 0.3963665 -0.10661193 -1.0366344 0.24364747 0.036623206 -0.37115481 -0.91897666 -0.5196442 -0.09432196 0.28790155 -0.19694936 -0.47419557 -0.0027475986 -0.72906977 0.2652741 0.45492032 -0.8453828 0.6657522 1.2369857 -0.6829266 0.6666648 1.2599167 -1.1500921 0.9460657 -0.20636979 0.03178471 0.8114841 0.1271651 0.0037902493 -0.13780855 0.83127594 0.47478756 0.29694045 -0.41383958 -0.0019288774 -0.6046638 0.0816495 0.66997546 0.750056 -0.10028452 0.23155466 0.4281849 0.30881175 0.7869705 0.7752195 -0.56971765 0.4839171 -0.042998277 0.3025977 0.14842953 0.18222453 0.6297749 -0.94901276 1.2434078 0.67802626 -0.40577132
38030 0.05773222 0.028224258 -0.55125535 -0.23317876 0.47202316 0.52342874 -0.3399077 -0.4098714 0.40534085 -0.46178302 0.04953557 -0.07365271 -0.077965654 -0.15209866 -0.37633085 0.008708356 0.22918661 0.27723628 0.3004215 0.16472383 -0.21028097 0.47793254 -0.33960745 -0.07779955 0.026497364 -0.3477465 -0.13682781 0.3414638 -0.106254265 -0.4901514 -0.0583976 -0.23022246 0.033324875 0.37103033 0.40177962 0.23657838 0.15199311 0.11717079 0.2318286 0.30076513 -0.09337303 0.043729182 0.40871343 -0.16613394 0.2639398 0.040816944 0.040447455 0.27375263 -0.83539057 -0.10681122 -0.16967575 0.04091217 0.339465 -0.14558324 -0.40853623 -0.7100169 0.3131103 -0.23103955 0.44900385 0.25526574 -0.2305718 -0.06266692 0.085444346 -0.06506485
37967 0.4006346 -0.022914074 -0.13001144 -0.42526808 -0.06947558 0.042428922 0.19401067 -0.552473 0.029361304 -0.20957842 0.45939487 -0.0009304231 -0.1382596 -0.05202099 0.15471633 -0.39112708 0.52594584 0.43612528 0.32203412 -0.78366774 0.47536567 0.29350618 -0.26547444 -0.43801248 -0.3994876 -0.038718157 -0.096149385 0.5217819 0.3164074 -0.21279868 0.13996251 -0.06435654 0.60248566 0.20958662 -0.008939546 0.089774705 -0.05037142 0.26328084 -0.15104336 0.022004504 -0.24700138 -0.29481384 0.61320335 -0.011213029 0.13026826 -0.5239096 0.34841514 0.35484448 -0.40170443 0.47459733 0.50677127 0.359613 0.028668914 0.22895446 0.25041384 -0.44985786 0.0035293032 0.13625462 -0.0870448 0.6973321 -0.22175848 -0.33147395 -0.008685291 -0.53029656
32150 0.32655662 -0.010442109 0.012577951 0.36717775 -0.30319074 -0.332765 0.15637542 -0.44423777 0.2009731 0.33459786 0.7619757 -0.35720596 -0.05666618 0.018318126 -0.6816777 -0.5388169 0.21409552 0.49958986 -0.0060802186 0.00059095345 -0.26000437 0.35594383 -0.03527918 0.014381935 -0.16163668 -0.1514449 -0.027805593 0.5891251 -0.3293388 0.080841646 -0.12615345 0.09537865 0.26160288 0.72502667 0.5250696 -0.054570973 0.0074572093 0.07637586 -0.023592625 0.21542 0.45858034 -0.23198436 -0.080540866 -0.13674271 -0.37450173 -0.038871173 -0.19412403 -0.20555577 0.4748453 0.20226292 0.45195746 -0.06566287 0.16013971 -0.381013 -0.07956769 -0.32518062 0.1215596 0.020329772 -0.18585806 -0.27372938 0.019554965 -0.18593428 -0.3111672 -0.3625792
13283 -0.07463478 0.03923523 0.26636878 0.35365406 -0.20248218 0.036467247 0.25917384 0.16614869 0.40577754 0.1761301 -0.051820546 0.67447376 0.23201314 -0.18411522 -0.21520878 0.120742075 -0.16620465 -0.017043905 -0.019253682 0.21058145 0.326392 0.04218387 0.022175778 0.25148538 -0.12591933 -0.46061763 -0.36807537 -0.22738837 0.3193877 0.04395063 -0.009169982 -0.029651932 0.61007303 0.6314085 0.31408983 -0.017823512 -0.16825092 -0.5231336 0.112279385 0.123384856 -0.046560217 -0.39461416 0.22192882 0.08980956 -0.26038826 -0.24790233 -0.210728 -0.2181675 -0.046544507 0.28882745 -0.35529724 0.84212613 0.14736483 0.033818517 -0.3185753 -0.43336564 0.435667 0.19495505 0.19716534 -0.07341353 -0.14817856 -0.21241492 -0.61713624 -0.2654409
282656 0.009540361 -0.32254064 -0.33286226 -0.289441 -0.23294102 0.14969018 0.1496223 -0.5996428 -0.1241327 -0.24006985 0.46665722 -0.08837442 -0.29282007 -0.0629703 0.15909025 -0.6039571 0.56917655 0.2774951 0.19686396 -0.51847154 -0.024676811 0.17404844 -0.33234033 -0.21387544 -0.5281004 -0.2150227 0.018399399 0.20098077 0.5123383 -0.106941245 -0.16880773 0.036300648 0.51589006 0.028006725 -0.18858014 0.05762598 0.1927312 0.23205635 -0.14547633 0.13677837 -0.0039957026 -0.41056672 0.49567324 -0.071490444 0.4390695 -0.09192219 0.4766068 0.29660767 -0.38902935 0.0491165 0.3660818 0.15551473 0.16542628 -0.14121903 -0.26434922 -0.23930596 0.37296525 -0.06602252 0.080603056 0.40539807 -0.18003298 -0.41846865 0.04943785 -0.32429174
232153 0.36086562 0.00024687927 -0.48191336 -0.12878668 0.2562496 0.32648697 -0.34096333 -0.43102446 0.16302556 -0.10850624 0.23398161 0.07749603 0.0504094 -0.17438821 -0.21708007 -0.45077556 0.37077588 -0.020443983 -0.018720707 0.09137738 -0.123751424 0.9069469 -0.20424695 -0.15163292 0.040424626 -0.24128017 -0.0771778 0.0075866478 -0.0057995366 -0.34087875 0.009383439 -0.10572369 0.13008972 0.13176142 0.57585996 -0.0718572 0.04353837 0.04133145 0.05339113 0.30939552 -0.32506377 -0.0029787978 0.4579463 0.13477279 0.41577592 0.09858638 0.20060176 0.20881999 -0.6156648 -0.15361367 -0.052351583 0.33456385 0.17218362 -0.01365796 -0.20972481 -0.26929426 0.8116267 -0.33764336 0.3885199 0.3986088 -0.12476839 -0.04488008 0.18122683 -0.01916691
242667 -0.11238361 -0.2988333 -0.39684942 -0.25109 -0.14951198 0.13635124 0.13104537 -0.491647 -0.4087231 -0.1590951 0.23072562 -0.07621948 -0.39906386 0.084190026 0.014459318 -0.69304293 0.6765172 0.40487897 0.05868321 -0.38460812 -0.047357578 0.09969846 -0.38396287 -0.2383317 -0.5697371 0.034460537 -0.03437183 -0.0029792727 0.48158008 -0.20472209 -0.21087007 0.22066079 0.46319568 -0.043763902 -0.07063312 0.14193705 0.19959228 0.028506696 0.04491282 0.11477916 0.16599634 -0.37651458 0.6749155 0.017137062 0.32814774 -0.1035693 0.6579801 0.37929386 -0.24066044 -0.05680083 0.28305036 0.27783558 0.5152943 -0.3997463 -0.459435 -0.29985842 0.47010309 -0.066525295 0.063808516 0.22090188 -0.296823 -0.6421388 0.07103043 -0.2747246
277637 -1.3106953 0.09214705 -0.11002191 0.4328887 -0.16409591 0.24623302 0.86094356 -1.1440072 0.06979696 0.56586206 0.30899584 1.2708721 -0.13879588 -0.21143769 -1.3391787 -1.2037786 0.93977165 0.60511726 -0.41636094 -0.5823234 0.45611975 0.36483443 0.931983 -0.27393633 -0.5931805 1.2046485 1.0815085 0.09172856 0.51512057 0.18054166 1.2626606e-05 1.444004 0.30724204 0.11180266 1.0475032 -0.45039898 -0.45539042 0.142157 -1.1244365 -0.7304149 0.085441545 0.3402373 0.43735367 0.5614801 0.73312896 0.478365 0.16395794 -0.6377335 0.5849792 0.308538 -0.26424366 -0.23571673 -0.11163468 -0.8524746 -0.33430532 -0.28935382 -0.02792036 -0.21742988 0.49618825 0.4010194 0.18033591 1.1178236 0.21250552 0.85959053
7352 0.17962669 0.23019299 -0.047587052 0.3218929 0.10728559 -0.16950712 0.14344583 -0.027651457 0.145489 0.070134416 0.36922428 0.39270428 0.2395376 0.09372705 -0.55698943 -0.10346577 -0.12186199 0.123074286 0.07234642 0.2202338 0.121627904 0.0931089 -0.103180066 0.18608016 -0.07065724 -0.18433246 -0.2419945 -0.020425428 0.3250648 0.40714204 0.05515819 -0.029984055 0.3922053 0.4126496 0.06513804 -0.026545847 0.12549466 -0.24124813 0.08891222 0.15977523 -0.03276458 -0.0066077244 0.21344653 -0.06309024 -0.28381822 -0.12521818 -0.021997966 -0.08252437 0.44816115 0.38828298 0.24398166 0.47464 0.34139237 -0.34400308 -0.09916479 -0.28349462 0.17265017 0.1904579 0.46222326 -0.099639446 0.068135925 -0.06640192 -0.6342373 0.055896804
44322 -0.46302646 0.49404028 -0.7780744 0.441657 0.4421639 1.1170964 1.3667303 -0.7407581 0.5930309 0.7206043 0.9972228 0.9161768 0.018310698 -0.557658 -0.16188937 -0.16404617 0.26195648 0.23017403 -0.32004848 -0.13932702 -0.41541284 0.34710008 0.71118957 0.7605822 -0.52088666 0.17142765 0.7537178 -0.37232018 0.8519458 0.681344 -0.36363116 0.67396265 -0.28581393 -0.022157889 1.4396857 0.47582865 -0.42370674 0.5241172 -1.4011036 -0.6659563 -0.32182452 0.34024867 0.9795476 -1.0125656 1.5287483 0.6495751 0.043873534 -0.6311099 0.21531707 0.57879585 0.5604049 0.24312347 0.64408165 -0.5070665 0.13014358 -0.7623728 0.44925863 -0.12872915 -0.3950352 0.24441692 1.0601825 1.9356 -0.22778323 -0.49136126
49601 -0.01012212 0.15618786 -0.12751308 -0.20363967 0.44133276 0.32201603 -0.28407875 -0.0910214 0.23767036 0.10710708 0.1623322 0.18493848 0.0707459 0.22050683 -0.33876252 -0.046627924 0.30333734 0.023535259 0.103023835 -0.0075908373 -0.0764551 0.31004453 -0.3091617 -0.4342783 0.082270384 -0.30052054 0.008590056 0.15443064 0.3233542 -0.05058735 0.1516324 0.16062757 0.30931094 0.12535097 -0.14411132 0.07604855 -0.20797573 0.2424834 0.33583492 0.14376825 -0.45624506 -0.26834467 0.17638336 0.03796314 -0.024536168 0.06059032 -0.06963871 0.36072707 -0.098605916 -0.088143095 0.25575688 -0.16175392 0.40472496 0.16238648 0.05945963 -0.24776086 0.38298053 -0.16174205 0.4543167 0.27492017 0.31846768 -0.020685295 -0.16057663 0.20545119
13174 -0.06173744 0.115539216 0.20362048 0.5279947 -0.04109356 -0.33174515 0.25524792 -0.070881754 0.3753179 0.42962962 -0.0017305774 0.54044837 0.4189091 0.15620427 -0.318618 -0.16194353 0.29615113 -0.2618856 -0.21924917 -0.2748095 -0.07472292 0.046104945 -0.2684444 0.23860615 0.09312998 0.17263399 -0.21355714 0.2015354 -0.10647358 0.26943427 0.22144476 -0.1403481 0.4291883 0.46091038 0.5695261 0.17765667 0.48325098 -0.2631713 0.16323967 0.33754832 -0.08839503 -0.25251612 0.2472335 0.08102947 0.08031192 -0.12908143 -0.10902044 -0.09243545 -0.21508032 0.9671488 0.18849276 0.0934802 0.42348912 0.05821894 -0.44020268 -0.048572745 0.15162979 0.5128819 0.06726885 -0.38459602 0.3454259 0.03948956 -0.1409534 -0.36111552
113973 -0.37725252 0.27880093 -0.19010666 -0.9308063 -0.44831622 0.059642266 0.57646686 -0.37161618 0.83040565 0.13800398 -0.017738217 0.0013295561 -0.35518748 -0.3824967 -0.46393058 -0.15236764 0.15409678 0.5132787 -0.62613416 -0.2132497 0.2923958 -0.18532635 0.48174986 -0.21245441 0.46934995 -0.17156109 -0.4081104 0.4502009 0.5488283 0.38001397 -0.5812724 0.75020355 0.39848855 0.43335623 -0.10570803 0.09666717 0.78911513 0.5091603 0.39645964 0.85590434 0.15667544 0.5571429 -0.5333142 -0.24556246 0.58396286 0.79122734 -0.14232397 0.059839386 0.028709235 0.4891927 -0.437854 -0.02979741 0.33271834 1.1728419 -0.085381776 -0.08432318 0.34900442 -0.058339573 0.15801899 0.12985282 0.34058696 0.3068152 0.018842895 0.2723907
180384 0.56494117 0.12708797 0.29943317 -0.4681945 0.37567678 -0.43797714 0.3044297 -0.50239897 -0.38165522 -0.48877013 -0.062819235 0.071062446 0.22962311 0.4499529 -0.16300131 -0.27954096 0.51985943 -0.4066109 -0.09005539 -0.13710946 0.0039335936 0.0439368 -0.7606049 -0.19475108 0.19714193 -0.5158123 0.5145791 0.27047667 -0.06689486 -0.41875538 -0.7061929 0.33747244 0.46505237 0.33489805 0.67954785 0.6223942 0.24498045 0.20906244 0.10538605 0.30178317 -0.063372135 0.0046466663 0.085740425 0.1542968 0.21651174 0.08836349 0.18934828 0.17060168 -0.24356434 -0.13876775 -0.09357392 0.01619663 0.0095052775 -0.16975895 -0.54934716 -0.3335287 0.9858284 -0.09754448 -0.19632283 0.6214526 -0.2326528 0.17718086 -0.08724846 0.020302432
62588 0.05380416 0.23431021 -0.33976328 -0.35952985 -0.007593775 0.42047405 -0.56284523 -0.31305236 0.01631642 -0.34872216 0.07953516 -0.14485167 -0.06429431 0.042306162 -0.37352175 -0.16763148 0.7419586 0.23965716 0.23895022 -0.044874836 -0.29303497 0.19123192 -0.5511211 0.00038560524 -0.10531695 -0.16907918 -0.23969074 0.034237105 0.17370172 -0.29682598 0.045125917 -0.18002167 0.48185784 0.14211315 0.13193665 0.3344081 0.20128329 0.044067763 -0.111588866 0.29866633 0.11650931 0.43534487 0.7168418 0.10295571 0.21934494 0.06441658 0.24220672 0.36726993 -0.6907402 0.34293777 -0.089535855 0.15706359 -0.124976814 -0.24798387 -0.39482585 -0.7739726 0.1361504 -0.10789981 -0.010271681 0.2700453 -0.5872634 -0.07271318 0.26036116 -0.45204923
2271 0.0068966066 0.14330338 -0.2046179 -0.062723905 -0.33301753 0.24581388 0.14417449 -0.62719494 0.34826058 -0.1992181 -0.04333409 0.43945038 0.04348256 0.06769047 0.2754335 -0.12172334 -0.030684436 0.2420418 -0.22983117 0.15370086 -0.105378576 0.11731231 0.45589578 0.07461155 0.111540064 -0.31360584 -0.14326027 0.1287456 0.67259336 0.18555829 -0.08411827 0.18003614 -0.15696248 0.18797852 0.039595407 -0.41027468 0.40834028 0.24841788 0.33222553 0.30616894 -0.16672532 -0.15584554 -0.24183072 -0.058695033 -0.04923103 0.060368694 -0.030500144 0.2955766 0.29100832 -0.110619344 0.10687249 0.19617383 -0.47135207 -0.3934024 -0.33713898 -0.20367433 0.08486177 -0.035538327 0.032627482 0.039003137 -0.12728813 -0.022035923 -0.12527587 -0.066217944
42003 0.6717473 0.23228407 0.1684174 -0.49745455 0.042439997 0.3274382 0.17305064 -0.460251 0.07946906 -0.38040093 -0.090132 0.09392229 0.08413071 0.09317682 -0.006774134 -0.6975093 0.3297615 0.4582737 0.1577077 -1.0011009 0.38279 0.95408607 0.033835128 -0.23687537 -0.39318064 0.026497263 0.14205308 0.46013746 0.7395351 0.27570698 -0.26633844 0.25444925 0.3830311 0.0062055746 0.10468801 -0.220629 -0.077432215 0.7129103 0.2494526 0.10221435 -0.726279 -0.78115696 0.15889956 -0.28966478 0.1424287 -0.75924456 0.16198695 0.16540162 -0.17659697 0.28128344 0.085476786 0.3109025 0.3190831 0.4187818 0.23249188 -0.1836286 -0.009612889 -0.09042643 0.025482751 0.85512644 -0.28165445 0.064695686 0.36292773 -0.5088893
94300 0.15746324 0.056953914 -0.50878257 -0.1292454 0.0526904 0.12937121 -0.025536284 0.038842093 -0.030854763 0.04690431 -0.045791022 0.085993074 -0.19240731 -0.17357278 -0.15342869 -0.18167299 0.25621733 0.0046871854 0.14986078 0.3116015 0.032120664 0.708066 -0.3616312 -0.36405787 0.05010871 -0.13538077 -0.12625764 0.2238973 -0.36871877 -0.373899 0.36719173 0.20759067 0.25631016 0.2730968 0.3544581 -0.28790122 0.06287872 0.062504984 0.15562285 0.29553708 -0.2242798 -0.30360335 0.36061987 -0.11207021 0.1293734 0.14306207 0.2161704 0.28668815 -0.29478574 -0.55551565 -0.130147 0.6119646 0.7454236 -0.011837229 -0.36701155 -0.5402578 0.63141334 -0.10668319 0.59606475 0.38302982 -0.26309803 -0.088663444 0.2612986 -0.117675886
27161 0.06918219 0.39989918 -0.054281745 0.039196774 -0.5657989 0.5693873 0.14296414 -0.70426685 1.0126158 0.7711241 0.30619326 -0.31414667 -0.28047392 0.2759816 0.12700635 0.14013676 0.63352215 -0.14085524 0.38384306 0.075434126 0.11120719 0.025614502 -0.31407404 -0.01145594 0.07751544 0.35327986 -0.37468904 0.22829446 -0.23543908 0.19457726 -0.1784464 0.036271363 0.38818938 -0.15213054 0.38541338 -0.07750148 0.16384162 -0.1976064 -0.83587724 -0.17376749 -0.28542614 -0.009133841 -0.6011348 -0.19752897 -0.5435592 -0.6539087 0.34153628 0.113696136 -0.07459028 0.5095803 0.025071315 0.44187194 0.317492 -0.028595766 -0.51054126 -0.13668126 0.37571812 0.25104818 -0.48486024 0.17874004 0.15633933 0.5732196 -0.49139053 -0.06594213
3554 -0.10628296 0.17425144 -0.10989709 0.565736 0.0058395965 -0.07431046 0.41029155 -0.3223502 0.47326773 -0.09376792 0.37909925 0.06434087 -0.037578795 0.40731382 -0.22292721 -0.00051664433 0.44800985 -0.34412047 -0.025821283 -0.13597587 -0.17289723 0.34464395 0.050356958 0.47242734 -0.07437961 -0.5159994 -0.44178265 0.13369663 -0.33582217 0.51251733 0.17298931 0.37217438 0.21595687 -0.022831855 0.12016866 0.15945683 0.29510882 0.4438758 0.42494825 0.2069326 0.13336582 -0.23865041 0.23822127 0.11231501 -0.3379338 -0.36524335 -0.31472707 -0.06099179 0.17004433 -0.034953754 -0.19513336 -0.050884794 0.16452539 -0.059063103 -0.5973723 -0.08331602 0.2541248 0.12163486 -0.27391282 -0.22701018 0.28587934 -0.26707855 -0.10580247 -0.43104976
124002 0.067651115 0.22250488 0.04801787 -0.7324774 -0.032234337 0.04628287 0.20402555 -0.49014765 -0.20345224 0.15883797 0.2806861 0.0027157331 -0.11942349 0.108433634 -0.1532572 -0.030605339 0.27751848 0.34511477 0.33110827 -0.31074712 0.09346605 -0.1597478 -0.45166233 -0.3469212 -0.3747626 -0.1881141 -0.45907307 0.39114022 -0.15865207 -0.25907126 0.16656794 0.117518894 0.525136 -0.10912589 0.0006345336 0.2308435 0.173901 -0.028108712 -0.03779278 0.320282 0.06870022 0.11613913 0.78583413 0.22442706 0.21524358 -0.39919308 0.5220099 0.34261805 -0.4397788 0.54228556 0.38457683 0.18042678 -0.109539285 -0.2768671 0.094223514 -0.48238134 0.43362874 0.21585342 -0.43385255 0.6649073 -0.025136461 -0.2752425 0.3579097 -0.5233817
11938 0.3169365 0.15816006 0.01113136 0.17062588 -0.28289276 0.09862661 0.024315981 0.2591648 0.081333816 0.25545332 0.07444263 -0.035416532 -0.34146863 0.09741239 -0.3441043 0.24786375 -0.08660213 -0.06308726 0.32211077 0.24144326 0.40324238 0.8103602 -0.22196881 -0.56699485 -0.09746152 -0.40582415 0.11745302 -0.1771989 0.49559784 -0.013030958 0.118811265 -0.028109262 0.18493788 0.20712306 0.21783665 -0.32714888 0.1606963 0.28290892 0.084499165 0.44870666 -0.5387703 0.17978874 0.39593273 -0.064583704 -0.10542812 -0.01480645 -0.048368424 0.52576303 -0.5977687 -0.17074263 0.3098698 0.08708071 0.6185278 -0.36069337 0.0847959 -0.41333282 0.7933737 0.120117955 0.3401834 0.17501369 0.19350101 0.15544558 0.23276319 0.34721807
54217 -0.010034178 0.122304596 -0.31925482 -0.027862895 0.3223614 0.3069125 -0.3275261 -0.28382587 0.32696196 0.20322375 0.21188411 -0.027682748 -0.18853775 0.32611376 -0.39355007 -0.4547257 -0.00810826 0.25935057 0.2557452 0.21994251 0.042386334 0.69944966 -0.29899746 -0.2596436 -0.010835304 -0.26049355 0.0585012 0.08435769 0.29810578 -0.31207162 0.2456388 0.09677565 -0.047131706 0.2991019 0.14251253 -0.14448658 0.07651752 0.08317619 0.059283935 0.27017546 -0.009539575 -0.042367868 0.3185574 -0.10581517 0.16424166 0.1425926 -0.12914893 0.607208 -0.68437034 -0.2400058 -0.13941348 -0.12808244 0.49571314 -0.18342003 -0.0010064143 -0.35034052 0.4321864 -0.19070145 0.5611271 0.09323765 0.059816357 -0.2946705 0.35736462 0.1253382
2352 0.06755272 -0.29051247 0.3096254 0.53858924 -0.38905698 0.033845898 -0.22545981 -0.5977984 0.7338903 0.12665379 -0.056888923 0.0136384 -0.117400035 0.14237218 0.157029 -0.28336322 -0.14299591 -0.28159755 0.1525283 0.30208907 0.31093985 -0.14479989 0.39660954 0.03996741 -0.13174418 -0.22135554 0.0933481 -0.22396658 0.24105692 0.06874622 0.29135096 0.46732804 0.16297545 0.5407157 -0.4209953 0.2646081 -0.020240325 -0.560193 -0.30024993 0.24409772 -0.4662782 -0.2981186 0.58318776 0.28623348 -0.3373193 0.07768114 -0.40781423 -0.20788337 0.085085884 -0.12969299 -0.5091313 0.4536567 -0.08083238 0.15109864 -0.31503886 -0.82755464 0.2482115 0.542247 0.28234008 0.070130974 -0.091864124 -0.012738286 0.10803252 -0.3706684
585 -0.03960112 0.01253902 -0.05531603 0.032158595 0.14700061 0.20886475 -0.22932506 -0.4925378 0.2935042 0.15928736 -0.14845513 0.42414075 0.21407893 0.09150557 -0.29845336 -0.025456922 0.10027968 -0.069746695 -0.27277777 0.07198127 0.04992474 0.102083795 0.11541413 0.18569484 0.26818293 -0.21228349 0.10104537 0.025981683 0.44830683 0.35373873 -0.051491525 -0.15154837 -0.10383755 -0.047765717 -0.12495463 -0.22215126 0.08748339 0.14823723 0.29508054 0.4307278 -0.11409844 0.060164463 0.26287264 0.058261197 -0.33697978 0.3585934 0.00814806 -0.080680214 0.18503597 0.28206334 -0.17051111 0.2032434 -0.02172745 -0.16540515 -0.20287623 -0.59315556 -0.077037476 -0.13834672 0.19354106 -0.07040935 -0.03283019 -0.20740591 -0.100512445 0.19149643
671282 -0.4640841 0.27443293 0.2799302 0.4043806 -0.10440048 -0.63879156 0.834146 -1.7603208 0.9616503 0.91077274 -0.367731 -0.646994 0.827877 0.20523098 -0.3566646 0.11204405 0.062331986 0.2850859 -0.22205372 -0.19207582 0.460556 0.74528515 0.00047388044 0.441346 0.35450262 0.2118264 0.41364086 -0.7546562 0.30703187 -0.09388624 -0.3312522 1.068908 1.0149399 1.0081197 -0.52814674 -0.3570502 -0.36299995 -0.06839779 -0.64350575 -0.709337 0.8624455 -0.25047022 0.4527858 0.44271109 0.34538117 0.5308621 0.021679008 -0.22884606 0.5872204 0.5704206 0.71372473 0.9060587 0.6228205 0.5897359 0.29237688 -0.8183999 0.20892909 0.5582763 0.2950398 -0.08717181 0.08083633 0.56168294 1.1609762 0.6344577
26270 0.016425036 0.24662678 -0.056801204 0.07648713 -0.5053923 0.37997368 0.40983358 -0.43836367 0.11828839 -0.11414497 -0.014187226 0.056714807 0.12561789 0.41898245 -0.06582648 -0.14475337 0.45956433 -0.1034456 -0.067265384 0.3434151 0.2184451 0.0047770813 0.055085998 -0.4361495 0.04973741 -0.12953793 0.37200618 -0.18958996 0.5894206 0.11675148 -0.018557822 0.25704837 0.011018226 0.109014615 -0.042800345 0.09280171 -0.102136314 0.071463905 0.3552621 0.35355088 0.119593754 -0.037240796 0.18585032 -0.16796397 -0.18895906 -0.0143009005 0.3184116 0.52628946 0.04913062 -0.051972017 -0.1737796 0.02560979 0.23048721 0.07221259 -0.18199337 -0.13613206 -0.14220959 -0.49344754 0.13263139 -0.033840768 0.090292454 -0.04596171 0.18983184 0.28430802
28506 0.4616889 -0.026767572 -0.40883487 -0.06506309 0.1969652 0.15984634 -0.44156796 -0.4567882 0.0660407 -0.425973 -0.023852753 0.0051447907 0.18520972 0.1034983 -0.13455586 -0.23760606 0.43912676 -0.15200312 0.2848977 0.079610124 0.053566653 0.5244494 -0.39995906 -0.05372896 0.19101922 0.12495912 0.0075822673 0.2255256 0.080938876 -0.36752138 -0.19309352 0.23423213 0.15628539 0.21004336 0.6077353 -0.07968468 0.114621505 0.32150987 0.0732344 0.34779125 -0.020186123 -0.10261171 0.33120647 0.020593815 0.23731858 0.3601209 -0.031852048 0.250346 -0.7206769 -0.1206111 -0.23898031 0.16723756 0.2727681 0.09372731 -0.5100758 -0.34071654 0.7673155 -0.45331964 0.30012828 0.5430028 0.08354839 -0.027738702 0.0026791329 -0.055993762
35833 -0.18666537 0.4388646 0.040298283 0.23477212 -0.49308628 0.13236625 0.44950536 -0.4178018 -0.06877191 0.41368365 -0.097211845 0.111141264 0.13526605 -0.19773144 -0.14688098 0.1114396 0.64865375 0.07851056 -0.18022136 0.548184 0.29071745 0.2697417 0.110235855 0.34182766 -0.16539578 0.21442752 0.06364534 0.085173674 0.37850145 -0.22350234 -0.14042656 0.50361234 -0.008582272 0.11194771 0.040318158 0.72441375 -0.14139497 -0.05795198 0.5549349 -0.07137568 -0.1989841 -0.06897898 0.26537114 -0.51283485 0.17694259 -0.09447719 -0.11720349 0.59402573 0.08205658 -0.0819709 -0.108900145 -0.27468556 -0.47282526 0.45089328 0.31080377 -0.6605621 -0.05536489 -0.4164194 0.016854724 0.3802739 0.29731056 -0.07975388 -0.20929444 0.21077734
554733 -0.60356957 0.23739703 -0.06809631 0.1268405 -0.33619636 0.8243895 1.9069941 -0.50990313 0.40735286 1.1852479 -0.39272466 0.12055476 0.5498746 -0.050507866 -0.37141797 0.06872647 0.69280654 -0.11178821 -0.3402718 -0.23543814 -0.17671905 0.43586975 -0.96998817 0.7457381 -0.123636216 0.5473756 -0.3912808 -0.5144448 0.019528143 -0.52889454 -0.1242793 1.0844489 0.61255944 0.43740317 -0.46752098 0.7751383 -0.0800579 -0.31691906 0.24661204 0.104604624 -0.20996007 0.45786682 -0.18888146 -0.3227806 0.5760238 0.6543073 -0.837697 -0.7153133 0.61529905 -0.03348688 0.2685607 0.29741076 -0.07461141 0.2033177 -0.026328348 0.099106275 0.17084159 -0.00018022637 0.52387667 0.8322457 0.47453147 0.17750093 0.63896906 -0.090506196
58346 -0.054605953 0.12595019 -0.16596779 0.07302857 -0.29410428 -0.2878764 0.17607899 -0.53090674 0.7366145 0.5306698 0.3879926 0.15809247 0.1626616 0.13545541 0.04817946 -0.29887214 0.59771734 -0.44666913 0.45310152 0.08022813 -0.28110954 0.014589257 -0.3578888 0.08192342 -0.06405029 -0.02288801 0.055687472 0.054236475 -0.28890216 0.032161392 0.019894116 0.012267161 0.26634258 0.08127084 0.24553613 -0.07373701 0.32382828 -0.5433952 -0.5083486 0.3451507 -0.27110162 -0.18369353 -0.44990656 -0.10153262 -0.28815213 -0.45424 0.14516605 0.24462035 0.06577624 0.57956594 0.08779205 -0.075185925 0.44342086 0.046511974 -0.6254023 -0.25726822 0.18258049 0.62486553 -0.2926903 -0.24224812 0.120848715 0.31106427 -0.43618822 -0.32937145
219474 0.2855156 0.17717871 -0.32664856 -0.10153751 0.015806112 0.3070864 0.05221614 -0.32811904 0.34721604 0.17945394 -0.31188643 0.3482217 -0.012716262 0.14540178 -0.6749469 -0.20682257 0.38067994 0.009242945 -0.055483285 0.3710008 -0.110252135 0.36390033 -0.13668601 -0.6918881 -0.48176998 -0.08657801 0.20755504 0.14954428 0.12929778 0.19068213 0.31528965 -0.12621374 0.027692169 0.27282983 -0.26052323 0.21792416 -0.18872094 -0.21346146 0.295503 0.012478599 -0.033074386 -0.46892977 0.070037946 0.25467652 0.22711614 0.0655565 0.094633356 0.793387 -0.27121544 -0.6161235 -0.0481842 -0.59806406 0.4272332 0.042986706 -0.034461495 -0.50340396 0.040756904 -0.18131532 0.16764955 0.09803763 -0.14867382 0.23604673 -0.034510385 0.10436358
26607 0.1849801 -0.013985283 0.10858351 0.10146878 -0.08519803 0.07996185 0.4252524 -0.12230393 0.37935185 0.20266244 -0.042631663 0.3501834 0.4732944 0.200137 -0.30084622 -0.11232688 -0.19424495 0.18715772 0.019342914 -0.21869111 0.02042923 0.020214243 0.07493649 -0.0788725 0.11843868 -0.02093605 -0.41101533 -0.069759004 0.57290494 0.42539942 0.04968476 -0.063542865 0.044183023 0.59044945 -0.17099364 0.12166572 0.21302645 -0.50868964 0.19392566 -0.009127392 -0.10482958 0.18371935 -0.09414306 -0.044670343 0.13027358 -0.24642237 0.10044872 -0.24459918 0.14635698 0.12254972 -0.12063026 0.3176491 0.15844794 0.008279564 -0.13034233 -0.55166316 0.67217726 0.3298941 0.44964257 0.003717921 0.22231002 -0.52656525 -0.639912 0.007862115
732316 0.3871108 0.33319235 -0.340257 1.1154811 -0.2937667 0.8005274 0.7230476 -0.62265027 1.1878941 -0.19010478 -0.22683764 -0.60237044 -0.711127 -0.32890442 -0.75137776 0.7395683 -0.039997708 -0.26497763 0.47248232 -0.72617286 -0.324652 0.31592354 -0.1532875 -0.005598489 -0.76397187 0.9498531 0.047745228 -0.5984593 -0.17966084 0.4367027 -0.05789942 1.1116749 -0.6890412 0.44775712 -0.68655324 0.95430833 0.15047748 -0.21584201 0.16772686 0.18110403 -0.15710331 0.6368494 -0.40381595 -0.14470455 0.8576126 -0.1672655 -1.2680832 -0.29724973 0.50502753 0.30661336 -0.48213053 0.6965908 0.43993604 -0.53489953 0.67513317 -0.79131395 0.64041007 0.52299917 0.27576074 0.84502375 0.5095903 0.00816647 1.2313249 0.0022012312
30865 0.12514012 0.16813862 -0.0015241463 0.22726448 0.045550495 0.08051425 -0.13576083 0.0067647467 0.0067136576 -0.052602693 -0.26597995 -0.13108926 -0.100854136 0.09410506 -0.45860785 0.073283784 0.15065445 -0.025877869 0.08836198 0.107166626 0.1913705 0.17245163 -0.17780259 -0.5803804 0.03633643 -0.54308856 0.25617686 0.42828888 0.49022675 0.06898629 0.070905834 0.20579879 0.005219778 0.14657122 -0.036918692 0.22173597 -0.19755054 0.06060538 0.5941213 0.43943056 -0.49037677 0.06713015 0.15234245 0.090289645 0.062154606 0.23532586 -0.1474302 0.41382423 -0.46838868 0.030950945 -0.15388826 0.08273321 0.47967717 -0.42481104 0.17738777 -0.5010127 0.5723741 -0.16048421 -0.19635129 0.17206669 0.37171146 -0.000793255 0.32027194 -0.02450605
233165 0.16479501 -0.09549567 -0.6553821 -0.07554595 0.3597699 0.221002 -0.26495612 0.10399213 0.25185332 0.016821414 0.17119017 0.17439139 -0.17664982 0.042639796 -0.39474338 -0.21869668 0.26357213 0.09212062 0.08602206 0.4114032 -0.05255688 0.5819744 -0.23321831 -0.41033915 0.17500246 -0.0006714513 0.007502788 0.26837432 -0.0922725 -0.3201158 0.3927229 0.18330851 0.32651663 0.47909608 0.25046164 -0.029697036 -0.08506211 0.041254412 0.24600258 0.42037433 -0.21206035 0.14832744 0.27390626 -0.033014756 0.10001321 -0.007495472 0.11873794 0.25107667 -0.32297024 -0.24724995 0.17119247 0.2899541 0.581585 -0.13461994 -0.17009233 -0.46535188 0.42940292 0.009116078 0.57502687 0.3477928 -0.43410423 0.21602625 0.22378948 0.14453578
9313 0.02550848 -0.12490002 -0.07303033 0.32639217 -0.0658293 -0.08607421 0.10403762 -0.73497444 0.46978906 0.21577866 0.6763393 0.14998727 -0.300176 0.1928739 -0.0040803845 -0.15322843 0.3225321 -0.27384153 0.26414478 -0.15342644 -0.0009903554 0.10460534 0.09835292 0.4505237 -0.15908515 -0.2168872 0.13255799 0.07338744 -0.29692826 -0.012417319 0.2608755 0.05523747 0.1784543 0.2475895 -0.4080364 0.13587111 0.25338966 -0.27294192 0.09118732 0.50007784 -0.020100944 -0.62926686 0.26548672 -0.25118998 -0.26082084 -0.26215905 -0.6257787 -0.19927083 -0.17801973 0.7197195 -0.20864707 -0.049693327 0.12831406 -0.032909423 -0.4409609 -0.31057408 0.11745785 0.21947484 -0.11685262 -0.34367427 -0.029147549 0.208181 -0.0012915251 0.16390185
338081 1.1279342 1.1918249 -0.74647415 0.6316905 -0.12852111 0.18185863 1.0390718 -1.6588118 -0.23308481 -0.328428 0.33775342 0.18920612 -0.64198035 -0.2794069 -1.4654404 -0.16319391 0.22925277 -0.4391863 1.2859405 -0.8471461 -0.375846 -0.18635204 0.37904865 0.13111687 -0.62765074 0.1591551 1.0539671 -0.086023 0.4397729 -0.11073384 0.73981786 1.4478767 -0.90615857 0.77352244 0.8262103 -0.085545436 -0.41349897 -0.5024607 -0.33822647 -0.13538596 0.22990061 0.06847633 -0.12666339 -0.38495302 1.248071 -0.09867769 -0.43840253 -1.1979679 1.31114 -0.03757088 -0.043827817 0.32665974 1.1646756 -0.38666236 0.8107238 -0.1530937 0.37818295 1.3581545 0.26745838 0.22490048 0.42867687 1.0010251 0.5972748 0.70686376
25015 0.121027336 0.27623394 -0.17596816 0.17457512 -0.08577685 -0.20867096 0.22931024 -0.17366742 0.3700045 -0.09325313 0.2535352 0.5625678 0.25571135 0.11714111 -0.11178512 -0.09854056 0.115652174 -0.25078732 0.059784245 0.16944997 0.1302349 -0.023117302 -0.113108955 0.54306734 -0.11941387 -0.56200755 -0.018917855 -0.2523993 -0.19423014 0.32939246 0.34600997 0.17336006 0.31902152 0.18628997 -0.024630625 -0.14184764 0.31014207 -0.6070988 0.01717615 0.11592401 -0.24465163 -0.15496503 -0.0068202573 -0.269528 -0.06366544 -0.34669882 -0.24737702 0.069574945 -0.21730824 0.5363081 -0.042476576 0.2815638 0.58133847 -0.16786397 -0.27462932 -0.17310548 0.11643086 0.17567253 0.4565957 -0.29495227 -0.16235419 0.098693654 -0.47215623 -0.26317257
3936 -0.26854324 -0.03648775 0.24984512 0.30443543 0.036764693 0.5372701 -0.04238991 -0.2837756 0.23516041 0.21057385 -0.073198155 0.5498404 0.26525086 0.117431834 -0.7941167 0.16235067 -0.12594453 0.0018012495 0.10418172 -0.25772023 0.2648837 -0.13914149 0.15862703 0.25124824 -0.16630739 -0.07675824 0.037351493 -0.20317298 0.1774872 0.20320323 0.4526039 0.18648292 0.42492664 0.17426115 0.3010531 -0.73494685 0.3262404 -0.20129427 0.17129824 0.25167242 -0.11451354 -0.3469399 0.007598483 -0.11262535 -0.21129878 0.040092204 -0.21185909 -0.07800285 -0.04918936 0.20975155 -0.10389373 0.25447515 -0.017585684 0.15245222 -0.5101106 -0.12103979 -0.06604804 -0.15674978 -0.22610605 -0.24332309 -0.5160144 -0.17157485 0.09829773 -0.23294893
15068 0.45640242 0.30324817 0.2445887 0.42525846 -0.22620396 -0.07269248 0.010221583 0.043241017 0.6120888 0.21577814 -0.2603318 0.43833107 0.27073535 0.0027966627 -0.106342174 0.03762622 0.086262785 -0.15092419 0.012838767 0.036904696 0.38352734 0.1573718 -0.34693912 0.4207729 -0.23620418 0.032136943 -0.12576209 -0.0418521 0.06692014 0.36834055 0.29004332 0.24924397 0.26379997 0.46519506 0.0918653 -0.0027117368 0.42254978 -0.7625915 0.28389487 0.27596426 0.06001286 0.22786449 0.3206513 -0.11285852 0.06285141 0.028752754 -0.13344753 -0.02699319 -0.16079044 -0.01582883 -0.06896869 0.43464437 0.32699463 -0.35110122 -0.4498129 -0.38766828 -0.12090621 0.42270115 0.21393782 0.09674514 0.23061576 -0.12523931 -0.5573294 -0.038932864
325426 0.006073578 0.5035436 -0.420775 -0.07094961 -0.2517649 0.18297574 0.2789807 0.036820393 0.08823781 0.5083136 -0.48489642 0.08505204 0.043446418 0.28767967 -0.68693566 0.0947303 0.41861764 0.0063729747 0.023881022 0.3193013 0.14631164 0.18399473 -0.13720362 -0.49800602 -0.3071926 -0.2906605 0.45131093 0.12963659 0.23575795 0.13982692 0.08712523 0.36263865 0.33876574 0.1213211 -0.3476065 0.35793713 -0.5119928 -0.02265828 0.6264208 0.22679223 -0.13069758 -0.0954298 0.45116395 -0.29684186 0.13593853 -0.085637294 0.023977878 0.73103 -0.2655596 -0.005947407 -0.3080327 -0.14328074 0.16471553 -6.567573e-05 0.13853532 -0.25229347 0.10263626 -0.2464869 0.07086946 0.22117978 0.16285187 -0.040013824 0.010191025 0.33296272
488108 -0.33685762 0.8838708 -0.42960355 -0.0019800758 0.17918405 0.9017599 0.7784599 -0.26248398 1.4741833 0.43423647 0.13138723 -0.73350626 -0.2628263 -0.12973678 -1.0921787 -0.052304007 0.7602358 0.45697346 -0.2886968 0.35031632 -1.1013639 -0.098456085 0.27749974 0.3249139 -0.71412665 0.19194634 0.5468071 -0.6511809 0.6835481 0.81095314 0.5908027 0.78834575 0.5080111 0.64438665 0.36373296 0.35878554 -0.0028530704 -0.27817702 0.20363475 -0.73240185 0.47280023 0.39879066 -0.238943 -0.82374626 0.6829053 0.07796848 0.18760224 -0.97630006 0.35977843 0.5627905 -0.42859536 0.5910186 0.18972671 -0.30024403 0.44883662 0.06621253 0.41483295 0.15888381 0.112958476 0.7984235 -0.54221743 0.73890007 0.28207847 0.4433237
4705 -0.035714105 0.36340946 -0.28943297 0.12679413 -0.18957518 -0.06405805 0.14561762 -0.0565759 0.20568441 -0.08272844 0.123212576 0.4295456 0.07350075 0.11742288 -0.30069047 -0.17691982 0.23041539 -0.20802633 0.004563077 -0.2947909 0.14644207 -0.15882851 0.19593298 0.0234657 -0.092635736 -0.66135275 0.030563995 0.13281268 0.4518999 0.4506689 0.3768458 -0.12366234 0.07523864 0.30132893 0.15818389 0.17130624 0.026713584 -0.321269 -0.017472621 0.4319507 0.16595103 -0.06280237 -0.109281175 -0.28774053 -0.59564894 -0.12076311 0.037850518 -0.45884052 0.15157716 0.35187218 -0.10252564 0.18482885 0.17972933 -0.30239767 0.07039104 -0.3201417 0.28562394 0.16346075 0.3450142 0.17654765 -0.02232456 -0.06107741 -0.6227836 -0.38522416
7922 0.123171985 0.092372395 -0.26293775 0.094128855 -0.03618713 -0.29743847 0.24203613 -0.40726864 0.48872775 0.06448953 0.38739598 0.4618628 -0.2841864 -0.06331019 0.0048538656 -0.016764885 0.16874328 -0.43700707 0.13664515 0.17696238 -0.15360068 -0.13932216 0.02976277 0.36058697 -0.07768059 -0.33765066 0.17164844 -0.071805865 -0.2844317 0.24500774 0.22228242 0.09446192 0.40931565 0.21419016 0.12064198 0.09099832 0.3639092 -0.38754252 0.063887246 0.39735496 -0.29334232 -0.6058105 -0.3251455 0.053263366 0.10714177 -0.24081995 -0.3183206 0.06414367 -0.061819065 0.46966475 -0.04155582 0.23506868 0.4424422 -0.113816746 -0.44293818 -0.09455388 0.39491704 0.4384024 -0.05601304 -0.3975553 0.0394003 -0.060203772 -0.23854592 -0.3876906
38096 0.3336547 0.10089138 -0.6614079 -0.12576173 0.572567 0.5615525 -0.22901501 0.020518392 0.22460301 -0.15252407 0.22257593 0.17087805 0.02840442 0.07076672 -0.39603406 -0.08289951 0.41971922 0.08983599 0.012869829 0.19563775 -0.012560396 0.6376859 -0.33731064 -0.25205374 -0.12962079 -0.23663263 -0.15722935 0.10685686 -0.09440526 -0.28133136 0.061110567 -0.19412506 0.22417165 0.52077436 0.12713519 0.077093154 0.06810647 0.03968346 0.16941996 0.25457528 -0.14330241 0.07171727 0.26292545 -0.25772223 0.38287583 0.18967468 0.08662252 0.08489098 -0.6539561 -0.015541002 0.03740603 0.09208133 0.27807686 -0.29139248 -0.3484207 -0.32239872 0.6132901 -0.12514032 0.47769853 0.24771492 -0.12705019 0.15551594 0.20141847 -0.051151894
8031 -0.020316133 0.17211613 0.27078533 0.44761416 -0.15552351 0.5131079 0.10938321 -0.14161998 0.3228228 0.1436357 0.21525827 0.66162187 0.580449 0.4039856 -0.5783114 -0.1294848 0.37191015 -0.057063293 -0.048620574 0.0026251269 0.45309865 -0.2751085 0.30994317 -0.04392813 0.4816723 -0.594782 -0.17502211 -0.31533828 0.24288967 0.4809478 -0.07263955 -0.17868881 -0.30173814 0.3542924 -0.2395356 0.22620335 0.25915554 -0.22467813 -0.098550014 -0.08777279 0.08128346 0.04782909 -0.11604022 -0.30092433 -0.28032908 0.19150272 0.15723531 -0.10065418 -0.0069336197 -0.2598062 -0.19371237 0.41710314 0.1397218 0.1572783 -0.034190394 -0.44528756 0.64546543 0.023381598 0.17069745 0.14164889 -0.1872206 0.004638525 -0.04721288 -0.53951806
41920 0.16235067 0.1348166 -0.54870576 -0.14478917 0.0071409317 0.26654258 -0.36420208 -0.106781974 0.04160381 -0.26686367 -0.12891763 0.15216646 -0.16926603 -0.014448143 -0.2336995 -0.69166696 0.43442917 0.21334232 0.08253503 0.08717055 -0.23306581 0.4485263 -0.23510498 -0.14269319 -0.046055883 -0.17564902 -0.11593497 0.012156715 0.007267522 0.06422964 -0.05042337 0.2564024 0.18321282 -0.002626653 0.43168697 0.18458192 0.15475757 0.21647695 0.037304338 0.33944765 -0.19391519 0.017157456 0.2420749 0.05817315 0.049769584 -0.19699074 0.1309805 0.3998828 -0.34423572 -0.05904111 -0.032278877 0.37672746 0.19971266 0.30271342 -0.055862572 -0.17920415 0.40823925 -0.18238015 0.26334614 0.12201767 -0.40095535 -0.19896647 0.27224085 0.091303006
175437 0.1454107 0.060944583 -0.31741244 -0.24992067 0.10913364 -0.011150277 -0.24721925 -0.21382722 0.14329672 -0.38115886 -0.11857909 0.037613973 -0.024192082 0.11761267 -0.28178892 0.042410575 0.34907737 -0.21053001 0.34368667 -0.13386194 0.13566384 0.39588696 -0.56955355 -0.33040074 0.30473834 -0.23281243 0.21021838 0.13536778 -0.16033098 -0.33385846 -0.37846836 0.024595989 0.4523077 0.27302757 0.34164402 0.22070163 0.25181085 -0.06204848 0.26810053 0.21297804 -0.45677882 -0.091296576 0.6668978 -0.08663071 0.2632698 0.23249817 0.42425334 -0.00758697 -0.33587962 0.099217944 0.16818428 0.15904005 0.052623276 -0.013784179 -0.17904925 -0.34739178 0.91459775 -0.29366595 0.14905548 0.3954205 0.37915176 -0.06810197 -0.0049024755 -0.04544146
14501 0.07309755 -0.023397977 0.09174125 0.24358273 0.078144334 0.20136084 0.030746067 -0.40905842 0.49842593 0.38443297 0.21284331 -0.21604864 -0.04461914 0.21954337 -0.31017733 -0.013142068 0.06942879 0.15475018 -0.31402668 -0.36606285 -0.20149113 0.054200713 -0.04407078 0.36638984 -0.28148666 -0.47595713 0.05230368 -0.27362165 -0.36592582 0.18624482 0.26894575 -0.085575335 0.23133738 0.29137725 0.70789397 0.00067145436 0.14567147 0.09220688 0.18850768 0.6374245 -0.1723485 -0.22238445 0.19597317 -0.12937115 -0.30212882 0.25127536 -0.420396 0.027471326 0.33000648 0.43033344 0.7283194 -0.13944754 -0.03669062 0.1772476 -0.49218062 -0.41320446 0.33955157 0.07156979 -0.29591256 -0.4265818 0.02845618 -0.28466883 -0.14002211 -0.3550626
466610 -0.23379229 -0.3394857 -0.06521026 -0.84034646 0.2975603 0.7983643 0.11093361 -1.5718199 0.12732832 0.6079916 -0.47486845 1.4896249 0.1071663 -0.49915674 -0.8690023 1.5460426 -0.5467282 0.5382435 -0.25097206 0.004061262 -1.1978531 0.81091964 -0.6256506 -0.19369352 -0.41851497 0.19151323 -0.43431133 -0.12383134 0.045725223 -0.40839714 0.93028414 1.0601726 0.45808566 -0.17358854 0.25094953 0.16357535 1.2391579 0.36271852 -0.41746575 -0.08395479 0.7793183 -0.039325096 -0.072241336 -0.120652236 0.023884939 -0.114257276 -1.0242049 -0.17888175 1.6899768 0.9491956 0.034622855 -0.8326115 0.49622184 0.07404354 0.47570655 -0.95393616 0.07559522 -0.24938816 0.19665527 1.0825272 0.1908273 0.4310327 0.5118387 0.5109113
26802 -0.24956772 -0.042367257 -0.08570928 0.4603864 -0.00040647303 0.26496994 -0.076477975 -0.44389692 0.24665843 -0.053329863 0.20901515 0.41550094 0.16147342 -0.19845179 -0.08336916 -0.22633636 0.47978196 0.1013569 0.03172457 -0.49429166 0.04106349 0.10041344 -0.19522086 -0.19754772 0.56165075 -0.45663136 0.09121085 0.12007475 0.37382215 0.16395569 -0.17117551 0.1176628 0.008001155 -0.099043496 0.13396469 0.06481313 0.089694634 0.23544997 0.2342256 0.49444196 0.37892553 -0.40613925 0.016809562 -0.06874445 -0.18629466 -0.082279794 0.04806444 -0.05666065 0.47433573 0.80472213 0.015162555 0.023809213 0.2789926 -0.3392117 0.063803285 -0.2584879 -0.06404806 0.53449476 -0.1545377 -0.22458886 -0.24984097 0.08019166 -0.2817569 -0.1001973
98572 0.23401633 -0.06385034 -0.35595763 -0.42648032 0.3639977 0.53391343 -0.32043618 -0.41796455 0.11822479 -0.20951176 0.03008546 -0.0897171 0.034513414 -0.07252222 -0.45064288 -0.065105766 0.64171284 0.53886163 0.27627888 -0.10639734 -0.20830494 0.31323946 -0.3282933 0.07165313 -0.20947997 -0.39127347 -0.11058906 0.3625759 0.09859881 -0.022174532 -0.00811371 -0.101930484 0.4432785 0.15823144 0.37696728 0.43124288 0.14168493 0.04047456 -0.32321215 -0.13868035 -0.19444777 0.052010387 0.5923342 0.0896463 0.12583005 -0.07658789 -0.027443422 0.4962358 -0.9299361 0.33141866 -0.25459474 0.2694513 0.23652412 -0.49783528 -0.251497 -0.5656592 -0.020877346 -0.16827662 0.24683306 0.3840467 -0.2584154 -0.27226958 0.33238506 -0.1971081
244084 0.12859067 -0.06404777 -0.41572043 -0.061659254 -0.19628234 0.29852444 -0.5329307 -0.44233745 -0.18119965 -0.28787887 0.18058617 0.24711554 0.0025833242 -0.3925995 -0.4511266 -0.07073623 0.4093123 0.19429791 0.07312823 -0.14704782 -0.33500373 0.37030083 -0.41328079 -0.059203945 -0.058266982 -0.2080431 -0.16824332 0.12174787 0.3421823 -0.71204156 -0.040125493 0.27473098 0.23449174 -0.3311706 0.09388693 0.15747672 0.06302171 -0.41748306 0.23999166 0.5454826 -0.22509505 -0.028439738 0.54696476 0.0803291 0.03831737 -0.26926526 0.35403422 0.1674392 -0.5467686 0.24829642 0.051564805 0.28324467 -0.2045449 0.004725164 -0.11656544 -0.047242213 0.6446489 -0.2987217 -0.31880423 0.18559678 -0.08560275 0.08122115 0.033241116 -0.43820623
220886 0.28877074 0.4307991 -0.4398844 -0.37441418 0.3519515 0.3672572 0.2571386 -0.17794763 0.26301017 0.11008079 -0.042451248 0.2928481 0.079903215 0.20250052 -0.63660604 -0.32178727 0.19069475 0.10024852 -0.099969335 0.17349398 0.20449404 0.50148237 -0.083228216 -0.661674 -0.21183439 -0.0075932923 0.17383677 -0.030729882 0.3455752 0.19970569 0.15647109 -0.2354957 0.1908544 -0.23696466 -0.046753947 0.021127505 -0.37482154 0.21759148 0.25273907 0.121166825 -0.3849708 -0.17943135 0.51527214 -0.09821488 -0.116624214 -0.51314765 -0.12093184 0.6251242 -0.05907495 -0.06468136 -0.20093413 -0.24449424 0.37251446 0.6704045 0.24165018 -0.49217236 0.22926624 -0.09128796 0.16535312 0.2588161 0.13449743 0.108224586 -0.050087582 0.008144553
21221 -0.09390809 -0.05124702 0.17716846 0.4765152 0.22614582 -0.21958095 0.25122792 -0.0530449 0.28189874 0.2360954 -0.026294589 0.6783336 0.081475094 -0.13786796 -0.4731426 -0.111941576 0.27922493 -0.41773945 -0.14596051 -0.07339118 -0.13064337 0.15341233 -0.023780625 0.4120701 0.06802816 -0.48114362 -0.5036277 -0.041355558 0.09484097 0.42690095 0.1706621 0.06899106 0.31063992 0.194392 0.13156062 -0.013163108 0.3698336 0.005764732 0.217873 0.34385857 0.1324469 -0.51317364 0.2649555 -0.078980364 -0.19680768 -0.10213457 -0.06140218 -0.3498988 -0.075004555 0.9147244 -0.038868323 0.024617732 0.40464902 -0.085273325 -0.35157585 -0.37042198 0.090889335 0.15430394 -0.1076998 -0.13411535 0.08204413 -0.16679603 -0.4375537 -0.26841688
2897 -0.024564 -0.022030646 -0.40130773 -0.0009917138 0.21826893 -0.12338685 -0.19254433 -0.63979965 0.34879538 0.41866052 -0.0824384 0.0619896 -0.21081436 0.1422706 -0.17802002 0.100515224 0.2451059 0.07628512 0.33478948 0.079373024 -0.33899322 0.1760094 0.18235637 0.02903377 0.025488973 -0.092550054 -0.37267977 0.12443858 0.1152875 0.6360682 -0.05281303 0.45508093 0.048634447 0.2843297 0.45856276 0.07627722 0.41862074 -0.0734826 0.30809894 0.51346153 -0.045603648 -0.22800389 0.22955433 -0.543605 0.091285296 -0.47032273 -0.67989165 -0.37264696 0.040631387 0.18068883 0.12343979 -0.47188997 -0.2103259 -0.118744016 -0.2958602 0.23246162 0.20095408 0.24048603 -0.28319526 -0.21656413 -0.51108176 -0.18156199 -0.1657983 -0.1671326
7621 0.37366244 0.26612014 -0.075661756 0.15569732 -0.11070715 -0.0690454 0.1169132 -0.2075782 0.5186946 0.21946569 0.28239083 0.66444707 -0.07037435 -0.18802081 -0.24908449 -0.17915909 -0.0017916654 -0.30872133 -0.12215752 -0.081070356 0.08325985 -0.09486869 -0.14321418 0.27164027 0.070893675 -0.3732654 0.022402475 -0.19182122 -0.07432197 0.4738056 0.048652444 0.14228572 0.3828865 0.20866773 -0.2304222 -0.050263822 0.09379144 -0.39162847 -0.15297778 0.41398096 -0.09950634 -0.057658594 0.10159704 -0.24364144 -0.17628327 -0.18297921 -0.3186868 -0.29411206 -0.23355265 0.12442716 -0.062608205 0.26287854 0.28338102 -0.3240808 -0.32628107 -0.14467204 0.28903082 0.15108103 0.15006244 -0.06070012 0.3848517 -0.1426536 -0.55665845 -0.04917633
916 -0.042593095 0.14977622 -0.097999536 0.6169552 -0.021598216 -0.04951163 0.86091894 -0.43654993 0.6432804 -0.2224762 -0.13809608 0.33357576 0.17725863 0.15000021 -0.13551435 -0.07184199 0.049170148 -0.20495252 -0.031979173 0.064789735 -0.31483948 0.5040404 -0.04439672 0.5462243 0.3047936 -0.49031845 -0.37146357 0.08299057 0.15193886 0.35938781 0.2993585 0.2561355 0.15704662 -0.056374677 0.08400314 -0.034493737 0.5901484 0.04789667 0.1227156 0.21215439 0.19102493 0.03140803 0.19162107 0.1589682 -0.5543077 -0.48294818 -0.19733065 -0.2941247 -0.07986141 0.37438488 0.10859269 -0.07428575 0.22457042 0.06475391 -0.59614336 -0.25971815 0.3006737 -0.101296365 -0.2825521 -0.3125113 0.16503052 -0.32219607 -0.3556184 -0.058693964
179948 -0.07308947 0.12053906 -0.16535538 0.28369737 -0.298075 0.10242033 -0.23327275 -0.5964789 0.39866307 0.3960523 0.18363585 0.22285347 -0.20998663 0.16236651 -0.36283812 -0.48962045 -0.5330595 -0.77951145 -0.05534203 0.34886605 0.12772827 0.34847447 -0.7047886 -0.35359636 -0.08280818 -0.3163068 0.346008 0.07494599 0.6188952 -0.7276024 0.12483272 0.046839513 0.44389108 0.018991278 0.26485813 -0.18242091 0.30723038 0.21018557 0.6248845 -0.14907566 -0.031017859 0.5891054 0.47523052 -0.09288714 0.108355306 0.17238571 -0.14468972 0.47642577 -0.8233668 -0.05606493 -0.0018097427 -0.40848607 0.6069538 -0.24110977 0.31265047 -0.23005311 0.6172569 0.05527474 0.0015945007 0.28181452 0.29045406 -0.51594204 0.28134158 0.048445668
7644 0.22365522 -0.008080616 -0.015000392 0.3995436 0.26676115 -0.22125815 0.116484664 -0.15790592 0.43362933 0.102331765 0.31057543 0.46547034 0.12577714 -0.14824478 -0.50812495 0.16528742 0.18598725 -0.33253226 -0.025504882 -0.03738767 -0.018574726 0.019983998 -0.032290943 0.09195648 -0.09516676 -0.44638014 -0.27025133 -0.098777585 0.21308926 0.45230296 0.19488257 0.20422065 0.37800947 0.35049567 0.1915276 -0.10628453 0.23923735 0.10161379 0.108107135 0.14170317 0.11029082 -0.19191523 0.2449503 0.031668764 -0.2608292 -0.081419826 -0.24015287 -0.22711031 0.1817897 0.44796672 0.10838891 0.2477032 0.13650069 -0.44912386 -0.4809578 -0.24636419 -0.16084722 -0.09135781 -0.068430655 0.06054894 0.14571036 -0.36434433 -0.49008003 -0.1965565
16355 -0.334986 -0.27478382 -0.113612875 0.16842942 -0.18962769 -0.12643695 0.1524949 -0.604736 0.30830634 0.39653227 0.8479658 -0.056912202 -0.05050437 0.39037955 0.067352116 -0.3733632 0.4564043 0.038122136 0.031341773 -0.2507556 -0.13525648 0.36096224 -0.08152884 0.089432105 -0.15681858 -0.14629036 0.16058329 0.15471464 -0.36509618 -0.2673514 0.22463939 0.10939845 0.056199923 0.6223328 -0.1683508 0.23215206 0.39785197 -0.27807346 0.1987648 0.19599728 -0.26675084 -0.6630941 -0.016317757 -0.0756837 -0.4243963 0.08934303 -0.6476032 -0.33291566 -0.075838044 0.83782953 0.21613798 0.13871358 0.015406672 -0.08028501 -0.4355368 -0.31275013 0.054423675 0.13153881 -0.21526529 -0.26318908 -0.225433 0.1420228 -0.4103906 0.20602518
3427 0.02936994 0.23761429 0.031736452 0.32577917 0.139216 -0.004280007 0.014164648 0.0053592683 0.2615415 0.12778881 0.104732655 0.37918 -0.07578233 0.18469027 -0.24067557 -0.09704438 -0.13931762 -0.106488496 0.09848444 -0.07562868 0.3404534 -0.038102087 -0.08150817 0.13687596 -0.21503052 -0.2951037 0.0072095646 -0.17636697 0.14544106 0.2739951 0.4437969 0.15482135 0.19396482 0.6209347 0.05085505 0.08288433 0.16656204 -0.25409356 0.10654097 0.0628961 -0.06983914 0.13236836 0.3009633 0.4775619 -0.16505456 0.009280584 -0.15015127 -0.16601421 0.3108745 0.30264887 -0.3381181 0.5926097 0.18660538 0.19560052 -0.36621702 -0.42174748 0.27892876 0.43677172 0.4729654 -0.104944944 0.044524107 -0.069221824 -0.58409226 -0.26271668
30313 0.25944632 0.08892856 -0.6094119 -0.2847146 0.23928691 0.450232 -0.43575713 -0.16794567 -0.07309612 -0.22281267 0.06664785 0.009449729 -0.15551345 -0.14287436 -0.24049202 -0.31546116 0.39307103 0.108950585 0.19954224 0.09341077 -0.15904444 0.7312129 -0.18099919 -0.11914465 -0.029175922 -0.14060558 -0.1198646 0.22814168 0.09462194 -0.27976456 0.20987622 0.041584857 0.22941336 0.2732911 0.43945345 0.03405156 0.2464799 0.011921314 0.23425852 0.37522125 0.010220369 0.091369316 0.48715588 -0.23152354 0.11943353 0.15082394 0.080194734 0.090924285 -0.39822233 0.12347719 -0.26516172 0.24185838 0.25087097 -0.36511827 -0.37984776 -0.3890451 0.34899837 -0.39558557 0.20174554 0.30349153 -0.19715944 0.15023762 0.18330453 0.11499594
1480 0.33815444 -0.17769755 -0.7254839 0.037493777 0.5329706 0.17806385 -0.18615656 0.076378256 0.21563856 -0.042960975 0.15248348 0.23044024 0.023508877 -0.11381858 -0.4209434 0.02300749 0.202836 0.026089964 -0.06806102 0.12250285 0.29237145 0.39584246 -0.3655482 -0.40553936 0.13655938 -0.23081782 -0.077847786 0.11176954 -0.29289234 -0.5443187 -0.035383437 -0.17604098 0.26481897 0.26607123 0.21074471 0.08837506 0.135083 -0.027750287 0.29544684 0.3124748 -0.58443844 0.10841866 0.33709416 -0.1557382 0.492213 -0.051234044 -0.010335227 0.23567902 -0.39969552 0.17832759 0.43606773 0.23793767 0.20998876 -0.15246241 -0.4426764 -0.5328834 0.6424898 -0.028301908 0.506139 0.17605835 -0.044343755 0.07259069 0.08486702 -0.11446768
136499 0.075862005 0.20362177 -0.15017563 -0.337003 -0.19338141 -0.124926575 -0.2167447 -0.36732557 -0.03503964 -0.32496706 0.038756255 -0.25816202 -0.048692863 0.2781308 -0.523021 -0.17873713 0.41321006 0.032711837 -0.3729278 -0.24579042 0.03612879 0.27784657 -0.21899123 0.059602197 0.018019017 -0.12315618 -0.21013859 0.20197302 -0.114049345 -0.16302118 -0.10341481 -0.08776865 0.5684001 -0.14469764 0.09429331 0.39973643 0.27011132 0.06172488 -0.21718237 0.11685404 -0.27396533 0.037758764 0.6410063 0.12424334 0.48926225 -0.25025967 0.53211284 0.16503508 -0.53656846 0.18380328 0.20157924 -0.08659178 -0.067818895 -0.14530037 -0.4031838 -0.5526319 0.55513763 0.13075586 0.23353063 0.26999724 -0.39131832 -0.21306393 0.2316129 -0.54536664
15974 -0.22405839 0.09358173 -0.12644361 0.28063893 -0.06247891 -0.24736257 0.1270773 -0.3819783 0.3431752 0.41771594 0.45764938 0.049901403 0.33552292 0.1979133 -0.60801756 -0.24941507 -0.07148513 -0.049675383 0.29251155 -0.22586854 -0.38150263 0.35542828 0.3415611 -0.033788428 0.04229539 -0.1381769 -0.112382025 0.2882707 -0.23571049 -0.053803556 -0.14399266 0.06686297 -0.1280378 0.34358227 0.044593636 0.20288499 0.38817915 0.1827739 0.051341385 0.23025803 0.3668891 -0.34241694 0.26684934 -0.27290934 -0.16423507 -0.2692104 -0.11592273 -0.051346 0.31243753 0.703445 0.66271853 0.101597294 0.5861945 -0.26207408 -0.47577187 -0.37129053 -0.09938867 0.2092273 -0.39408088 -0.38957658 0.16677023 -0.18090858 -0.26401228 -0.48679844
175611 0.43468133 0.046989936 -0.49012852 -0.28272715 0.23727469 0.3336147 -0.20509303 -0.21740068 0.019370204 -0.063648514 0.14711295 0.011780079 0.1449452 -0.100643754 -0.18200527 -0.24359587 0.28986108 -0.04285108 0.20842315 0.0153356865 0.14240302 0.58868176 -0.45845354 -0.41348097 0.108798265 -0.23417637 -0.08057087 0.26156658 0.06975628 -0.14716767 0.11740868 0.011922815 0.22455575 0.08030877 0.30086777 -0.066276304 0.17189337 0.12555036 0.059892073 0.29706365 -0.39540604 0.03188982 0.33778742 -0.1586245 0.25281084 0.14470613 -0.035470102 0.2756989 -0.62900203 0.035580855 -0.16704294 0.25557983 0.18373626 -0.093514144 -0.3029714 -0.38648427 0.7597023 -0.30327103 0.32037458 0.32091114 0.18213241 -0.041073073 0.17840062 -0.012412192
34688 -0.04057275 0.044271946 -0.18788423 0.48393357 -0.53258353 0.58465856 0.05519339 -0.4262992 0.6341081 -0.048513766 0.18439029 -0.1044892 -0.40162873 0.28030208 -0.14922065 -0.17551497 0.20412156 0.5243028 0.117255464 -0.32113394 0.1052751 0.22060023 -0.11146974 0.02276495 0.115986 0.08221649 -0.020519976 0.40117913 0.08004931 -0.04572857 -0.26235464 0.42986897 0.45254782 -0.14338122 0.31005138 0.21205758 0.13609922 0.3032146 0.03183685 -0.2435561 -0.35071817 -0.21845426 -0.1328226 -0.18065932 -0.15174937 -0.37550586 -0.16349807 0.090300374 -0.0027551067 0.47769928 0.29373568 0.13736464 -0.14026254 -0.49596843 -0.16900478 -0.091554195 0.030453231 0.71870106 -0.5739312 -0.36793607 -0.14646038 0.109919704 -0.46278402 -0.030407986
39329 0.17672376 0.18819249 -0.1653645 -0.24547687 0.1327762 0.11745015 -0.58796394 -0.40686065 -0.16390684 -0.11242883 -0.17173825 -0.04886359 -0.3634765 -0.25694007 -0.3035193 -0.1730307 0.45550662 -0.3975463 -0.21527179 0.33809313 0.15310933 0.6541396 -0.1079463 -0.28275993 0.23238787 -0.12776558 0.16059437 0.16031356 0.09818222 -0.3095351 0.051212776 0.30767572 0.37374184 0.26175186 0.11613579 -0.012846693 -0.024048401 0.037371363 0.4567413 -0.007541013 -0.17425297 0.45349565 0.449614 -0.07534536 -0.2220961 -0.26193044 -0.03198337 0.23738332 -0.3729734 -0.22128825 0.17917377 0.27002424 0.49043262 -0.20510302 -0.42338902 -0.34079647 0.43285272 -0.08245684 0.4871155 -0.06268432 -0.3124348 0.30940372 0.15009715 -0.27436382
172236 0.1879588 -0.18911995 -0.30267772 -0.23996879 0.0657432 -0.015827863 -0.0867306 -0.060135763 0.7168753 0.3324105 -0.21420702 0.32992926 0.16780086 -0.10377998 -0.9061124 -0.1322522 0.52884144 0.10670112 -0.006972461 0.38828444 -0.38853168 0.32390568 -0.05573607 -0.3764641 -0.15465084 -0.13715291 0.45631877 0.26368156 0.087006375 -0.0984204 0.017319772 0.37203413 0.02532762 0.22873694 -0.4945352 0.34301883 -0.22985096 0.024061535 0.51804954 -0.059722006 -0.33876437 -0.20229478 0.18514225 -0.06015401 0.4417631 0.17045859 0.13112184 0.63052416 0.14740191 0.21310672 0.29804868 -0.31473133 0.12813735 0.826138 0.4646011 -0.5470908 0.02574447 0.1003031 0.1987543 0.15816952 0.22269784 0.089004464 -0.19867787 0.18942623
44503 0.058571137 0.08773984 0.2220219 0.0031953845 -0.36644065 0.023889724 0.35904312 -0.5356065 -0.07521718 0.01963871 0.3243727 0.62533444 0.2007181 -0.002453823 -0.6930554 0.0015150643 0.24060853 0.31759098 -0.16673252 -0.17844407 -0.060854655 0.28967348 0.15707576 -0.16211839 0.19036703 0.23978862 0.16469786 -0.033436935 0.32967505 0.2589403 -0.16448846 -0.31417274 0.11676698 0.29459986 0.19415298 0.43875608 0.52416223 -0.19043379 -0.06522037 -0.26131755 -0.28762844 0.15267439 0.034261253 -0.19613098 -0.2730664 0.1590834 0.050044987 0.08476336 0.6156458 -0.115060054 -0.22244433 -0.34079218 -0.059244864 0.3626456 0.081563346 -0.5425186 0.12759176 0.09514784 0.86859155 0.1429629 0.30062258 0.26229233 -0.19411856 -0.10686685
18608 0.10743517 0.1803199 0.040487435 0.46313685 -0.13296741 0.20747507 0.32670265 -0.40849394 0.1782759 0.08330581 -0.10904887 0.7406581 0.53770083 0.3905892 -0.2898834 0.05203717 0.32115412 -0.08267754 -0.004552678 -0.23728086 0.28388005 -0.20115659 0.24519157 0.051369898 0.7002628 -0.49102747 -0.32796606 -0.33172315 0.09752857 0.5343345 0.17981234 -0.06474851 0.09449963 0.26770902 -0.07559088 0.16880031 0.14891905 -0.39207056 0.17312473 0.27899924 0.08406139 -0.119725734 -0.23555957 -0.28656483 -0.18238232 -0.07307368 -0.022475513 -0.33825272 -0.1959071 0.48484772 -0.029517986 0.24163663 0.20801102 -0.017977437 0.047144897 -0.49338958 0.15426603 -0.052824497 0.36636248 -0.07276421 -0.28736562 -0.05429665 -0.20588423 -0.31921735
22687 0.40961406 0.06296644 -0.29477826 -0.14166634 0.42751572 0.09267232 -0.24496837 -0.36503243 0.020566013 -0.13005406 0.06960949 0.15263164 -0.028419988 0.14144015 -0.24564746 -0.2685658 0.33657664 -0.31793937 0.19677065 -0.025531411 0.037574045 0.37734318 -0.40918627 -0.037089683 0.32152498 -0.22245173 0.08371933 0.13077566 0.05263732 -0.18450627 0.039915342 0.029917134 0.30813223 0.030515715 0.41846433 -0.055920288 0.0779336 0.15889372 -0.00031357465 0.20871672 -0.4098651 0.049326576 0.46945232 -0.14718978 0.03867321 0.38339123 0.00328629 0.14972775 -0.5390371 -0.00017453876 -0.20907694 0.29675904 0.23381285 -0.16788663 -0.4272155 -0.107603416 0.7294368 -0.36374724 0.0674708 0.24750873 0.22962871 0.019215029 0.06386959 0.093474
20647 0.12993649 0.055280272 -0.06535628 0.4886561 -0.062539406 -0.32683584 0.28928807 0.05740061 0.38368335 -0.08597497 0.06219105 0.4209994 0.042476613 -0.20481437 -0.23455535 -0.086062916 -0.012872613 -0.24268237 -0.031409908 0.27167842 0.3034004 -0.21197946 -0.109212846 0.10627903 -0.2934685 -0.26990882 -0.129298 -0.028993059 0.13977106 0.22173913 0.13106436 0.14235993 0.52264464 0.42897537 0.07788802 0.09803119 0.19689055 -0.38716143 0.17234425 0.23213978 -0.062009767 -0.13534251 0.44848922 -0.036932297 -0.21926956 -0.1879677 -0.25765705 -0.040119994 0.066261426 0.6825669 0.040154405 0.58062744 0.14271998 -0.29686472 -0.34914196 -0.2130546 0.16145968 0.18065698 0.33964103 0.1374214 0.18222764 -0.12438515 -0.6342504 -0.035439443
235324 0.5569176 0.5011971 -0.31807554 0.0652471 -0.055205014 -0.055416524 0.052215684 -0.29517326 0.8621261 0.23600027 0.025149578 1.1574324 -1.0138695 -1.609571 -0.90051186 -0.85399055 -0.04464505 -0.12953706 -0.8573765 -0.9007942 -0.27862453 0.088478394 -0.511929 -0.33559418 -0.25754905 0.19152503 0.036629822 -0.3961443 0.15444678 0.4049862 -0.99742424 1.0141712 0.0017957637 -0.39357913 -0.69983417 -0.00024437174 0.14515254 0.6683563 -0.25767252 -0.044585332 1.1526542 -0.18240741 -0.30066547 0.06058745 -0.43980744 0.83559334 -0.42620498 -0.21229342 -1.0521227 -0.12597656 -0.2699889 -0.31274706 0.060509644 0.6890152 -0.29666397 -1.3974602 0.46294314 -0.10639568 0.11546303 0.2732775 -0.18726382 0.80375147 -0.03966473 -0.1774252
25295 -0.22354326 -0.051599115 -0.33988327 0.102203116 -0.28898612 -0.46992648 -0.057992067 -0.046883278 0.2856505 -0.05290555 0.6527997 -0.12484267 -0.37010452 0.20456079 -0.48151255 -0.21611159 0.38141644 -0.110213555 -0.27370057 -0.2958012 -0.28102353 0.10808298 -0.20123984 0.11458019 -0.4939321 -0.16300131 -0.03164373 -0.045018345 -0.33466807 -0.05645007 0.26350638 0.13727413 -0.07677235 0.29474196 0.82423055 0.2404878 0.133276 -0.27628118 -0.18160516 0.50592834 -0.07812806 -0.08535457 -0.20964187 -0.438209 -0.7061768 0.41713914 -0.38227102 -0.18947947 0.15110041 0.55938 0.32727516 -0.402044 0.044452716 0.34320676 0.05017567 -0.7789327 0.37405354 -0.077482134 -0.2557465 0.12962429 0.17693561 -0.19281505 -0.60263604 -0.7006312
25711 -0.18009204 0.21367428 0.141786 -0.0051898197 -0.12700452 -0.042228777 -0.24293002 -0.29608712 0.239443 -0.28680494 0.11472419 0.23098855 -0.04866565 -0.36478418 -0.16410397 -0.19664827 -0.010538856 -0.1780785 -0.21674836 0.0053620073 0.12773669 0.15920208 -0.13444015 0.23739879 -0.08699073 -0.16637719 -0.44195136 -0.20631352 0.15924892 0.016664248 0.2502827 0.5098687 0.30086604 0.596831 0.43715402 -0.39488727 0.15046388 -0.5666585 0.2769239 0.15675208 0.037917152 -0.08871354 0.3426029 -0.0060342345 0.025271421 0.03223169 -0.028176509 -0.25942588 0.13997996 0.02920605 -0.2152776 0.22403535 0.32323706 -0.10098442 -0.57277685 -0.15931092 0.08091891 -0.08478315 -0.19141378 -0.12533872 -0.035053365 -0.28967237 -0.46529558 -0.133723
20558 0.24544308 -0.061463907 0.33511707 0.6018371 -0.057812545 -0.25560355 0.010215921 -0.49668303 0.3412207 0.38816756 -0.013484996 0.65923107 0.23368183 0.03327174 -0.41580212 -0.23912206 0.5034081 -0.22956625 0.012372441 -0.31966645 0.07909098 0.12545559 -0.4096057 0.076531 0.06120318 0.24484585 -0.22677906 -0.13390622 -0.15338838 0.33506188 0.16105329 -0.096546605 0.24619068 0.22775316 0.34509268 0.05035057 0.69513124 -0.083075546 0.06798153 0.41954318 0.25043786 -0.3619629 -0.042240642 0.009604574 -0.13725583 -0.3499227 0.17581311 0.058668938 0.092801005 0.6448993 0.097967364 -0.023772763 0.52024 -0.14659762 -0.31889755 -0.23163195 -0.021522602 0.3695461 -0.21905005 -0.50183964 0.34456062 0.20878372 -0.096703574 -0.49714753
14389 0.25836584 0.12265588 0.14957128 0.26036373 0.0398585 0.19728883 -0.131211 -0.21199413 0.497693 0.2847438 0.07789441 0.2467982 0.052287538 -0.016908506 0.13919596 0.02795007 -0.33922213 0.3521219 0.23844121 -0.22629608 0.14980584 -0.08027475 -0.10886565 -0.06999314 -0.28505588 -0.327843 0.14151032 -0.30721232 0.070698716 0.49762744 0.7258081 0.6197304 0.051339045 0.71584433 0.013362818 0.059143532 -0.03831049 -0.055852715 0.092686415 -0.29619485 -0.41961053 0.39381692 0.3150493 0.040562104 -0.005180607 0.37896317 0.046208005 -0.0443012 -0.062652394 0.1324096 -0.3549996 0.03062774 -0.25622517 -0.04752528 -0.6979234 -0.3697452 0.48709756 0.028413074 0.048147827 -0.12545852 0.12083852 -0.32565936 -0.53541946 -0.43423185
68351 -0.30877045 0.019573564 -0.12186596 0.10130644 -0.4740946 -0.18027616 0.16682795 -0.53161716 0.7955502 0.4526479 0.3640301 0.1765289 0.14948711 0.06469183 -0.025493126 -0.18439159 0.7981987 -0.22468075 0.6825495 -0.08495425 -0.21033923 0.07890576 -0.7044751 -0.17789799 -0.13570978 0.14513952 -0.16645764 0.08231824 -0.26244634 0.23772205 -0.15855339 -0.036010332 0.20324111 0.23316664 0.24513179 0.05633846 0.37231776 -0.66360486 -0.71423584 0.019127058 -0.20866373 -0.27452305 -0.6524595 -0.2323678 -0.1617926 -0.36381572 0.4097332 0.30640385 0.0998072 0.6141963 0.16970177 -0.010600909 0.37698668 -0.14336075 -0.6528528 -0.3181455 0.2797696 0.5047717 -0.4735636 -0.3740497 0.1540819 0.41067138 -0.35299477 -0.35322276
8607 0.4118476 -0.22030753 -0.09298734 0.013563163 -0.15777083 0.34060797 -0.21219823 -0.46685764 0.46571535 0.49601814 0.5530165 -0.37434345 -0.049645945 -0.015995726 -0.35394686 -0.32869494 0.19728768 0.2964797 -0.45427644 -0.12612408 -0.35879064 0.0977098 -0.20040864 0.30390123 -0.60007435 -0.36840504 -0.17091112 -0.16789828 -0.506549 0.10907918 -0.16035235 0.11427014 0.10843549 0.47477686 0.76586306 -0.032341115 0.002983793 0.04304142 0.13214242 0.69168365 -0.09430025 -0.17879432 -0.12884562 -0.1530562 -0.6759985 0.32154924 -0.16369577 0.022052325 0.4545677 0.21445748 0.9224825 -0.017195802 -0.1314088 -0.010995128 -0.25088668 -0.6291054 0.3592669 0.10143896 -0.5707828 -0.3631639 -0.19808644 -0.22772706 -0.3158424 -0.23395935
